			-0.23112361,-0.48331264,0.10118067,-0.009410364,0.18514228,-0.36236808,0.21105658,0.088610224,0.004596161,0.03387633,0.063847885,-0.098139904,0.3317115,0.1890814,-0.277232,-0.16063452,-0.41089147,-0.086170286,0.12625103,0.1801882,-0.35992548,-0.26384446,
			0.06774061,-0.04688913,-0.63802624,-0.2433961,-0.08074536,-0.1630305,0.0064344388,0.030321296,0.2383375,0.17147656,0.06758941,-0.6926645,-0.54214,0.089721754,-0.20030376,-0.0013076005,0.1554463,0.077912316,0.0616206,-0.25541946,0.21558039,0.20852737,
			-0.027180381,0.0016667807,0.04034975,-0.3260117,0.12286814,-0.507684,0.08275646,0.13373189,0.4794747,0.23493181,-0.5251716,-0.1817997,0.0536529,0.18278174,0.25616866,-0.63761187,0.14015841,0.19002762,0.26190218,-0.4760132,-0.1852249,0.09400038,
			0.11297861,-0.38087785,-0.006528384,-0.27948025,-0.2545171,0.07493341,-0.39792594,0.0770822,0.3298221,-0.067024514,-0.060596354,-0.9357349,0.14786534,-0.15858881,-0.11666593,0.008674029,-0.18737316,-0.08048561,0.25481266,0.08101417,0.1830434,0.100458354,
			-0.043455306,0.07793409,-0.10558375,-0.19188164,0.057471015,-1.0975314,0.08039946,-0.111360885,0.21946943,0.09051311,0.02341765,-0.4193161,-0.07026399,-0.33997017,-0.052052926,-0.05361528,0.06871631,0.028174637,0.2972926,-0.022322554,1.7425486,-0.059374407,
			0.42894417,0.00571495,-0.012869518,-0.019940332,1.1099329,-0.16012111,-0.3638785,-0.0792285,0.07267288,-0.16894661,0.104383,-0.3787421,0.07890189,-0.07962328,0.056367457,-0.2983015,-0.013654521,-0.093723,0.10241062,-0.07972904,0.02413862,-0.08079982,
			0.070290335,-0.012696741,-0.10391165,-0.041149992,-0.08944075,-0.0525416,0.097404025,-0.08539221,0.19759373,-0.111585766,-0.529321,-0.299381,0.30555987,-0.0052747726,-1.0852207,-0.19887832,-0.029807096,-0.21548793,0.14502776,-0.077859245,-0.03005367,0.041904796,
			-0.02874517,0.25092408,0.122742206,-0.118084274,0.04089091,0.090423666,-0.31661946,0.1322993,0.13221571,-0.016658593,-0.39627653,-0.13297956,0.15083356,-0.36464623,0.5259816,0.055335898,0.37148938,-0.012832296,0.117395595,0.336216,0.19584018,-0.26486492,
			-0.36750808,-0.07690873,-0.13229188,0.07654754,-0.10346065,-0.19592012,-0.0198819,0.4020706,0.64243263,-0.55179286,-0.042794764,-0.19010629,-0.27998605,0.19859621,0.11066997,-0.07002682,-0.1377764,-0.5007776,0.24819046,-0.16938631,0.231165,-0.16120048,
			0.076688394,-0.28926575,-0.27115557,-0.24892846,0.24614288,-0.068117686,0.166269,0.101717494,0.48170096,0.20485838,-0.33262414,-0.23289678,-0.24595541,-0.02417823,0.24205989,0.07264745,-0.20657684,-1.0957263,0.25290847,0.3150227,0.048930995,0.11755617,
			0.45179555,-0.07885785,0.41905957,-0.06409705,-0.20223437,0.041898414,-0.03473564,-0.37577683,-0.27367073,0.07438417,-0.014732422,0.044280738,0.29054162,-0.007029912,0.08296235,0.013213352,-0.118314095,0.043381974,-0.3067322,-0.25216314,0.009374219,0.62833625,
			0.20681438,0.25310174,-0.2721603,-0.33191323,-0.4364906,-0.33067098,-0.4288431,0.10616703,0.12397605,-0.0062993187,-0.16299312,-0.104639634,-0.16556537,0.18774779,-0.06525721,0.018832471,0.26295054,-0.098382406,0.06222571,0.29027045,-0.38108814,0.17502551,
			-0.03286924,-0.43764034,-0.2918578,-0.033364348,0.36194888,0.0912252,0.2593487,0.13767977,0.16437863,0.054382745,0.18944623,-0.11765968,-0.054924972,-0.36403275,-0.28099406,-0.255297,0.023128618,0.004496514,0.1316999,-0.55440617,0.12543069,0.09744195,
			0.19348769,-0.2552036,-0.075762145,-0.047082458,-0.011511987,-0.07677865,-0.04536326,-0.12223331,0.11490619,-0.21825773,-0.06205061,-0.38684672,0.20576735,-0.05546117,0.0057010637,-0.1551978,1.2018402,-0.25860038,0.11120496,-0.066464044,-0.014681514,-0.023770431,
			-0.19397695,0.058355782,-0.21449561,-0.30953288,0.0848439,-0.0062395665,0.031737715,-0.19060808,0.14844371,-0.44590458,0.0676545,-0.12760484,0.42513868,-0.14732929,-0.016584164,-0.023606528,0.06416919,-0.21629307,0.21686365,0.11751598,-0.10318893,1.4328691,
			0.6223537,0.0040481384,1.4536018,-0.06963082,0.050914295,-0.08273234,0.07746422,-0.1756792,0.2714403,-0.3845905,0.05269239,-0.29010212,-0.33736253,-0.14170006,-0.06724632,-0.052708905,0.07599503,-0.20300682,0.16219462,0.036714867,-0.096057646,-0.2105641,
			0.042849306,-0.07232676,-0.05789479,-0.25603655,-0.028330553,-0.1047861,-0.021013414,1.4558642,0.3631031,0.2610207,-0.06732066,-0.29259807,0.020068118,-0.023276737,0.008164167,-0.09232725,-0.010968556,0.3270537,0.103647806,-0.050294723,0.049041416,-0.022331083,
			0.17372955,-0.26056227,0.068843305,-0.2742731,-0.07229289,-0.02740551,-0.22622582,0.48119363,0.3906386,0.19168112,-0.21953127,-0.15408482,0.16538788,-0.3873191,0.0011737102,-0.10100395,-0.039371684,0.17880079,0.33449027,-0.18625477,-0.41170463,0.2299556,
			-0.13045889,0.20658901,-0.14076574,-0.14549553,0.100135915,0.11097377,0.19913822,-0.15591213,0.17141911,-0.07622832,0.070211306,-1.0657212,-0.14835654,1.6664363,-0.035791356,0.06628819,0.09574658,0.06673359,0.07244385,0.03631662,-0.15374926,-0.12871021,
			-0.54091704,0.10138911,0.18686825,-0.048317827,-0.19338024,-0.012569751,-0.37619606,0.06540298,0.26454017,-0.65562207,0.25932226,-0.12951246,0.23412529,0.027262112,-0.18575282,-0.32504776,0.24397068,0.120605566,0.23140502,-0.35594058,0.04934088,-0.29005793;
