			-1.079224,0.03819655,0.12868895,-0.8409595,-0.21363668,-0.25288528,-0.1516889,0.41731796,-2.7913048,-1.1340446,0.65647286,0.099801235,-0.8538214,1.2619253,-0.041232813,0.09474203,-0.5073987,-1.4287058,-0.21204317,0.006033216,
			-1.0825781,0.3987136,0.39661217,-1.539649,0.07407408,-0.33348778,-0.26413587,0.17283231,-1.164289,-1.1502478,-0.20852779,0.34253198,-1.8218869,1.2916641,-0.47467023,-0.16327521,-0.62227887,-2.0561428,0.51418287,0.29336137,
			-0.8950308,0.48498553,0.42420015,-1.4707674,-0.012440715,-0.36936772,-0.14687558,-0.31403914,0.058997788,-0.7739823,-0.13248868,0.56482023,-1.9092499,0.5838938,-0.38237965,-0.3899313,-0.37802842,-2.1723628,1.2224746,-0.004365833,
			0.2570208,0.29106113,0.19669169,-1.0757476,-0.10710251,-0.09970482,-0.13686922,-0.5657404,0.39313784,-0.16680223,0.36540195,0.1622815,-0.8136446,-0.051047597,-0.27544686,-0.2562777,0.08151825,-2.8195345,1.0430332,-0.093803346,
			0.5712455,0.2546955,0.42370525,-1.5382949,-0.19634548,0.4464157,-0.054373357,-1.4166002,0.2299885,-0.004637089,-0.3686389,-0.9672278,-0.43797362,-0.336636,-0.2501134,-0.34664163,-0.48534012,-2.115345,1.09412,-0.6084152,
			0.26769653,0.09473076,0.37983733,-1.4929359,0.01459198,1.0795411,-0.18563762,-1.5537509,-0.9775676,0.42769012,-0.46637884,-1.0992573,0.25726202,-0.34345526,-0.102649406,-0.4382488,-0.7387159,-2.0741441,0.47939464,-1.0407786,
			0.101434305,-0.17597334,-0.0029953944,-0.81834894,-0.2536242,1.149932,0.012116292,-0.6069165,-2.3149445,0.1144416,0.60884887,-0.9214698,0.524652,-0.338099,0.10597158,-0.08860252,-0.5256776,-1.5195626,-0.19146638,-0.94888556,
			-1.16299,-0.9866214,0.3866248,-0.83560705,-0.5885909,-0.3462311,-0.08767856,0.5334441,-4.329607,-1.7278404,0.6314651,0.00900946,-1.2783655,1.2506558,0.092954025,0.6560372,-0.47599173,-0.23596421,-0.46665323,0.11351949,
			-0.3264349,-0.4509109,0.61007094,-1.0720744,-0.21409397,-0.45377967,-0.31563768,0.24532337,-1.7577412,-1.3258601,0.05403883,0.13191389,-1.7664553,1.0615349,-0.23242496,0.2621519,-0.5423924,-0.7993258,0.08966383,0.44176564,
			0.2043727,-0.08389167,0.7308725,-1.2275054,-0.42321274,-0.44701192,-0.25551352,-0.38644195,-0.10795691,-0.8816762,-0.37558994,0.44628537,-1.9223343,0.58409214,-0.31403035,-0.09785338,-0.41242394,-0.8115519,0.72916687,0.02338994,
			0.5299481,-0.00803186,0.646143,-1.1496321,-0.4825916,-0.21954942,-0.1460356,-0.88634485,0.485108,-0.27881005,0.035447896,0.5202425,-0.96439,-0.09755395,-0.1966407,-0.254258,0.05697063,-0.89459103,1.0877241,-0.31917936,
			0.38349193,0.066288516,0.67622393,-1.2934152,-0.43267897,0.4583963,-0.23362903,-1.716592,-0.048175883,0.18585171,-0.22467637,0.19559096,-0.34385654,-0.4246593,-0.026428286,-0.27542555,-0.5219791,-0.7777129,0.7357139,-0.7572773,
			-0.005093907,0.10344012,0.53389484,-1.0876955,-0.15398417,0.9479075,-0.32312927,-1.7238181,-1.688836,0.6125625,0.2976605,-0.27458486,0.4284181,-0.53466713,0.3016786,-0.1468539,-0.5878424,-0.7584948,0.11786774,-1.1556033,
			-0.07181991,-0.430766,0.29015386,-0.92090976,-0.52135324,1.1199434,-0.116203785,-1.4735838,-4.0600276,0.3328592,0.88638586,-1.3995672,0.68327874,-0.2522674,0.74485433,0.046196423,-0.4997337,-0.116221584,-0.4301691,-1.481327,
			-0.8987326,-0.6159576,0.08977681,-0.53686106,-0.4016205,-0.16501728,-0.17530853,0.6322553,-3.843928,-1.5113628,0.9611511,-0.45946917,-1.1821687,0.5315133,-0.1571064,1.2116017,-0.40274957,0.093361065,-0.49893993,0.23840648,
			0.18422502,-1.0038391,0.217207,-0.66043633,-0.4323933,-0.39278305,-0.18630229,0.43233478,-1.4926615,-1.2228378,0.29446048,-0.47815213,-1.8099232,0.57265615,-0.4224403,0.85504687,-0.44449222,0.08616915,-0.14471768,0.6277964,
			0.44700164,-0.27746004,0.2346784,-0.67762226,-0.44527128,-0.30907586,-0.27598158,0.0055335187,0.12802808,-0.76206636,-0.3442704,-0.08917027,-1.4189703,0.20594956,-0.53058404,0.27046385,-0.020454898,0.31871173,0.22770858,0.14212285,
			0.2997289,-0.09302747,0.21683009,-0.7576875,-0.58330834,-0.20663816,-0.09601868,-0.5220307,0.43284273,-0.14014514,-0.26478928,0.28357148,-0.5945408,-0.13170929,-0.18628956,-0.25715593,0.51455444,0.30667734,0.40163368,-0.20398797,
			-0.17229955,0.13972084,0.22122705,-0.6774412,-0.41290283,0.2302945,-0.2934419,-1.221977,0.06644969,0.22462623,-0.117719814,0.42396283,0.093410656,-0.36840433,0.2498585,-0.4189667,-0.03760475,0.29947913,0.17805625,-0.73353755,
			-0.5708312,0.35473078,0.17688394,-0.6573299,-0.3249707,0.5799327,-0.29039407,-1.6595742,-1.8083885,0.6401039,0.67007095,0.1472681,0.51738614,-0.36231923,0.8546511,-0.39597332,-0.4977753,0.19335432,-0.1847492,-1.2198876,
			-0.46681237,-0.027830597,0.024570717,-0.5682284,-0.41735145,0.5200106,-0.117208526,-1.3742508,-3.431571,0.2196877,1.2959667,-0.94933283,0.72907317,-0.09323152,1.2578565,-0.17868537,-0.44958162,0.16169192,-0.56324124,-1.3189211,
			0.10712481,-0.913075,-0.17873201,-0.26072294,-0.41041523,-0.1747617,0.10405311,0.13261959,-2.0875728,-1.0116018,1.2475754,-0.8985116,-0.7741596,0.102486014,-0.0951035,0.95924014,0.13563009,0.055436544,-0.38155204,0.27232945,
			0.47953412,-1.0319555,-0.21274783,-0.28610364,-0.3394681,-0.2518214,0.021416618,0.3602868,-1.1572694,-1.0453627,0.5257492,-1.120568,-1.1642666,0.008544039,-0.441732,1.0701522,-0.020407708,0.21714391,-0.23082821,0.708946,
			0.1980618,-0.6511611,-0.10679038,-0.13368092,-0.24763887,-0.12896673,-0.094899595,0.16597588,0.15864876,-0.6746532,-0.6027501,-0.6890035,-0.6917468,-0.10901598,-0.54201156,0.37240106,0.3547172,0.59318733,-0.21416028,0.20628344,
			-0.19952,-0.25042015,-0.22451869,-0.27745524,-0.16814175,-0.118533015,-0.12647055,-0.11076198,0.3967991,0.050227236,-0.16644645,-0.14652319,-0.106756344,-0.15390766,-0.15931767,-0.18398921,0.96971864,0.47718924,-0.15279457,-0.04110459,
			-0.83602643,0.13256362,-0.13097599,-0.123616226,-0.2791012,-0.051960576,-0.103898905,-0.63881516,-0.10712784,0.23598681,-0.38018447,0.2502967,0.2553782,-0.1619623,0.3942939,-0.5027082,0.39712018,0.6762605,-0.26325688,-0.83971375,
			-1.1051782,0.47625303,-0.22742389,-0.27564883,-0.23890159,0.10341324,-0.22163357,-0.9363269,-1.621394,0.59911776,0.9082039,0.39787355,0.34401858,-0.24570748,1.0522834,-0.41206473,-0.060250737,0.34024388,-0.28459263,-1.0380583,
			-0.6941226,0.17380172,-0.19036186,-0.20469508,-0.31726718,0.17204812,-0.21530451,-0.5594621,-2.4118133,0.05056155,1.3939941,0.0904104,0.06512227,-0.18424317,0.8728684,-0.002253803,-0.008069012,0.09296096,-0.3443861,-1.0571357,
			0.6446133,-0.979166,-0.7092078,-0.18165106,-0.45206216,-0.11887979,0.6455876,-0.6930113,-3.1445906,-1.2787056,1.1376523,-1.509235,-0.359764,-0.08946201,-0.24896984,1.2474259,-0.3303412,0.26978904,-0.42515516,0.38358217,
			0.47529283,-1.2148699,-0.7169463,0.023509447,-0.20545882,-0.2930248,0.6713067,-0.0634773,-1.3428257,-1.12073,0.3776902,-1.5969923,-0.4425366,-0.22430277,-0.4425105,0.80437547,-0.51633966,0.11584688,-0.22346067,0.7631531,
			-0.0012856696,-0.2654128,-0.6639608,0.18150717,0.20644407,-0.26580474,0.28136885,0.32715076,0.20893262,-0.7149786,-0.21429557,-1.3634678,-0.007450522,-0.26643208,-0.5352614,0.22454295,-0.02467373,0.2175881,-0.33368495,0.25417733,
			-0.6428256,0.0030234586,-0.71733516,0.24091294,0.44816795,-0.053175837,-0.14211343,0.30554056,0.3823697,-0.081398234,-0.24922949,-0.633403,0.33966073,-0.08204539,-0.30261257,-0.23357181,0.5296865,0.2149365,-0.53852737,-0.13489223,
			-1.4129211,0.28913662,-0.64047605,0.24478583,0.3215593,-0.12760411,-0.20681137,0.043903645,0.046433397,0.22101888,-0.049231626,-0.07479561,0.29861563,-0.19940992,0.24478914,-0.4582859,-0.044899568,0.26259387,-0.36720023,-0.77974993,
			-1.549801,0.44899136,-0.72416776,0.15436712,0.0630505,-0.14494152,-0.3009825,-0.2806861,-1.7740293,0.617943,0.70562094,0.37522125,-0.19956033,-0.118086904,0.8823757,-0.43585092,-0.50305504,0.1426674,-0.20080686,-1.2112684,
			-0.98352027,0.022688411,-0.63818264,0.034089733,-0.29215246,-0.14969172,-0.15371719,-0.2715419,-3.9278991,0.2331023,1.2388444,0.49042147,-1.1275367,-0.025947234,1.266092,-0.23205505,-0.4049678,0.23622926,-0.2802907,-1.2659432,
			0.4325407,-1.4154959,-1.0176988,0.18629515,-0.3449568,-0.13859673,1.3239737,-1.1535935,-3.8798184,-1.4342457,0.7928345,-1.2392673,0.24586774,-0.10729418,-0.05152767,0.67588484,-0.5346375,-0.21215577,-0.5247362,0.359976,
			0.3010721,-0.52841944,-1.1971333,0.41654179,0.06963535,-0.26426077,1.0704517,-0.71805215,-1.3212577,-1.1937183,0.20066881,-1.5670756,0.21548685,-0.33920902,-0.26215833,0.31744376,-0.59207684,-0.8577702,-0.099363,0.64329267,
			-0.41658974,0.029811464,-1.2732971,0.6357844,0.72822845,-0.14545438,0.5154655,-0.054690193,-0.03833396,-0.74773806,-0.22522877,-1.8011286,0.45409688,-0.23574147,-0.39158767,-0.05768855,-0.56327224,-0.9588106,-0.3532361,0.24740833,
			-1.0023353,0.17305426,-1.0009575,0.7166388,1.1245799,-0.08321649,-0.10582198,0.4688686,0.32631576,-0.16007283,0.10984528,-1.0861164,0.42661273,-0.050339773,-0.2925044,-0.2481632,-0.03691857,-1.3186713,-0.42488217,-0.12942575,
			-1.7028214,0.37939808,-1.1898098,0.77290475,0.80832523,-0.17244476,-0.37708881,0.46146426,-0.22949569,0.14494869,-0.1657606,-0.49803337,-0.22638972,-0.067639664,0.098744236,-0.2197355,-0.5482143,-1.0092539,-0.3458794,-0.6947088,
			-1.4305921,0.37648326,-1.0796714,0.6107688,0.3811875,-0.32276264,-0.38369438,0.24766438,-1.8385493,0.4733764,0.14776553,0.1408298,-1.090281,-0.017100388,0.523917,-0.2798514,-0.50433844,-0.7647828,-0.09181859,-1.1923687,
			-1.0729358,-0.33027315,-1.0878898,0.45341486,0.03484575,-0.2070973,-0.14015025,0.24033925,-3.558727,0.27533388,0.54937786,0.28256312,-2.0413513,0.24308577,0.91163135,-0.16586632,-0.5192619,-0.29828194,-0.5565379,-1.5353451,
			0.3440436,-0.30349496,-0.93128324,-0.072483525,-0.14842463,-0.028671239,1.159507,-0.609561,-1.9225457,-0.9377098,0.71148205,-0.923952,0.3336687,-0.16022427,-0.17778042,0.1715121,-0.6045348,-1.3327984,-0.29454485,0.18775654,
			0.23104213,0.3928185,-1.5551412,0.19275165,0.45962793,-0.11165856,1.1035411,-1.1883445,-0.8338993,-1.0748526,-0.119459935,-1.5769184,0.3509599,-0.3256853,-0.4981764,0.054974787,-0.7487275,-1.9332005,0.11376366,0.5146123,
			-0.33519226,0.5909493,-1.372981,0.33322924,1.0945965,0.009504865,0.44342098,-0.97674704,0.07656859,-0.6372639,-0.16482103,-1.5876971,0.4734919,-0.19620898,-0.4101393,-0.21970485,-0.59708697,-2.2546299,-0.09156326,0.16995089,
			-0.6079184,0.38196123,-0.7284968,0.18429583,1.0088975,-0.2413548,-0.021444937,0.17012443,0.23805603,-0.12844981,0.3080265,-0.7221366,0.08071755,-0.14789991,-0.17594928,-0.17437705,-0.11079964,-3.0967503,-0.10773863,-0.039045595,
			-1.3085003,0.41248262,-1.2851886,0.46014652,1.185651,-0.19265985,-0.3724468,0.56055474,0.070381254,-0.005210347,-0.32356948,-0.4572032,-1.407492,0.023652336,-0.035444647,-0.32677057,-0.5380088,-2.6880667,-0.061970137,-0.49472684,
			-1.2850636,0.30360794,-1.5291085,0.48183212,0.61332816,-0.24100462,-0.27254587,0.37669396,-1.1201099,0.29354748,-0.5985356,0.07029682,-2.128471,0.20526034,0.2793795,-0.63255674,-0.6132504,-1.8862467,0.11390681,-1.0634736,
			-0.58739394,-0.12235671,-0.9720669,0.21152923,0.14922185,-0.32394072,-0.22015034,0.28039968,-1.9644307,0.062497,0.34288368,0.22083908,-1.3054564,0.38015458,0.4339768,-0.31148645,-0.5047328,-1.3415523,-0.2186065,-1.0973362;
