			0.016016187,-0.012839927,-0.0041707912,-0.0029378857,-0.039390087,-0.04146569,0.08270777,0.015481171,0.008565217,-0.11553218,0.1084978,-0.047610555,-0.12934683,-0.0695302,0.13708527,-0.08266629,-0.044224016,-0.10828224,0.24033183,
			-0.06051074,-0.015026375,-0.0011117485,-0.025368303,0.035542235,-0.04201663,-0.017476147,0.017411934,-0.028962076,0.004153259,-0.03444933,0.1561078,-0.024029676,0.038829815,-0.016864114,0.021628829,0.001970717,-0.9565293,0.023208825,
			-0.037058946,0.0009789444,0.023813576,0.061769605,0.048145965,-0.0232735,-0.018754788,-0.06350634,-0.028385801,0.014140421,0.05926558,-0.051866416,-0.7886867,0.0023662876,0.02720929,0.100226715,0.04561496,-0.0036328647,0.01763675,
			-0.058998875,-0.04640376,-0.023385024,-0.01984834,0.014098448,-0.05411418,-0.0074900715,0.011339584,-0.0012604169,-0.04876873,0.009891619,0.044688765,0.07754003,-0.026609741,0.21987988,-0.07909442,0.010533899,-0.3932335,0.0027828224,
			-0.004421041,0.014754289,-0.0048311246,0.23642462,0.047558215,-0.017910779,-0.0050796107,-0.2351765,-0.013236533,-0.023676913,0.09957629,0.00488383,0.09381,-0.044345446,0.003943198,-0.06306609,0.12592201,-0.07646387,-0.26529086,
			-0.13269003,-0.08300294,0.010610533,-0.008246921,-0.06382975,-0.12144025,0.08943905,-0.023908926,-0.042324793,-0.19409855,-0.030840926,0.028243558,0.026192525,0.16707104,0.08402527,-0.34987196,0.00010489336,0.0031216275,0.021625008,
			-0.038629495,-0.01417151,0.0014517785,-0.027464284,0.00934204,-0.031905394,-0.0020600806,0.021115609,-0.016539238,-0.00040440547,0.037191242,0.03599987,-0.06278924,-0.8823245,0.0231829,0.1768312,0.016202273,0.037424386,-0.070200115,
			0.067938216,0.02375856,0.0098579135,0.030399239,0.15316774,0.038015515,-0.11308448,-0.024987075,0.011137188,0.019925868,-0.000955564,-0.041029073,0.038596515,0.61684614,-0.10684079,-0.027952282,-0.026888598,0.07329452,-0.08123997,
			-0.6519732,0.0105825635,-0.034732595,0.4643727,-0.46538362,-0.7009009,0.2709297,-0.3579245,0.101339445,0.24225485,0.038110863,-0.03552198,0.03740756,-0.040602606,-0.25771266,0.035910364,0.032387007,0.065389924,0.029399762,
			-0.057203047,-0.012069406,0.012452463,0.07124225,0.052094407,-0.038551353,-0.016525732,-0.0704418,-0.04181447,0.016772293,0.031850617,0.006634767,0.038619287,0.04070938,0.01202592,0.028636407,-0.9513342,-0.014888155,0.029276086,
			-0.016788242,-0.037224695,0.0008951879,0.1361993,0.023769472,-0.010669631,0.008035177,-0.12902564,-0.021845194,-0.04414974,-0.286299,-0.11749384,0.12564626,-0.12606032,0.08655863,0.06364126,0.21447569,0.022606866,0.032107845,
			0.027933242,0.04550095,-0.05004353,0.035169523,0.114783116,0.013346091,-0.09893716,-0.01986283,-0.07494176,0.12766367,-0.03319914,0.3479995,-0.002599044,-0.17110273,-0.08888068,-0.048106965,0.031339794,-0.045709424,0.084686436,
			-0.04758216,-0.0102580935,0.00985945,0.046172366,0.032403693,-0.036470227,-0.0041387146,-0.04722715,-0.031427532,0.0018131784,0.03310277,0.0035997722,0.013806883,0.015862461,0.014087604,0.026322104,0.048625134,-0.03131844,-1.0465355,
			-0.06666226,-0.0316547,0.011399985,0.019533161,-0.02303195,-0.05585713,0.026181476,-0.040495887,-0.015972426,-0.08151697,0.098983414,-0.0045638504,-0.10281492,-0.22487098,0.023721313,0.29411763,0.1207746,-0.020643508,-0.13448872,
			-0.069312565,-0.027817128,0.032714546,0.3414508,0.072767906,-0.03145713,-0.020492166,-0.37733862,-0.011514678,-0.07135344,0.18152651,0.09330693,0.096876964,-0.07282854,-0.016478771,0.062455375,-0.2562214,-0.13885961,0.024875835,
			-0.05063694,-0.018458927,0.015237019,-0.03559724,0.011591881,-0.038247053,-0.00466585,0.027952822,-0.015916951,-2.248548e-05,-0.06643915,0.044116165,0.018017838,0.20356461,0.02394423,-1.1604118,-0.050752822,0.04033667,0.012084804,
			-0.09417614,-0.0018602867,-0.010557608,0.41646612,0.11612323,-0.03880749,-0.061588943,-0.4136963,-0.026975581,-0.011073907,0.07513022,-0.094802186,-0.20067386,0.018524652,-0.100359514,-0.11607056,0.13481332,0.16702358,0.15154485,
			0.009856765,0.01700613,-0.013147083,0.019999227,0.057420958,-0.003613154,-0.041968174,-0.01977785,-0.029225804,0.006944554,0.09226703,-0.15372434,0.07989256,-0.08009108,-0.039389875,0.0061500203,-0.086512744,0.33812326,-0.10189085,
			-0.1549972,0.014219631,0.059970766,-0.13755906,0.103475936,-0.10402248,-0.07385413,0.1197408,-0.049510725,0.01853596,-0.03245598,0.022177445,-0.019513324,0.07066255,-2.7013586,0.048806906,-0.028659994,0.07113087,-0.00956158,
			0.09467728,0.06003988,0.007843101,-0.04378013,0.0028504045,0.1267833,-0.030372884,0.052940153,0.05832452,0.04385589,-0.047541574,-0.035926104,0.002988305,0.442558,-0.04770649,-0.01341213,-0.07953835,0.0061486973,-0.038363535,
			-0.057254802,-0.009166997,0.004358236,-0.018462362,0.03765588,-0.041170463,-0.017707713,0.011347623,-0.03242701,0.0032989436,0.018257275,-0.991521,0.009361335,0.06368727,0.058502022,0.050662972,-0.06629983,0.20658633,-0.06719832,
			-0.04814377,-0.0035791718,0.010542501,0.05717993,0.05034283,-0.031295948,-0.018955339,-0.0663071,-0.032967106,0.011258858,-1.0097301,-0.04961157,0.043688323,0.055878695,0.0202152,0.012355107,0.04157149,-0.004026832,0.037322562;
