			-0.11569217,0.0002693666,-0.01928036,0.018215138,0.004763411,0.020812124,0.009489612,-0.10238728,0.013486059,-0.018261721,0.09158256,0.04247598,0.045767713,-0.15431777,0.06518292,-0.04424489,0.3031143,-0.18465157,-0.2595568,
			-0.080926366,-0.0402697,-0.041066583,-0.0062913164,0.0038122106,0.009106607,0.0120613035,-0.06126779,0.006060744,-0.025694251,0.069913626,-0.3538627,-0.063183054,0.03515447,0.06983154,0.10140115,0.008809894,0.17280224,-0.067509666,
			-0.08070568,-0.06047827,-0.0043670167,-0.025311647,-0.00044114137,0.034611437,-0.03371652,-0.07759482,-0.0015036318,0.027985895,-0.07624308,0.012582941,0.0062893108,0.23076917,0.033491407,-0.312612,-0.023655685,0.02155841,0.09363802,
			-0.0703947,-0.03669003,-0.069533624,-0.04566249,0.0033645795,0.08676662,-0.047256544,-0.093568236,-0.020933004,-0.046707544,0.10351164,0.007987579,-0.026788887,-0.32073978,0.042941622,0.19900903,0.01180075,0.01835255,-0.05710042,
			0.021964606,0.006567959,-0.031800568,0.024050398,-0.010080384,0.0023352143,0.02217041,0.016459897,0.020134144,-0.028348165,0.095037505,0.027533231,-0.07294104,-1.2126831,0.020168137,0.22904678,0.031702373,0.04738749,-0.08765025,
			-0.060449686,0.019202368,0.003612342,-0.015006607,-0.005262065,-0.036662005,0.037018087,-0.07938924,-0.027527722,0.0053912783,-0.031250365,-0.09645591,0.1742923,-0.08844742,0.019764405,-0.33135659,0.058993667,-0.14308755,0.23864086,
			-0.03016139,0.008326081,-0.031121884,0.033253245,-0.012756449,-0.017522357,0.018453587,-0.05311989,0.016013209,-0.023922948,0.07279118,-0.06955931,-0.9445726,-0.013999701,0.02449176,0.01582668,0.064862594,0.04471944,0.016257316,
			-0.04194021,0.0045616874,-0.031628832,0.039439943,-0.015249928,-0.014218466,0.013260239,-0.04070452,0.022660062,-0.019677298,-1.6039879,-0.06615041,0.08208597,0.029974675,0.021119663,-0.015514406,0.02042458,0.0062869657,0.06991306,
			0.013301512,-0.00039784636,-0.029459503,0.025695467,-0.010660701,-0.0007550539,0.018108942,0.017552879,0.022376299,-0.02360601,-0.11359527,0.047932014,0.04774993,0.25464866,0.016668059,-1.1788126,-0.07818649,0.04075886,0.0537841,
			-0.15347698,0.015829572,-0.02295606,0.110972166,-0.012863921,0.076245315,0.07001057,-0.170204,0.055567905,0.010638668,0.057393804,-0.02627634,0.40679806,0.27103746,-0.015114689,-0.15478246,-0.3315254,-0.0012827253,-0.0159628,
			-0.5011029,-0.056887906,-0.15577571,-0.039007656,-0.05786802,-0.42328194,-0.1476217,-0.5971924,0.017646262,-0.018901674,0.04993651,-0.0059702746,0.11814723,0.102537766,-0.6346028,0.023101306,-0.15227436,0.15373302,-0.06309117,
			-0.06856819,0.0028619724,-0.14275053,-0.07575243,0.017677447,0.10306615,-0.028253527,-0.08506521,-0.059467062,-0.15882735,-0.09274348,-0.11772266,0.26239988,0.07288876,0.06638413,-0.23901713,-0.045040164,0.06390658,-0.04465336,
			-0.08801924,0.01562703,-0.10194051,-0.048354913,0.019874785,0.13572371,-0.024907703,-0.09217267,-0.0707637,-0.14572442,0.20336567,-0.04211006,-0.1398057,-0.06068823,0.0883722,-0.115387164,-0.13632832,-0.06543417,0.2328078,
			0.0028285426,0.010131694,-0.038989212,0.021533297,-0.011620999,0.0105390735,0.01343809,-0.0007145571,0.015712848,-0.02908357,0.015884275,-1.2949669,0.050787155,0.08502857,0.053975165,-0.028306257,-0.07495464,0.22213578,-0.014941674,
			-0.019868916,0.17489862,0.16881865,0.53328,0.29487693,0.048653163,0.23984511,-0.07732045,0.38118836,0.31479225,-0.0940478,0.11617304,-0.19138554,-0.08624477,-0.023555245,0.09549825,0.21386108,0.15262505,0.07670934,
			-0.20117567,0.13219592,-0.528753,-0.13395762,0.03043412,0.07043287,0.14485672,-0.12646036,-0.05536706,-0.5791495,0.0070192367,0.039315064,0.124650635,0.064147875,-0.035433285,-0.04293155,0.026013635,0.121582486,0.06653479,
			0.04278437,0.008428021,-0.1322276,0.13280518,-0.038769092,0.05035251,-0.005580816,-0.00843528,0.06882735,-0.096844964,-0.031531807,-0.0021915813,0.07648735,0.12152784,-1.9915979,-0.08290795,-0.05703554,0.067191675,0.040017173,
			-0.14699757,-0.018899478,-0.005807528,0.012764792,0.0016124574,0.018706435,-0.025991341,-0.11341757,-0.01111252,0.0009672104,-0.41505626,-0.104291715,0.15814696,-0.107462466,0.050722692,0.06165435,0.24930029,-0.0037084068,-0.019200688,
			-0.0672212,-0.030733386,-0.12366286,-0.07710115,0.022056086,0.015923342,-0.030211449,-0.04705645,-0.032570675,-0.117495015,-0.092154905,0.16892,-0.054357875,0.03194415,0.07793445,0.04098929,0.018265467,-0.36506593,0.06218905,
			-0.042428583,0.013932619,-0.033808183,0.023616374,-0.015604869,-0.026163101,0.010612899,-0.036890917,0.0076399427,-0.030885627,0.2380741,-0.024693277,-0.007960701,-0.03140572,0.009931858,0.13043821,-0.0044931797,0.07461161,-1.118918,
			0.015463188,0.006680816,-0.04599654,0.01832592,-0.010682839,0.013856575,0.007803196,0.013420406,0.012531572,-0.034176443,-0.060317047,0.20126796,0.009193606,0.06033206,0.0033130299,-0.046339586,-0.013367181,-1.3625834,0.06694558,
			-0.047149472,0.01713353,-0.03588807,0.04248901,-0.013248808,-0.018851575,0.014241307,-0.033938788,0.02408577,-0.029808335,0.03648252,-0.011793275,0.16499557,0.102536544,0.016241087,-0.060261015,-1.1648096,-0.019627985,0.053482894;
