			-0.015390737,-0.015555116,0.07792063,-0.07456693,-0.057052445,0.062276702,0.01673088,0.07460578,0.6164701,3.0496733,0.08833856,3.2817304,1.6797993,0.12602639,-0.14583291,-0.5553188,-8.179988,
			-0.04448683,-0.18065098,0.10544184,-0.60008126,-0.10186261,-0.00024826854,0.0090713175,0.53095806,0.78912383,4.3022823,-0.13000226,-1.1107093,-8.95068,3.8553686,0.61498237,4.0539484,0.18761063,
			-0.01841238,-0.062110502,-0.070245184,-0.14030221,-0.018380119,-0.091643244,0.0038296059,0.14560062,-0.2652369,1.7435389,-0.12241663,-13.405005,1.6816505,2.08799,-0.27380055,1.3635696,-0.56315166,
			0.031886853,-0.053225674,0.027770657,-0.08556964,0.020352172,0.017199492,-0.043814745,0.05317687,0.70583075,-10.015704,0.45879227,0.037797432,-0.016185578,-1.8622222,-0.8474796,7.5157795,0.022073094,
			-0.017173229,-0.027693965,0.099570036,-0.108506836,-0.023471633,0.07587995,-0.013703109,0.11529298,0.29084766,4.4543056,-0.16268416,-4.3191895,0.8607782,3.5488288,-7.1292205,3.2632504,0.07506381,
			-0.011955054,-0.03898729,0.013039751,-0.10127985,-0.024093367,-0.03943915,0.0024752177,0.11746322,-0.29674986,1.2919822,0.09974054,4.633548,0.8712609,-14.131219,-0.6003379,1.2403855,0.063039534,
			-0.0050927266,-0.059663,0.19408666,-0.10878741,0.013131472,0.13299572,0.007548235,0.07774424,0.5785806,1.1507431,-6.1441684,1.8356903,1.5233964,5.535357,1.3448403,2.9739664,-0.67584705,
			-0.044777628,0.17614335,-0.010747374,0.29481423,0.18323582,0.03293851,0.07001961,-0.30063376,0.19870922,4.20721,0.9756793,-0.081801794,-2.1599298,-10.849746,-0.25680995,7.8804326,1.43357,
			0.0034745315,0.0006187221,0.01525058,-0.006164952,-0.06302991,0.08245357,-0.029292908,0.013555085,-0.48320398,-0.15487467,0.3506563,-12.155208,0.20519432,9.045666,-0.47313604,-0.012039926,0.7579547,
			0.05188732,-0.88194996,0.10220453,-1.3415478,-0.31169644,-0.00044925348,-0.6016634,1.3332573,-0.7442135,6.82948,0.37582803,10.8797865,-5.584194,1.6699383,0.84776354,4.548593,-0.46085617,
			0.10238412,-0.0521531,0.0026424692,0.12237619,-0.088692375,0.022822531,-0.12044466,-0.040904928,0.6662714,-1.495241,-2.3618922,4.4031167,0.883387,-9.505541,1.1004164,-3.3235862,4.7428637,
			-0.067546465,0.056777034,0.05185101,0.034787968,0.11947819,0.00066911255,0.018880565,0.008173086,0.5570277,-0.67793566,-0.49047926,-6.1071754,-0.7227333,13.493239,0.9116919,-0.60794586,-0.72114885,
			-0.01860707,-0.05870008,-0.025674976,-0.10476517,-0.046809476,-0.03353862,-0.017981598,0.098337345,-0.25042418,-13.462829,-0.13649781,2.4213307,2.2081935,1.5946618,-0.4353548,1.3040996,-0.17755473,
			-0.02901411,0.032798134,0.0460773,0.039295774,0.40305927,0.0036534604,-0.06355194,-0.042146627,0.49505457,-1.0159703,1.5417137,-4.0332527,1.3624067,-3.8435483,4.1894965,-4.3710017,-5.582507,
			-0.0015278562,-0.043672998,0.0042596753,-0.05548966,-0.003549217,0.028270304,-0.033782035,0.022289835,-0.24674866,6.7794013,0.646625,2.6256762,0.8128273,-5.361032,-0.47258103,-8.966294,0.9123971,
			0.0056203566,0.011086605,-0.06356887,-0.059732,0.01937923,-0.009897869,0.015200462,0.04047536,-0.31286123,0.077701785,0.63139886,10.574502,1.5553285,-0.009007446,-5.974393,-3.4651616,0.33260652,
			0.0040169135,0.07660429,-0.090856045,-0.31875968,0.10098987,-0.003305643,-0.0039298246,0.2760935,0.006579508,0.7682753,0.077431455,0.16820778,-9.605353,0.8998918,0.30071184,0.44388503,-0.13572574,
			0.048803918,-0.19745576,0.19612345,-0.14473955,0.123003095,0.14607523,-0.15781589,0.1439141,-4.2689342,-7.331789,1.8159256,0.55271,0.088888496,0.29146287,4.012948,2.408324,-1.5278639,
			-0.016607583,-0.0143798515,0.027803244,-0.08959278,0.015469451,-0.016908484,0.011487715,0.068197906,-6.586483,0.9930775,-0.03983576,4.0115404,1.9411356,1.8663285,-0.30478272,1.632989,1.6206077,
			0.046240468,-0.14108026,-0.027941719,-0.20367944,-0.11264073,0.009111081,-0.074594215,0.16449626,0.63271093,2.200915,-0.4806722,-11.682599,-0.18400446,7.9089556,1.7412686,0.39382833,-1.5124993,
			0.12895304,-0.14815487,-0.09472212,0.2106572,0.06767808,-0.16984992,0.2648489,0.024573416,-0.4973004,0.20367901,-0.12270956,-0.27036795,-0.20099196,-0.50805444,0.18168506,-0.95007944,-0.23392428,
			-0.03710883,-0.16040282,0.042178776,-0.23869874,0.14347455,-0.053511173,-0.1212405,0.22648649,2.258926,5.590165,-1.4152972,-6.944951,0.11849217,4.904757,-2.4862723,-5.023635,3.2095993;
