			-0.00043803034,0.0055910116,0.00928288,-0.0278994,-0.0013633238,0.011813129,-0.023337377,-0.013015661,0.0033591273,-0.014121059,-0.05730056,0.008299639,0.03529339,0.17110957,0.013379393,-0.76499635,-0.03164848,0.014045799,0.022908889,
			0.008175299,-0.0198922,0.012575742,-0.011366905,0.015499472,-0.014534929,-0.035423577,0.02519669,-0.014250332,0.028447013,-0.1088126,-0.06519535,0.23166579,-0.05272275,0.07063346,-0.1473835,0.12732612,-0.057048015,-0.11167972,
			0.018246053,-0.022986768,0.035460945,-0.014902735,-0.020128248,0.001302465,-0.032355014,0.012113765,0.011055731,-0.035936423,0.031360745,-0.09796598,0.042596582,0.43521333,0.09500141,0.15927386,-0.37920615,-0.21881415,-0.15447684,
			0.05609179,-0.013640124,-0.023302497,-0.0025118066,0.0003237211,0.0010184875,-0.022246579,-0.055860285,-0.0041701086,0.039400578,0.003574305,0.20918407,-0.0062312507,0.03229419,0.07752544,0.057037577,-0.0055476176,-0.15799046,-0.03925388,
			0.010144849,-0.007959362,0.016556397,-0.042662907,-0.006931849,0.0072618,-0.030757977,-0.013112321,-0.009047208,-0.011979976,-1.241913,-0.05413107,0.04646314,0.055355653,0.009790944,-0.032400377,0.021737467,-0.006112638,0.08343178,
			-0.12363637,0.178868,-0.32816833,0.35399753,-0.076121606,0.06922184,0.43548065,0.037705813,0.13092603,0.19926502,-0.12341519,0.0023652466,-0.021079887,-0.063235916,0.04654889,0.0040607513,0.013311627,0.0029540418,-0.12816091,
			-0.005359818,0.0034171354,0.013166683,-0.036771998,-0.00052502693,0.011914484,-0.023361776,-0.016633147,0.00069745455,-0.011594982,0.029348899,-1.0013974,0.014331781,0.037679102,0.015109145,0.007963816,-0.03162398,0.07372348,-0.02941886,
			-0.011855388,-0.02437638,0.010238099,0.02408012,-0.016235294,-0.026343955,-0.0062729046,-0.029691001,0.00704081,-0.028312042,0.07993061,-0.100474514,0.07597463,-0.24678539,0.021183636,-0.2052019,0.10230821,-0.06366936,0.16222231,
			0.06336064,-0.006315291,0.022411812,-0.026443133,0.004654721,-0.012286474,-0.02677724,-0.038390566,-0.026759604,0.06787497,-0.2244749,0.06539781,0.0059206528,-0.1249826,0.039189126,0.07135104,-0.0052425703,-0.018562099,0.17769888,
			0.00016999057,0.0018447719,-0.0005490256,0.00060580834,-0.0025519882,-0.0011533884,0.0015359687,-0.0016429988,-0.0004358494,-0.0009443741,-0.0017771685,-0.0016356638,0.0003184351,-0.00010486149,-0.00013724896,9.410968e-05,-0.0014665447,-0.0013863955,-0.00094716664,
			0.07679553,-0.08211851,-0.7456904,0.40958658,-0.03048885,0.26728427,0.58670855,-0.20381276,0.073718645,0.39356294,0.069795296,0.12531316,0.0371351,-0.02609508,-0.04864566,0.09158793,0.07496454,0.011451083,-0.024373457,
			0.012178379,-0.015998071,0.018443875,-0.048836518,-0.0031257616,0.007061328,-0.037695363,-0.037211645,-0.01976463,-0.0037782837,0.07551643,0.03304758,0.00481842,-0.018798145,-0.0058761598,0.049979582,0.027901102,-0.014135946,-1.1581242,
			0.052771237,-0.013457571,0.02289453,-0.030677447,0.005729057,-0.015608888,-0.04991194,-0.04471981,-0.01032658,0.061673645,0.000376269,-0.0065083983,0.054539178,0.16386615,0.044827566,-0.24654274,-0.035986178,0.004101833,0.02959629,
			-0.02436876,0.009120911,-0.008658848,-0.06136193,-0.009180154,0.043955438,-0.015707694,0.00264972,0.004046059,0.0009823751,-0.018777644,0.041637484,0.0069926027,0.030534493,-0.748015,-0.015481004,-0.00050152326,0.0011617658,0.013594012,
			0.044897664,-0.003144366,-0.012835444,0.00067491166,0.01422533,-0.016100673,-0.019096328,-0.036753435,-0.0075304317,0.051170666,-0.044013057,-0.28347248,0.030271009,0.10695887,0.06587289,-0.019087667,-0.041038778,0.04655238,0.032676604,
			-0.00085974706,-0.009636604,0.015027837,-0.044619292,-0.003765694,0.012570556,-0.031434696,-0.0063882745,-0.010029234,-0.018425513,0.042688396,-0.021954264,-1.0275713,-0.03402901,0.020691449,0.0625531,0.06369432,-0.003177505,0.030168105,
			-0.018052384,0.017818596,0.01739588,-0.05120935,-0.0002031281,0.017983379,-0.028512396,-0.010462173,0.01462471,-0.022216482,-0.045476712,0.2538382,-0.05806462,-0.10003882,0.01944007,-0.056399375,0.11789188,-0.51318985,0.10726782,
			0.028177554,-0.019708555,0.016792092,-0.05265616,-0.011374297,0.01596183,-0.04372509,-0.040609363,-0.020087706,-0.005837461,0.04968648,0.09018213,0.045367345,-0.0041301996,0.005035809,0.02871396,-0.92193043,-0.045754474,0.055260077,
			0.082896255,-0.00048985233,0.014495537,-0.0191177,-0.021535937,0.00035081164,-0.053451955,-0.053975187,0.012941149,0.022557015,0.12117793,-0.031046057,-0.28310955,-0.095163606,0.045972932,0.10704194,0.122130066,0.0072603337,-0.0602859,
			0.01425066,-0.008392033,0.00874778,-0.017560435,0.002584405,-0.009411229,-0.027981756,-0.016145153,-0.0024024993,0.042163316,0.2067801,-0.0026303793,-0.027652895,-0.20092931,0.03404409,0.08380953,-0.028395582,-0.008307774,-0.06556455,
			-0.001933243,0.0027276182,0.0072782417,-0.024027234,-0.00073324307,0.011452174,-0.017883837,-0.0076891957,-0.00085983623,-0.012931323,0.053418946,0.040228073,-0.07063471,-0.95365745,0.00531689,0.17269263,0.04193898,0.00497283,-0.05158204,
			0.056148954,-0.03355092,0.061359137,-0.08099332,-1.8359913e-05,-0.006277465,-0.10984718,-0.05030217,-0.010991753,-0.018928677,0.06856155,-0.086603135,0.087571844,-0.12262829,0.015793236,0.095424235,0.07036434,0.027394952,-0.22619113;
