			-0.0341445,0.06558095,-0.18119821,-0.15387331,-0.020514598,0.04141139,0.09978987,-0.1420437,-0.13834703,0.014492371,-0.08353351,-0.007787405,-0.123727724,-0.09901454,-0.091868155,-0.0829559,0.55591303,0.17495447,0.19571172,
			0.0040849587,0.0069986205,-0.0063058594,-0.01462507,-0.042147297,0.010118836,0.018933529,-0.0119370185,-0.0065363077,-0.027751392,-0.01286547,-1.1155411,-0.02825306,0.051958896,0.05117267,0.06703389,-0.018987387,0.16448902,-0.035080034,
			-0.06938448,-0.091484606,0.16733184,-0.004811808,-0.09441338,-0.14181833,-0.040166147,0.17132281,0.015532085,-0.13066374,-0.098415256,0.26506248,-0.060953647,-0.057686087,0.029409222,-0.060351245,0.17660505,-0.20935702,0.12176606,
			0.040499162,0.017377147,-0.013072147,-0.15706895,-0.025996476,-0.040092662,0.010311787,0.0061456617,-0.1577551,-0.055604707,0.20632052,-0.043446984,0.055254493,0.020722799,0.038171895,-0.015717266,0.16726851,-0.0222443,-0.36686626,
			0.0075667854,0.012523078,-0.011944539,-0.021781389,-0.051207267,-0.008999426,0.013959706,-0.012228401,-0.011426712,-0.039193507,0.007370242,0.08479575,-0.068290554,-1.5600008,0.029451877,0.23437758,0.0114535615,0.04518853,-0.065346226,
			-0.08029005,0.18627481,-0.09527755,0.006708799,0.13908574,-0.30185565,-0.04572155,-0.23133917,-0.081971765,0.16229491,-0.0053855176,0.07566297,-0.012217834,-0.08888316,-0.47884795,0.05228344,0.07180855,-0.047593124,0.03907822,
			-0.05785481,-0.039403204,0.06954435,0.0441769,-0.06081581,-0.25198418,-0.03329883,0.083180904,-0.004773057,-0.061864763,0.002978959,-0.5104397,-0.042874206,-0.03651203,0.059634995,0.014660789,0.04520435,0.09154462,0.036694694,
			-0.006105026,0.029189218,0.024427457,0.008120822,-0.011239057,0.0068880976,-0.0214462,-0.004182837,0.008305526,-0.026854873,0.032475714,0.060034163,-0.6107375,-0.14008953,0.07329447,0.26020592,0.22124454,-0.019727921,-0.060077403,
			-0.17775878,-0.014742836,-0.17913556,-0.057129957,0.040217362,0.18693754,0.045816552,-0.14904718,-0.052570697,0.08082821,-0.008060628,-0.0028593757,0.010495423,-0.012249251,-0.021854106,0.4612705,-0.04005246,-0.0075227963,-0.029959258,
			-0.009039967,0.024946539,0.04611413,-0.12115488,-0.02789409,0.065452754,-0.04371987,0.049212486,-0.071776316,-0.08049861,-0.09925174,-0.18253697,0.2385985,-0.0046558194,0.119222715,-0.19013274,0.14334734,-0.023093726,-0.010771613,
			-0.00080137036,0.013936629,-0.0046229823,-0.0011811455,-0.018656462,-0.01348276,0.0059747943,-0.0092070615,-0.0038912978,-0.015213881,-0.6155279,-0.0037123754,0.0069857663,0.04953474,0.044617232,-0.0056284983,0.05166699,-0.019557377,0.05813536,
			0.005420995,0.0029721798,-0.011221573,-0.021172324,-0.06956224,0.024057357,0.03091083,-0.012211695,-0.010347721,-0.04801783,-0.046787977,0.26045135,-0.078708366,0.01761873,0.0059620743,0.087282985,0.06383293,-1.4200238,0.022990875,
			-0.002584862,0.009064947,-0.013037015,-0.004724544,-0.02212301,0.013708529,0.021288212,-0.00032299117,-0.01824763,-0.025144288,-0.05916404,-0.0096663805,0.062468894,0.24285182,-0.0031921626,-0.04049508,-1.0112706,0.102733895,-0.0055720196,
			0.0078874845,0.011565207,-0.011042232,-0.015833605,-0.026827542,-0.0060786987,0.007721629,-0.010976416,-0.011062818,-0.018616065,-0.061514907,0.048323665,0.0065466184,0.19917074,0.019414544,-0.84248394,-0.056023322,0.025462255,0.03175406,
			-0.108934574,0.009326738,-0.059986237,-0.0958981,0.007975327,-0.0019415701,-0.0006080337,-0.03161997,-0.082798734,-0.009179996,0.027719788,0.016358603,-0.05737784,-0.16695498,-0.03173668,0.6161073,0.0957504,-0.04413732,-0.059573464,
			-0.0036122028,0.0035991492,-0.04602408,0.01598947,0.011889795,0.023726754,0.004214741,-0.038505927,0.008397982,0.023668677,0.14429572,-0.060724106,-0.0101175485,-0.47063893,0.04319766,0.10401742,0.07327762,-0.009192968,-0.06136306,
			0.006344054,0.008111431,0.011221403,-0.09993122,-0.012794606,0.014824665,-0.033269506,0.009139661,-0.062341955,-0.03022748,0.061566733,-0.09625716,0.058239475,0.07053582,0.11036761,-0.27058622,-0.16967021,-0.036977403,0.20851584,
			0.0029022212,0.037101604,-0.05731925,-0.0010511135,-0.102838635,0.025345357,0.012488376,-0.051661287,0.0050449893,-0.06587353,-0.021484608,0.048023302,-0.03642392,0.012679806,-1.7104475,0.03827244,0.043505374,-0.004151069,0.0069103674,
			-0.0008475881,0.022848811,-0.0014085029,-0.00372672,-0.04500951,-0.009268201,0.01729138,-0.0072839544,0.008173196,-0.04129931,0.09503353,-0.01757935,-0.0008804889,-0.068850525,0.028584993,0.09235453,0.117932804,0.007502855,-1.3654484,
			0.09952456,0.03374533,0.014141583,-0.09159257,-0.022763439,-0.056421716,0.042624135,0.028269378,-0.06848187,-0.057048608,-0.23144853,0.1593318,0.02214692,-0.1731412,-0.011291372,0.31899244,-0.18565118,0.072338216,0.11900625,
			-0.021738535,0.07224437,-0.17351753,0.011563941,0.048356958,-0.03470144,-0.013112163,-0.14620788,-0.04287037,0.08398952,0.023120146,0.09347276,0.038698852,-0.08382036,0.10324478,-0.042932842,0.021325024,-0.53103507,0.049871545,
			-0.14924042,-0.10384069,0.4922112,-0.1785143,-0.30133495,-0.32442185,-0.08729647,0.36608317,-0.093026266,-0.42207846,0.006351061,0.030834833,0.12025783,-0.012198354,-0.00030615597,-0.14988846,0.08498671,-0.027885854,0.23267257;
