			-0.11901857,-0.12642674,0.027378432,0.026770953,0.07394506,0.12915008,-0.3524835,-0.14964929,0.14120385,-0.09203307,-0.10320005,0.019206546,0.0022968545,0.1179445,-0.2298579,-0.03847673,-0.11042105,0.05420095,-0.010340274,0.0015724284,-0.03145339,0.35912302,
			0.011652048,-0.09979072,-0.06726157,-0.021891253,0.039403558,0.13581316,-0.08684155,0.03879827,0.022900546,-0.07096003,0.019444807,-0.2912105,-0.0490638,0.039645184,-0.13555759,-0.030784203,-0.06416483,0.23309973,0.03712035,0.032591853,-0.28045663,0.2634277,
			-0.15695658,-0.012569572,-0.016585693,-0.08650688,-0.030118795,0.03417444,-0.08133275,-0.023491226,0.09887061,-0.1313641,0.5228903,-0.0005339119,-0.02721825,-0.00096239767,-0.14590468,0.0023283153,0.034118205,-0.03998487,-0.024305267,-0.0930729,-0.024780704,0.14367798,
			-0.065077,-0.015180006,-0.097830415,-0.03159884,-0.032185853,0.09586843,-0.07975793,-0.22361666,-0.09234017,0.053793307,0.017724372,-0.012784381,-0.20147164,-0.03258149,0.0044274256,0.10423448,-0.16585828,0.29974777,-0.036393095,-0.056923255,-0.065615326,0.33867925,
			-0.0039577745,0.01677216,-0.04286064,0.052841205,-0.0935686,0.09895699,0.025069805,0.102928035,0.10245273,-0.06632794,-0.16968864,-0.04064699,-0.12676325,0.13992982,-0.24969253,0.3426275,-0.053955313,-0.0055425754,-0.12660064,-0.40332425,-0.027243013,0.20918776,
			-0.20581454,0.08282534,-0.11411287,0.0052276524,-0.1612032,0.04455267,-0.041119203,-0.33315122,-0.05609892,0.19985034,0.14855225,-0.16160367,0.07829336,0.128358,-0.17357506,0.18105498,-0.2469951,0.019832203,-0.14586793,0.06364537,-0.12876232,0.08051926,
			-0.06797052,-0.042089958,0.019994417,-0.05626065,0.925552,0.12630756,-0.00067351386,-0.0112733375,0.24993145,0.00012734451,0.062089473,-0.052909106,0.061761558,-0.046692707,-0.51436794,0.22775659,0.061078575,-0.12577103,-0.025828376,-0.1720882,-0.060687352,0.0050205016,
			-0.061661493,0.09026444,-0.07524161,-0.01698089,-0.09294768,0.0984213,0.07605876,-0.030142555,-0.23531651,-0.067830905,-0.03833241,0.07192376,-0.051770303,-0.17484497,0.2511706,0.19210508,-0.05261772,0.15437211,0.013139125,-0.15428726,0.04002147,0.25787616,
			-0.126618,0.11758157,-0.15302745,-0.0027488584,0.12516834,-0.008451081,0.09999026,0.16574655,-0.26268658,-0.3856695,-0.26813626,-0.13476753,0.17798093,-0.14909992,0.15433693,-0.05612216,-0.016901279,0.034604944,-0.01836732,0.027389769,-0.13804977,0.18483354,
			-0.20531744,-0.047983773,0.027539983,-0.07526896,-0.074999504,0.0781003,0.06828406,0.049814817,-0.1289488,-0.017216241,0.015548061,-0.046338387,0.018382616,0.72757626,0.19598414,-0.25922,-0.13701862,-0.0894563,-0.050522007,-0.13993207,-0.11415403,0.10831325,
			-0.30752102,-0.021813553,-0.069633,-0.16645421,-0.0031841716,0.065443926,-0.11638179,-0.24133962,-0.17003137,-0.121540315,-0.031609,-0.0018680444,0.29756197,-0.047371745,0.066589594,-0.029379627,0.0028767404,0.09044432,0.00783853,0.043777414,-0.00039209749,0.34733796,
			-0.10274977,0.019279443,-0.04008116,-0.21854164,-0.00063536776,0.063344635,0.021393133,-0.061134644,-0.011331715,-0.046201576,-0.019838449,-0.057657644,-0.0032680002,-0.02292492,-0.023456981,0.040476516,0.028040336,-0.02764331,-0.5161946,-0.029966058,-0.04640383,0.10183185,
			-0.11699882,-0.021479912,-0.09213726,-0.19893171,-0.018182868,0.097949825,-0.006463417,6.718026e-05,-0.37141922,0.011675357,0.06446375,-0.008888738,0.052196093,-0.09453775,0.3788724,-0.057373047,-0.104833774,-0.06745157,0.016610349,0.019103922,-0.031794753,0.29191926,
			-0.10682982,-0.15392075,0.12781195,0.022852821,0.11280372,0.034398127,-0.07338567,0.037445143,-0.19352281,0.11736752,0.14918107,0.068967916,-0.34110507,-0.19330847,0.07675213,0.08200976,-0.38062865,0.03966196,-0.20356129,-0.0136668915,-0.059266414,-0.07920623,
			-0.042057693,0.089684196,-0.048747282,-0.37479684,0.1992634,0.057391986,0.1248184,-0.2502813,-0.28560004,0.16535911,0.052777853,-0.066011995,0.059976075,-0.09235411,0.1328893,-0.15251492,-0.1867535,0.07119604,0.13178526,0.10192894,-0.13175394,0.100416966,
			-0.0904135,-0.009271306,-0.1561249,0.025801515,-0.022095049,-0.008385398,-0.0003208627,-0.024029244,-0.068450846,-0.042731903,0.0013898954,0.010495323,-0.0219493,0.01441316,-0.1375441,-0.005963931,-0.09966187,0.72676736,0.017132081,0.11383922,0.012807809,0.41661587,
			-0.13564767,-0.096081585,-0.2149717,-0.017742986,-0.029156348,0.09433083,0.16292825,0.01716631,-0.03340494,0.023557944,0.015057995,0.57380635,0.020852584,-0.0272642,-0.10010914,0.029556464,-0.06388897,-0.030318247,-0.028103307,0.029487748,-0.1674234,0.18819195,
			0.058193278,0.18723969,-0.18875676,-0.112303026,-0.02456112,0.071619555,0.20077166,-0.04237256,0.11505026,0.032572888,0.04127296,-0.2600908,-0.05333958,0.117043264,-0.19360922,0.048256803,-0.04628337,0.042801224,0.081209354,-0.020413931,-0.3868892,0.08644723,
			-0.085394375,-0.13356784,0.01857569,-0.12549283,-0.148444,0.018676989,-0.02508431,0.16855682,-0.08250041,-0.3156937,0.020080587,0.13219532,0.19920248,0.15879816,-0.054657526,0.22913064,0.06935974,0.028647767,0.28458983,0.059330054,0.0073217913,0.06755704,
			-0.19462241,0.70950305,0.05651089,-0.03230277,-0.067157455,0.09200279,-0.122684,0.015062525,-0.027109459,-0.02581286,0.045973577,-0.046118163,0.031486742,-0.029943442,-0.062338192,0.11845774,-0.04036769,-0.09679566,-0.030202601,0.029904138,0.12992385,0.14732121;
