			0.09847518,-0.28084925,0.41827014,0.11698343,-0.058073588,0.24939318,0.012485976,0.09493042,0.14402571,0.048806172,0.1796974,-0.3295154,-0.01785657,-0.34070775,-0.064994134,-0.08943123,-0.14736088,-0.45750818,-0.14281176,-0.17699663,0.27851093,0.2503565,
			0.15628433,0.3027877,-0.104095906,0.1175724,-0.37897706,0.1696065,0.0007607237,-0.1590621,-0.031882633,0.21857285,-0.4015299,0.22201058,-0.047042597,-0.26831967,0.3601947,-0.30825788,-0.020989144,-0.1655002,-0.08522164,-0.15242055,0.37867287,0.061751813,
			0.121905975,0.13466042,0.075126134,0.039728023,-0.44182688,0.1747203,0.26791638,-0.06609187,-0.01949364,-0.09978773,-0.21802598,-0.12324584,-0.32745326,-0.1678938,0.044680193,-0.0769366,-0.24251089,0.044330306,-1.0019993,-0.49977112,-0.0033434147,0.18091497,
			0.16111216,0.073554754,0.24152339,0.06842777,0.008274838,0.0018187638,0.104527004,-0.025293408,-0.2448668,0.15877657,0.36477742,-0.50813746,-0.26092476,-0.03676254,-0.4577876,0.025122548,-0.012241754,0.30150452,-0.19265127,-0.09570144,0.39690214,-0.054456625,
			0.21119651,-0.24973781,-0.104622275,0.3520142,-0.1304729,0.35800532,0.116284885,-0.30809444,-0.25667343,-0.24258849,0.16908917,-0.10611612,0.2701254,-0.11366689,-0.109425224,-0.045994736,-0.2653307,-0.20022154,0.108276844,-0.1066919,-0.13926627,0.0125291785,
			0.030271584,-0.015474018,-0.051264852,-0.027955228,0.028719166,0.097091325,-0.012614463,-0.16070582,-0.07420958,0.018879088,-0.16622666,-0.21041635,-0.0431994,-0.05874998,-0.026017295,0.7712197,0.0011895774,-0.052463625,-0.07471879,-0.07606695,-0.045301016,0.07328088,
			-0.18597619,0.14315972,0.2398934,0.0731538,0.062041707,-0.0132667,-0.1518864,0.07276106,0.22080903,-0.23879872,-0.26777062,-0.50124085,0.20054759,-0.109197035,-0.0019379733,-0.3600744,-0.2971784,0.27780423,0.031241978,-0.10109757,0.048176814,-0.041739296,
			-0.022312619,0.1844812,0.07246731,-0.083485365,-0.20050985,0.294757,-0.0043762624,-0.96286803,-0.31447604,0.09236822,0.30480316,-0.0007401536,-0.056648683,-0.38701227,0.07380335,-0.0017572622,-0.09855101,0.05481051,-0.048296135,-0.060107585,0.23086421,0.017079435,
			0.009582131,0.019000113,-0.06398479,1.1569878,-0.10825555,0.18262824,0.11346145,0.069700934,-0.021883069,-0.050206274,0.17332624,-0.08676556,0.030932581,0.02579089,-0.019328529,-0.020632846,0.08854934,-0.028131926,-0.023134107,-0.05463581,0.06498929,0.0060406826,
			0.9426677,-0.0665131,0.07932368,-0.13534048,-0.053656444,0.09912233,-0.18735524,-0.05317583,-0.08992027,-0.108015805,-0.17044608,-0.108614825,-0.05338258,-0.028039806,0.07040097,0.03768569,-0.027088372,0.0271202,0.38415834,-0.22546363,0.29394734,-0.29135415,
			-0.44124046,0.047337238,0.13722768,0.21998511,-0.194735,0.27802497,-0.8116958,0.03986673,-0.06898095,-0.10657744,0.22919972,-0.10755086,0.01837363,-0.08558965,0.09901766,0.0056231604,-0.14421028,0.041609854,-0.019403102,-0.25716734,-0.012437805,-0.11551804,
			-0.06327698,-0.3386232,-0.010316106,-0.113619,-0.039910093,0.19533016,-0.13423379,0.28648022,-0.19622335,1.2997943,-0.4657903,-0.2282576,-0.11159162,-0.086329006,0.15773977,0.07056796,0.051888287,0.066624895,-0.1595194,-0.12847653,-0.12621233,-0.22443059,
			-0.1997946,0.088080496,0.00030931568,0.08400714,-0.4492949,0.043109838,-0.07496847,0.00716202,-0.26678187,0.20933488,0.12575398,-0.036126923,0.15436035,-0.05007263,0.29842463,0.29465437,0.037980203,-0.48457664,0.22511162,-0.10081389,0.28870058,0.10943828,
			-0.03942875,-0.19041744,-0.051371437,0.09238888,-0.3462253,0.15411168,-0.2027766,0.18795948,0.12967132,-0.010913097,0.30070624,0.20830902,0.19276376,-0.3371342,-0.411314,0.27147505,-0.11233367,-0.09534823,0.03139727,-0.16470625,0.5304653,-0.2922117,
			0.004920977,-0.8023592,0.07589142,-0.13225354,-0.10746628,0.35661826,-0.0034021637,0.12999417,0.21459332,-0.27782014,-0.05485196,-0.06464561,-0.0017819854,-0.20788038,-0.097516306,0.09690558,-0.483477,-0.06546949,-0.03877008,-0.12095083,-0.103491515,-0.05803803,
			-0.099856846,0.056135807,0.014597987,0.46047357,-0.04420422,0.11548913,-0.13016756,0.059615247,-0.030384274,-0.014450101,0.06414917,-0.038990147,-0.68699723,-0.04288755,0.0071272403,0.02484131,-0.08053074,0.023192383,-0.17936434,-0.11564758,-0.06452522,0.03642747,
			0.1710844,0.106505536,-0.43456292,0.06940608,-0.31969303,-0.015366466,0.03998419,0.12989494,0.19649391,-0.22821958,-0.18921375,0.07722432,-0.3177807,-0.09002375,0.3036735,0.29564223,-0.18798938,-0.023282152,-0.14847629,-0.13543117,0.13676913,-0.32862768,
			-0.038508687,0.14139669,-0.2303291,0.15950777,-0.15870138,0.15737982,-0.3858014,0.10435256,0.31618783,0.376831,0.08151884,-0.0964018,-0.07427444,-0.119196884,-0.21663879,-0.16730201,0.14912403,-0.30622077,-0.3319122,-0.25674194,-0.084283955,0.062386222,
			-0.08161179,0.07768667,0.12980747,-0.10589014,-0.1404398,0.16404642,-0.012179584,-0.21729474,1.2600074,-0.1546923,-0.052581288,-0.18225251,-0.11501671,-0.039897263,0.016946739,0.12563908,0.4187496,0.013246746,-0.034131166,-0.12580512,0.073822066,-0.1320045,
			-0.027976058,0.15417665,-0.46850768,0.10837433,0.06035382,0.27496478,-0.21242866,-0.27700815,-0.005207768,0.19496067,0.19036861,-0.30880794,0.2344401,-0.2813407,-0.10289662,-0.08155801,0.051643107,0.25593042,-0.018167214,-0.23584431,0.1273578,-0.5883797;
