			-0.05352474,-0.16525608,0.1159478,0.0969598,0.07985764,-0.07291184,0.00044553497,0.0059217243,0.08262755,-0.07269122,0.1168679,-0.028664567,-0.087013915,-0.15891999,-0.03663706,0.27184206,0.23077846,-0.06877982,-0.22220242,-0.08960314,-0.2615078,-0.045399755,
			-0.025322175,-0.087134644,-0.050231025,-0.03333594,-0.13212872,-0.12739754,-0.12285083,0.21238525,-0.08299292,-0.08376017,0.08113043,0.1332248,-0.4345151,-0.13114661,-0.08410958,0.17256945,0.14789642,0.10152552,-0.080065235,0.19952396,-0.12809221,-0.11628931,
			0.0335295,-0.39484698,0.1089598,0.12161179,0.08212396,-0.25406516,-0.19895446,-0.12315024,0.16877916,0.007371411,0.12957034,-0.07438165,-0.100044854,-0.15620951,-0.1330514,0.19688402,0.0425793,-0.20121524,-0.064367004,-0.008170914,0.08659647,0.025940398,
			-0.1155492,-0.1528842,0.17228214,-0.13926648,-0.22303613,-0.083054096,0.11579534,0.08562137,0.168826,-0.07727558,0.025750786,-0.048312332,-0.056570064,-0.18057613,-0.086909406,0.105646186,-0.0042959116,-0.44546,0.1951431,-0.33521095,0.14712574,0.123160236,
			-0.21598846,0.19182937,-0.159711,0.28102517,0.13518994,-0.18286304,0.10992928,-0.20568064,-0.1617284,-0.10503628,0.06845774,-0.035126362,-0.09852111,0.12813783,-0.12249914,0.09162008,0.009684125,-0.18621854,-0.17309298,0.10648086,-0.1830169,0.12434671,
			-0.030939236,0.11061798,-0.19172007,-0.23788793,-0.17198187,-0.08571739,-0.058408804,-0.045028888,-0.15664819,0.012765847,0.15600021,-0.14512353,-0.10472705,0.13822351,-0.031914365,0.2450193,0.17775564,-0.021556545,0.10006878,-0.07387923,0.14647369,-0.0733585,
			-0.18251877,0.08881484,0.15430845,-0.023414763,0.058314886,-0.15879157,0.022004548,0.07302024,0.106759876,-0.18655516,0.08441632,-0.04783651,-0.08746751,0.09384517,-0.13342704,0.28845882,0.011939395,0.08465921,-0.3298477,-0.25424433,-0.09616197,-0.16650026,
			-0.12756294,-0.17858648,-0.04562949,0.056414925,-0.020744797,-0.07937615,0.48194835,0.007755506,0.00814139,-0.07389976,0.026015745,0.09430204,-0.13226075,-0.011793259,-0.03232587,-0.009767148,-0.055276874,-0.08143894,0.05835077,-0.04500348,0.0074672876,-0.0012298385,
			-0.09318045,-0.00077959005,0.066531256,-0.058788065,-0.010556657,-0.07361916,-0.019182192,-0.008387821,0.021208944,-0.19691588,0.041308705,0.060848877,-0.124062926,-0.0006584114,-0.036324948,0.07123202,-0.034795534,-0.108647645,-0.05209466,-0.04170978,-0.010891797,0.4479758,
			-0.013985891,0.020390946,0.07564163,0.12054961,-0.034744054,-0.060475014,-0.0053084074,-0.005143243,-0.017652385,-0.06820817,0.061906215,-0.0053869723,-0.043867752,-0.027936181,-0.06609743,0.11163971,0.8926199,-0.020749051,0.040958617,-0.037210982,0.011832159,-0.010232299,
			0.059265006,-0.025606323,0.009153009,-0.4550871,-0.11191592,-0.14402398,0.10009797,-0.12735942,0.14523563,-0.10630499,0.047254186,0.005131241,-0.012432531,0.0041551273,-0.09696681,0.3011644,0.0249629,-0.14983012,-0.065755434,0.14390582,0.025830261,-0.15504979,
			-0.034602016,0.123559155,-0.018559532,0.009215775,-0.04107626,-0.08113836,0.0029020228,0.022159029,0.004182892,-0.07296406,0.08563013,0.033211324,-0.005537751,-0.05985777,-0.09212909,0.048899077,-0.046916302,0.032378335,-0.18957931,-0.011882335,0.44141445,0.021728499,
			0.010460763,-0.22621009,-0.015506475,-0.036907833,-0.057877805,-0.12591146,0.031205548,0.03441702,-0.030507894,-0.099126294,0.075498715,-0.09858634,-0.034739546,0.7997425,-0.13042504,-0.0047837906,-0.10554387,0.10464841,0.22396958,-0.0005725046,-0.035133112,0.02699443,
			-0.16718936,-0.10700989,-0.4470878,0.027853368,0.07308206,-0.11889186,-0.17530708,0.16433792,-0.064676695,-0.033525184,0.053610686,-0.0374673,-0.006820275,0.010349936,-0.10094209,0.23642349,-0.003451655,0.12180235,-0.026431557,-0.27348247,0.022652617,0.13223201,
			0.022282504,-0.12730724,-0.1504776,0.088338315,0.14089204,-0.14660087,0.056245964,0.13936329,-0.1590614,-0.15655255,-0.0019987458,-0.01511513,-0.28159317,-0.17165774,-0.05504624,0.12654096,0.034589287,-0.04185839,0.15707254,0.16716331,0.12732199,-0.2663195,
			-0.003955793,-0.05100174,-0.24769475,0.14305303,-0.06866105,-0.04514675,0.01375715,0.032145724,0.5360759,-0.14778057,0.08156188,-0.05593701,0.067209564,-0.038711663,-0.06365741,-0.0093603255,-0.07932572,0.04787673,-0.0320713,0.03441934,-0.01967867,-0.0070240526,
			-0.06881194,-0.09000568,0.050673783,-0.095153704,0.008122054,-0.078614004,-0.008274217,0.5144048,0.006611347,-0.1075196,0.050329544,0.010609762,0.025059372,-0.0177963,-0.088189214,0.02247438,-0.085527755,-0.11317281,0.041494288,-0.017642742,0.006048842,-0.037959415,
			-0.050284274,-0.085307755,0.14454493,-0.22570097,0.5000524,-0.05505555,-0.0015036868,0.028662521,-0.035180014,-0.10984453,0.08135345,0.09166999,0.07014505,-0.020044342,-0.10467633,-0.0129674105,-0.07058458,0.08935563,-0.015364022,0.0028212809,-0.036641166,0.046175845,
			-0.10082312,-0.026324514,0.10754795,0.08517469,-0.13715883,-0.111781016,0.1945998,-0.09810146,-0.08577293,-0.064802445,0.107459456,-0.27388003,0.08119661,-0.12076576,-0.10898498,0.18385647,0.10277356,-0.2156097,-0.058486953,-0.13234816,-0.11589625,0.23462054,
			-0.14750828,0.061529137,0.013922368,-0.098388575,-0.21013832,-0.106313065,-0.22644219,0.13725659,0.16454944,-0.014476928,0.0207618,0.3367113,-0.23019154,0.12332199,-0.06263149,0.026617428,0.027448181,-0.07167834,-0.054415535,0.13289261,-0.1945656,0.07750672;
