			-0.039115693,0.028834946,-0.050588574,-0.001205762,0.17028733,-0.05758248,-0.12399733,-0.057673335,-0.12344687,-5.770403e-05,-0.073111966,0.015759012,0.101902254,-0.05086011,-0.008717076,0.035539646,0.034115635,-0.056481216,-0.08064644,-0.095360205,0.41660368,-0.09548153,
			-0.14449011,-0.059356935,-0.007076845,0.1062598,-0.014347298,-0.16051467,0.07325696,-0.06568103,-0.1354088,-0.000299526,0.046416856,-0.016906943,-0.1727728,0.18635753,0.059180092,-0.015228334,0.11925091,-0.05140596,-0.051814843,-0.10284587,-0.097911075,0.019495063,
			0.09358945,-0.08311569,-0.16026591,0.007393587,-0.060357757,-0.07123814,-0.15332802,-0.19057778,-0.022014244,6.2750536e-05,-0.014596747,0.01109211,0.053007025,0.10279827,-0.32984695,-0.12107314,0.061600406,0.036164567,-0.099671684,0.0012467533,0.05443595,0.06588104,
			-0.0272097,-0.020668587,-0.027221961,-0.1328675,0.005142706,-0.048061397,-0.01610075,-0.05982046,-0.023311405,-0.00036126407,-0.03951871,0.2989816,-0.1035582,-0.024887748,0.044785116,-0.010225038,0.038760584,-0.008226814,-0.06291191,-0.0026719696,-0.018411841,-0.084544554,
			-0.050308313,-0.18692589,-0.009851893,-0.046648216,-0.080604896,-0.15790465,-0.06851021,-0.08079606,-0.047460224,0.00020650173,-0.03363116,-0.09724441,-0.031236658,0.099118166,-0.03941552,0.17284742,-0.11522638,0.14881358,0.015961494,0.04825442,-0.07620211,-0.18543744,
			0.078338,-0.07397553,0.0053410428,-0.072904885,0.08634767,0.05587878,0.053615373,-0.04890217,0.026949173,0.0005767951,-0.08009316,0.09610116,0.09009545,0.037022125,-0.0039308756,-0.1696762,-0.22229952,0.0014573785,-0.15273419,-0.18660797,-0.109583855,0.22178833,
			-0.13888815,-0.3088997,-0.081624776,-0.15168285,-0.11583975,-0.014164032,0.12113424,-0.11953854,-0.07704819,0.00032230443,-0.0861147,0.055935208,-0.14790256,0.02701666,0.05703662,0.09513583,-0.2107333,0.11034343,-0.0070375847,0.14786503,0.059410546,0.14643504,
			0.043366935,-0.057600472,-0.07609511,-0.22949956,-0.004604614,-0.054816082,-0.06949382,-0.044727758,0.030655866,-0.00035001567,0.03912628,-0.024136296,0.052742444,0.19819957,-0.10987552,-0.00014169324,-0.30985382,-0.013820398,-0.02882351,-0.020203002,0.028536573,0.05405374,
			-0.055481873,-0.12607843,0.008609459,-0.05462644,-0.015983483,-0.02656097,0.019822823,-0.036274,-0.18741271,-0.00017184127,-0.066106424,0.017717512,0.15840566,-0.049387895,0.027493047,0.0077823163,-0.1601793,0.13628894,-0.16814883,-0.041944083,0.40056705,-0.008618052,
			0.060435023,-0.09949033,-0.26750377,-0.4172031,0.0411681,-0.063312195,0.05965438,-0.17435002,0.0026380925,9.481572e-05,-0.029784566,-0.14952669,-0.03606693,0.048095927,0.017261146,0.0755847,-0.061918665,-0.09742592,0.03426175,-0.08987313,0.05874706,0.017779332,
			0.4773031,0.04418971,-0.04844036,-0.03045351,0.017036391,-0.023717564,-0.021785378,-0.045175444,0.0067276964,-2.2372249e-05,-0.078684606,0.087672174,-0.24674134,-0.048838556,-0.027204586,0.022273988,-0.12075074,0.028845595,-0.03865187,0.06711043,-0.050860364,-0.01651451,
			-0.0100647705,-0.043977834,-0.055299524,0.05358542,0.34803233,-0.033345517,0.020397991,-0.068282776,-0.12614052,-7.304507e-05,-0.038550634,-0.004994294,-0.0038409226,-0.045703463,-0.075364895,-0.0062095593,-0.03784506,-0.00027058247,-0.073644124,0.044524606,-0.040852457,-0.049153525,
			-0.011463815,-0.085030474,-0.027699374,-0.0029470283,0.0016255246,0.022222884,-0.020068299,-0.05548712,-0.007259172,-0.000116372576,-0.021684675,-0.0112170745,0.0032985522,-0.029710375,-0.056866996,0.42008302,-0.0017699098,-0.02002408,-0.15522611,0.0018059778,-0.006821643,0.08883037,
			-0.013717187,-0.049702443,-0.04877613,-0.11745338,-0.0015765829,0.00971602,-0.0012424748,-0.047179822,-0.05983727,-0.00020603694,-0.03350518,-0.004971331,0.018998308,-0.023282913,0.026415654,0.00028068636,0.025086522,0.26668233,-0.09476726,-0.0726735,-0.021888632,0.059588898,
			0.07374509,-0.027580488,-0.20473082,0.021925893,-0.079190105,-0.18068041,0.015413123,-0.104996726,-0.4197852,-0.00051272433,-0.026883226,0.08858555,0.018524075,0.011270639,-0.050082233,0.12282909,0.016097,-0.0937271,0.0016957587,-0.17473313,-0.09307848,0.009510124,
			-0.13652939,-0.07721351,-0.03253833,0.07290077,0.06701637,0.07140173,-0.12254575,-0.051560815,0.077909276,0.00023932586,-0.09282095,0.10706361,-0.07366406,0.038511552,-0.13600942,0.029219033,0.059412494,-0.13655493,0.019260524,-0.16346622,0.0638481,0.25471652,
			-0.0224709,0.030187696,-0.07723333,0.1266664,0.009660218,-0.027488552,0.43724498,-0.08269994,0.007521091,8.510418e-05,-0.05395471,0.014028816,-0.033658266,-0.061380167,-0.18154627,0.015507609,-0.02215202,0.024909472,-0.018862894,-0.042239707,-0.031604275,-0.06008087,
			-0.019347413,-0.09784494,-0.062611856,-0.0023588552,-0.0030276042,-0.099373154,0.00035878434,-0.06272979,0.05463756,-0.00015826414,-0.12585151,-0.012660212,0.019030642,0.6935369,0.007756811,-0.01711818,0.030366607,-0.0049615726,0.068542324,5.744349e-05,-0.021956483,0.09991068,
			0.09933999,-0.21715896,-0.022218209,0.16687976,0.041657288,-0.086618595,-0.13072394,-0.068723746,0.04425936,0.00037246055,-0.098165646,-0.13876878,0.15618138,0.025740499,-0.045257136,0.10673645,0.13122697,0.07580809,-0.1354453,-0.121013746,-0.13317877,-0.08007592,
			-0.10066992,-0.06671521,-0.079235375,-0.029813189,0.09764921,-0.18614927,-0.01499599,-0.09633056,0.03342973,-2.345894e-05,-0.03209492,-0.11585147,-0.3797898,0.010822026,-0.028361255,-0.100037806,0.0075750803,0.097507246,-0.20261279,0.006360786,0.057873767,0.03615383;
