			-0.6521196,1.1630427,-0.71670115,-3.5033865,-1.4375693,0.41706923,-1.8418769,-0.6018716,0.3087354,2.8347332,3.089978,-1.4537609,-3.1569502,0.9108755,-0.016617185,0.2750956,-0.6199147,-2.944749,-4.7468514,-0.453397,0.0029238253,2.075631,
			-0.4954104,1.4671113,-2.019161,-0.10335854,-1.6273851,-1.9010161,0.63540655,-1.2259,-0.23982961,1.1107771,1.3062468,-1.2373767,-3.1453872,-2.8778875,-2.550825,-0.92246103,2.5808167,-6.583222,-1.1695212,-0.493686,-0.0004982665,1.8847522,
			-1.3679637,7.8980446,0.46864685,-2.7180703,1.3665068,1.4814516,-0.76382804,0.23479983,1.6669719,-1.8192072,1.6169246,-3.344074,-4.006005,-0.7405362,-2.2170815,0.857513,-0.008578579,-0.6526994,-1.2939711,-0.2585666,0.0030347914,-0.7821901,
			-0.7069388,1.5207905,-1.7933623,-0.67678714,0.6072141,2.2108297,-0.55334073,-6.097299,0.3881907,-1.6453407,-0.119146466,-1.6177303,-2.2118723,-1.1396648,3.014319,-0.21679766,0.44667017,-1.7366114,-0.9783409,-0.79922456,0.00048321587,0.008461747,
			0.16810979,0.84270763,-3.6719372,0.18615292,0.06900836,-2.3499484,-0.351193,-0.83432883,-0.92708504,3.3394384,0.1267658,1.9524417,0.33573234,-0.7568385,0.6536167,0.2542267,2.074543,-0.3091347,-0.13254485,-1.68706,-6.724715e-05,-0.20012477,
			-1.5144662,2.6551063,-0.33406872,4.601734,-1.7302676,-2.8437443,-0.3302436,-3.9149187,0.18947336,-1.9580408,2.0162737,-1.228917,0.10000795,-2.2575755,-5.711815,0.23693547,-0.49346638,-4.966563,-3.6412144,2.6411865,-0.00018372193,0.4127111,
			0.15704806,2.4510896,-3.1657217,2.6875882,2.220533,2.4725823,-5.4042845,-2.597001,0.9446052,1.0281923,4.2913985,-4.842056,1.0606292,-1.1794555,-2.2202792,1.9435589,-0.33572844,1.2231499,-0.19122368,-3.230992,0.0013065538,-5.8164654,
			1.1411141,0.19746244,-0.5563758,0.22521576,2.0458882,-0.42023462,-1.3916767,0.21687621,-0.21940497,1.7998712,1.2881488,-0.20139226,-0.5426751,-0.2989876,0.24471344,0.38668787,2.3285666,1.748981,0.2920631,-1.2447236,0.003050667,-1.0084534,
			-1.532868,0.78924143,-1.2192267,1.1869607,0.83554333,0.36854276,0.36799213,-0.9023967,-5.0080786,3.042641,-0.940494,-2.7820253,0.7064143,-2.2607863,-2.1719682,2.02482,-0.7882438,-0.11275824,-1.825268,-2.0911486,0.0015790339,0.16131306,
			-6.0209413,1.390905,0.37554651,-0.18732582,-0.6146114,-0.12950769,-7.399918,-0.8920672,-0.18399976,0.37134042,4.1890235,0.65721077,0.08386666,-4.154915,-0.07634097,0.6733867,-0.91085714,2.4627023,-0.44261533,0.6312894,-0.0013863562,1.2268413,
			-4.7424126,2.0081003,-0.28464973,2.884596,0.26799765,-0.2806528,-0.20664331,-1.6751145,0.67729837,0.6346428,-0.09738343,-0.9716333,-0.38520455,-3.0882494,-6.917769,8.888989,-0.22988835,-0.12555782,-0.6647651,1.5779178,0.0019170879,-1.3812052,
			-0.28157327,1.4959847,0.24699016,-3.4444401,0.42153266,-1.2625839,-1.0122687,-5.7239575,0.1809611,-1.2219158,1.348656,-0.55600744,-1.508619,1.322889,0.65269184,0.26456133,0.044573758,-0.7892992,-0.20300588,0.54390496,-0.00049195613,-0.948673,
			-0.33139908,0.43647838,-0.80870837,0.23472935,-1.732282,1.2353517,0.053040154,-1.1009033,0.4341598,-2.0529819,1.3255917,-5.0871305,-5.279769,-3.04038,-0.7673769,1.6893015,8.365687,0.12740727,-0.14415291,0.3833458,-0.0022747144,1.819373,
			-0.19607414,0.74843675,-7.362411,1.066784,-0.31880715,-3.1380026,0.6408663,-4.0797186,0.38668922,-0.8406184,-1.3149754,-1.579609,0.4143019,-2.0364742,-0.7759006,-0.62148994,10.492503,-0.48430797,-0.16734855,-1.9936025,0.0012670546,0.94961524,
			0.5262064,1.3090948,0.77715445,-4.9493475,3.9692895,-3.6678987,-4.0949535,-2.0368183,-0.09490182,0.88259333,1.9472655,-0.16479109,-0.95199853,-1.0365405,0.6652456,5.1741333,-0.23020563,0.07667833,-0.1428416,4.043542,0.0036943797,-1.6599047,
			1.4133722,1.7026287,-1.885272,-3.3957567,1.4292434,-1.5429909,-1.6451074,-1.1576794,0.16117449,3.1964982,4.1185517,-2.4441552,-3.2229776,-1.5320872,-2.597811,1.4649456,2.2602062,0.5805837,0.85742193,-0.6493602,-0.0021937825,-5.9538336,
			-4.4197636,1.7790078,-3.3579755,-4.7769213,0.180245,2.1125398,0.34789002,-1.4707896,-0.80083424,1.6233172,-1.1459397,-4.241742,-1.7731464,-4.4240212,0.992538,0.027582226,-1.4344394,-3.0973766,0.05567181,-1.6409487,-0.0015255472,-0.7051618,
			0.027037589,1.2616822,-0.26324424,-0.21980603,3.0305805,1.2124307,-1.5109392,-1.2804091,-21.962345,2.468579,-1.0294985,-2.308429,0.4454233,0.73457766,0.3997977,6.95363,-0.26353195,-0.91670674,-4.8156867,-0.5759227,-0.0036495787,-1.6146698,
			-0.94338816,6.752572,-2.5008519,0.6630361,1.0559938,-2.467041,-1.3345773,-2.5945013,-1.0955788,-0.35364076,0.7424811,1.9360433,1.2855906,-0.87351906,2.1195898,0.76211405,0.33188492,0.39733645,-1.518169,-3.3510716,-0.002619826,-1.7789209,
			-0.25459298,1.0036846,-0.70972157,-1.7415798,-0.48589948,1.4470372,-0.16843978,1.1208887,1.0328296,3.1254725,1.1913314,-1.6600688,-5.7100105,-0.925327,-1.6890147,0.6521025,2.083571,-0.9095616,-0.27558655,0.93458235,-0.0027621444,0.5392124;
