			-0.034151226,-0.0090411315,0.107317455,-0.03175647,-0.2225411,-0.39570814,0.046121266,-0.07967453,0.30462652,0.10234858,0.057222072,0.10937104,-0.12513644,0.016185073,0.07426462,-0.14529537,-0.24911082,-0.07227758,-0.056929335,0.11167096,-0.053170223,0.19307534,
			-0.017465506,-0.045952607,-0.027485177,-0.07227501,0.024355378,-0.0199212,-0.04827336,-0.05401381,0.042231806,0.02985484,0.053425822,0.0315967,0.018888678,-0.049106944,0.0064395154,-0.03913783,-0.07271426,-0.3466532,-0.06836245,-0.097936004,0.59697825,0.03216781,
			0.010518659,0.008131272,0.053392533,-0.059881456,-0.15692466,-0.07614594,-0.019366683,-0.07592045,0.07237601,-0.003520594,-0.06582463,0.0067052436,0.478559,-0.044475954,-0.0077314577,0.025561852,-0.06405711,0.05167429,-0.047623154,0.16270988,-0.012161075,-0.012918976,
			-0.40845242,-0.13540317,0.13288167,-0.0400987,0.048248358,-0.020180354,-0.09732714,0.042133655,0.12597518,-0.13179813,0.092168376,0.027551036,0.1824772,-0.024533732,-0.11103954,-0.09792741,-0.059806757,-0.020157788,0.12897806,-0.091617316,-0.09377017,0.21622315,
			-0.036366127,0.34885103,-0.010882137,-0.07014376,0.011406771,-0.016341818,-0.013352159,-0.059306443,0.037969425,0.0145787755,0.0076900534,-0.16700445,0.010100363,-0.015005185,-0.027172083,-0.022512428,-0.011280567,0.054134764,-0.023718944,0.00404475,-0.04915053,0.009267868,
			-0.030761868,-0.17465046,-0.14031592,-0.08569562,-0.1232816,-0.047647934,0.043303598,-0.087496795,0.122934006,-0.18369056,0.091859005,-0.27000865,-0.1946497,-0.02223927,-0.19796772,0.008910271,0.16792023,0.041867148,0.03382966,0.0032515554,0.08810145,0.13886693,
			0.04798786,-0.059806094,-0.03190951,-0.04526284,0.041439842,-0.2150699,-0.03588734,-0.41365424,0.069748305,0.023807071,-0.012040418,-0.009438658,0.058197122,0.0776404,-0.06357681,0.8449578,-0.042735144,0.027351117,-0.08231432,0.479198,-0.05834081,0.029773997,
			0.065474704,-0.11359644,-0.21358661,-0.05037884,-0.06788401,-0.058664933,-0.11514264,0.09552179,0.06938676,0.21337928,-0.15507333,0.025925145,-0.13480045,-0.008783575,0.07808109,-0.07829321,0.09031184,-0.0028391937,0.13683526,-0.18011525,-0.10081097,-0.11965946,
			-0.18016861,-0.18695411,0.21385035,-0.027575804,-0.07242537,0.15057935,-0.1874677,0.07986196,0.072651446,0.09256102,-0.00016676995,-0.21057127,0.09895784,-0.21701041,-0.24190868,0.116068475,-0.052977283,0.099862784,0.012351372,-0.2947673,0.11523526,0.11155687,
			-0.08586053,0.001512109,0.023560928,-0.061307896,0.003811181,0.048980597,0.016289001,-0.022836989,0.052486897,0.49833006,-0.17207289,-0.017980633,-0.0022212546,-0.04362496,-0.14944874,-0.016573664,-0.06587431,-0.0010932239,-0.040258333,-0.0078310855,-0.008498691,-0.04273486,
			-0.012719597,0.11212171,-0.058093835,-0.06455267,-0.025583528,0.1124483,-0.16756798,0.07158043,0.108895525,0.15247631,-0.2951574,0.09554683,-0.19626494,-0.16155246,0.06138983,0.14579745,-0.084015,-0.29740244,0.023641748,-0.25833473,-0.1887443,0.018093327,
			-0.048579693,-0.1979118,-0.08691296,-0.062230617,-0.35016337,-0.11862396,0.12785171,-0.12337213,0.08199493,0.14175354,-0.10812441,-0.12891077,0.086438574,0.15527388,-0.0043302826,-0.1780056,-0.0019657286,0.15262681,0.017534625,0.08506747,0.12728694,-0.2370536,
			-0.110410124,-0.19974841,0.022221258,-0.13999364,-0.01205986,0.044804078,0.08870313,-0.079643294,0.17307574,-0.062613204,-0.07489333,0.19822037,-0.069285475,-0.0142737515,-0.025070196,0.10448001,0.060976002,0.034653515,0.23528525,0.23000881,-0.17024077,-0.007759454,
			-0.056736283,0.08492809,0.032436863,-0.01143121,-0.028313918,-0.18774125,-0.14219378,0.25912884,0.18672845,-0.050606947,-0.060535066,-0.06424207,-0.018020542,-0.0001404244,-0.0048203543,-0.118878916,-0.025348697,-0.07498982,0.18946233,-0.3857538,0.07820619,-0.03230939,
			-0.04064237,0.010041872,0.025636518,-0.016501267,0.013181789,0.13130808,-0.016428761,-0.060018066,0.1402663,-0.008123067,-0.043446835,-0.03795039,-0.015707409,0.05949609,0.042533614,-0.030461732,-0.015720556,-0.024558686,0.8724298,0.1031236,-0.030671636,-0.005649408,
			-0.01730098,-0.011882873,-0.1720464,-0.044154137,0.12904827,0.020053757,-0.15139173,0.20560643,0.16949648,-0.12673269,-0.22041927,-0.030018864,0.12892945,-0.13816148,-0.115510896,0.061613716,0.059769206,-0.14090677,-0.06109632,-0.3873476,-0.03667689,-0.11276635,
			0.014929976,-0.010832509,0.0015564478,-0.05532218,-0.11220849,0.024097543,0.006644375,-0.069509655,0.056024082,-0.04315469,-0.17347395,0.028663414,0.013601493,-0.05368195,-0.102658175,-0.03846336,-0.03987399,-0.09987029,-0.066804975,0.18066451,-0.017259922,0.6236592,
			-0.02213969,-0.040973023,-0.025539458,-0.03919313,-0.022402555,0.09979337,0.59023935,-0.0052949316,0.058755014,0.02489475,0.058283374,-0.059112225,0.02761669,-0.27411193,-0.034007322,-0.08257803,-0.0009534985,-0.073799685,-0.05839422,-0.033834536,-0.04309222,0.029743962,
			-0.23210843,0.09296547,-0.010266123,-0.040552292,0.06090199,-0.018688574,0.15188633,-0.18546379,0.04087141,-0.18643712,-0.098454855,0.1295527,0.15798753,0.19768393,0.002499954,-0.17160128,-0.14115883,-0.23772126,0.011096763,0.26481152,-0.19305432,0.05528937,
			-0.1159551,-0.0044496697,-0.44637394,-0.039156087,-0.18074146,0.02069422,-0.019665569,-0.05901514,0.07650759,-0.014181046,-0.049385328,0.087375864,-0.031663567,-0.0092329,-0.08359178,0.014487612,-0.13325249,-0.028875712,-0.036870915,-0.0015582002,-0.012861294,0.0020802573;
