			-0.008993213,-0.12955227,0.010635093,0.3333219,-0.13618827,0.17562352,-0.10989001,-1.1361631,-0.29142988,-0.1380671,-0.20479079,-0.73291504,-1.0232067,-1.5319777,-0.49997112,-0.6500034,0.93031156,0.13856055,-0.27022555,-0.2662986,
			0.17601287,0.47354054,-0.12681426,0.36905944,-0.005564543,0.37024593,-0.42734408,-1.9190971,-0.10494091,-0.20543297,-0.48939842,-0.7260827,-1.6796947,-0.36878818,-0.5503461,-0.80612916,0.97521853,-0.104782365,-0.48730427,-0.30603972,
			-0.009031952,1.0394918,-0.06605535,0.1101038,-0.20880668,0.35012394,-0.3805023,-2.34376,0.11935187,-0.12625144,-0.6223898,-0.44197184,-1.6875857,0.15992999,-0.36974838,-0.4808134,0.45846495,-0.3499813,-0.6851029,-0.29610726,
			-0.17017607,0.88395876,-0.06673991,-0.57988733,-0.19860798,0.26631543,-0.25041556,-0.51457393,-0.004958653,-0.07521956,-0.73908377,-0.096310526,-1.8569356,0.15316318,-0.08091717,-0.16233297,-0.050967664,-0.24271923,-0.4485535,-0.07372592,
			-0.45698404,0.94319445,-0.1732238,-1.8774567,-0.24526158,0.4374917,-0.24703036,0.1321939,-0.3690587,-0.023925567,-0.80780804,0.060886953,-1.7071129,0.21471411,-0.5039011,-0.002803498,-0.32440284,-0.32029685,-0.42011178,0.42741355,
			-0.7443442,0.498526,-0.2585222,-1.6230248,-0.004099415,0.41303355,-0.019402217,0.5294715,-0.68800616,-0.093284264,-0.511035,-0.25338385,-1.6624566,-0.38626602,-0.6686277,0.23423888,-0.36184627,-0.38939425,-0.45192403,0.9266211,
			-0.56597805,-0.08679495,-0.09347293,-1.1797,-0.17573024,0.10760983,0.08569446,0.41083512,-0.57748413,0.08161815,-0.32941756,-0.39857027,-0.96541494,-1.5134903,-0.47776246,0.08277199,-0.35389602,-0.07145506,-0.2563615,0.9258387,
			0.09793626,-0.4142994,-0.11286499,0.39981195,-0.4071909,0.22415292,0.019013895,-2.3864594,-0.39512634,-0.17536238,-0.30151767,-0.5304221,-0.13967898,-2.1243124,-0.4253777,-1.0412666,0.9264558,0.66349983,-0.23549202,-0.29766944,
			0.21236213,0.045603238,-0.23790696,0.40241218,-0.119751476,0.34824413,-0.18454115,-2.1294897,-0.3216774,-0.23841847,-0.49451643,0.10746453,-0.5918061,-0.8557247,-0.4535206,-1.0569167,0.81969315,0.2703533,-0.4087432,-0.38918483,
			-0.026495252,0.59097266,-0.16560286,0.1520167,-0.4021512,0.41571984,-0.26586044,-1.5001454,0.026865616,-0.18005612,-0.85744196,0.2671662,-0.69493806,0.044707537,-0.3638928,-0.67212003,0.4247609,-0.096314706,-0.7788805,-0.3493628,
			-0.320191,0.88457507,-0.07517832,-0.32825732,-0.51945615,0.4510798,-0.18092635,-0.3283724,0.21017428,-0.06847176,-1.0566227,0.21142137,-0.8269596,0.23449026,-0.03462503,-0.27544513,-0.077454634,-0.25581548,-0.89736605,-0.14173165,
			-0.6442608,0.60447264,-0.24379939,-1.1762673,-0.3709595,0.43813553,0.0036413288,0.19507161,0.29786482,-0.14551693,-0.8191729,-0.03445089,-0.69519114,0.056178223,-0.48340413,0.052701198,-0.36575282,-0.2582385,-0.8897469,0.38780376,
			-0.93542445,0.14682469,-0.28987336,-1.8530178,-0.091445014,0.32048965,0.29326487,0.46298498,0.21138224,-0.20368327,-0.384237,-0.45952532,-0.53129745,-0.8923025,-0.549696,0.34445745,-0.44928795,-0.15531118,-0.54303396,0.8229021,
			-0.8795152,-0.28976682,-0.23944606,-2.3583837,-0.36872563,0.1315402,0.6447311,0.32815644,-0.42875752,-0.07955564,-0.31167236,-0.49156663,0.057323113,-2.2265558,-0.45598376,0.24085023,-0.351557,0.023336418,-0.36534077,0.968338,
			0.11065014,-0.4849926,-0.028579159,0.13717513,-0.34110856,0.047717053,-0.1877655,-1.7068851,-0.7311906,-0.099084556,-0.8350909,-0.43991,0.11745134,-2.0551808,-0.39505035,-0.8970168,0.456553,1.0624328,0.019760571,-0.24510658,
			0.3238755,-0.23015541,-0.20679243,0.10999952,-0.30499586,0.08048492,-0.348213,-1.7630384,-0.76733017,-0.13074633,-0.80786544,0.3372788,0.08225684,-0.8491452,-0.38204053,-1.1120166,0.46933576,0.7355432,-0.06243362,-0.32682437,
			0.02672392,0.1088511,-0.21974629,0.21085842,-0.3378314,0.055750784,-0.38527632,-0.7240913,-0.35308656,-0.1306543,-0.9979192,0.3491883,0.06183106,0.13225102,-0.017672304,-0.6435581,0.18282351,0.1506887,-0.35893708,-0.28548583,
			-0.21551786,0.27967647,-0.039326243,0.046103265,-0.5425111,0.059363496,-0.18403964,0.078063354,0.004797076,-0.07042914,-0.85177374,0.008636077,0.0066971765,0.2885193,0.4480753,-0.20258549,-0.12208758,-0.24651258,-0.79083216,-0.15445231,
			-0.5542916,0.12867849,-0.12138068,-0.56873083,-0.37219417,0.06217325,0.20870978,0.20164265,0.29069135,-0.22391054,-0.29564825,-0.4117244,0.0779244,0.120945916,-0.07127026,0.07258271,-0.29866117,-0.3987626,-1.008061,0.16862695,
			-0.9405358,-0.14621413,-0.19242342,-1.3470173,-0.24191386,0.03711535,0.71682864,-0.031621773,0.33574632,-0.1975813,0.00709545,-0.88563836,0.19573072,-0.9086773,-0.5004992,0.43661684,-0.347961,-0.3872358,-0.9205724,0.5151805,
			-0.7805765,-0.4557621,-0.14986776,-2.1479971,-0.26646334,-0.023993647,1.0441858,-0.04033685,-0.16365162,-0.069068365,0.044598576,-0.75754523,0.2636787,-2.0947826,-0.49027103,0.19192456,-0.21355523,-0.21859418,-0.6636878,0.49637243,
			0.17100571,-0.31612,-0.17374611,-0.612627,-0.32459867,-0.1785463,-0.08728045,-0.8623326,-0.8435947,0.13750383,-0.582267,-0.036891147,0.23499861,-1.874017,0.05920309,-0.5210382,0.06141655,0.8393728,0.0026531643,-0.23244624,
			0.41481447,-0.30106723,-0.18416491,-0.49005443,-0.27788034,-0.24769585,-0.3480853,-0.7754462,-1.1032934,0.07024786,-0.8962137,0.359925,0.2583599,-0.85189134,-0.08516699,-0.9524455,0.051254965,0.9087268,0.17408858,-0.2666826,
			0.15396866,-0.2598765,-0.11035688,-0.025870321,-0.24449387,-0.27648425,-0.45621637,-0.15550652,-0.8706837,-0.03473902,-0.73474795,0.105596505,0.3377476,0.17825514,0.34682724,-0.56610763,-0.04209386,0.2707352,-0.049848527,-0.16580917,
			-0.030840322,-0.17060985,-0.09107518,0.14759007,-0.19103809,-0.26398185,-0.14341727,0.13594308,-0.3930825,-0.10181912,-0.37908882,-0.36618868,0.21845861,0.19294314,0.91955465,-0.018708222,-0.11759847,-0.16353041,-0.41844577,-0.12586458,
			-0.523466,-0.26391146,-0.035252955,-0.020985663,-0.29672477,-0.26848173,0.29563826,-0.14517894,0.03685876,-0.14054826,0.08625445,-0.8824728,0.34339345,0.12688005,0.37404174,0.12150285,-0.17005141,-0.46506092,-0.7490298,-0.021346861,
			-0.8312609,-0.26570904,0.042962115,-0.5338969,-0.298908,-0.2595722,0.89818156,-0.7139953,0.2680924,-0.17826223,0.27008465,-1.1016623,0.3324327,-0.8956726,-0.16100061,0.44056925,-0.25196478,-0.41721612,-0.90621084,0.10649363,
			-0.52444947,-0.2486538,0.062922075,-0.6245831,-0.31191993,-0.195751,0.78916657,-0.9014055,-0.0069259647,-0.09594132,0.012665718,-0.720932,0.27014688,-1.8989629,-0.078085266,0.21255429,-0.22030918,-0.11071306,-0.519882,0.06683884,
			0.28552845,-0.3548866,-0.20780474,-2.154388,-0.34373432,-0.52347565,-0.2322968,-0.21922164,-0.45791155,0.5094482,-0.49825642,0.1881551,0.40885073,-2.1403403,-0.31650016,-0.770497,-0.16143659,1.0574894,-0.04373137,-0.10621618,
			0.49192673,-0.2289883,-0.32617593,-1.3254775,-0.11752892,-0.60790217,-0.3511679,-0.12568198,-0.90591866,0.49816516,-0.5499667,0.18527928,0.21387397,-0.8375257,-0.48133588,-0.9817616,-0.17312104,0.692455,0.2616993,-0.24974725,
			0.19373967,-0.33177993,-0.24264973,-0.6130975,0.21232858,-0.5439788,-0.42721823,0.111261025,-1.1128231,0.19300638,-0.20239113,-0.15859209,0.11514923,0.19406809,-0.04137641,-0.5519949,-0.109334014,0.13155082,0.31567502,-0.22996002,
			-0.08947316,-0.4975043,-0.108506665,-0.06769955,0.36704192,-0.52860093,-0.27463984,0.066711,-0.7322661,-0.124869905,0.11137355,-0.8380543,0.051966,0.35327175,0.47972214,-0.105371386,-0.050727926,-0.22885041,0.12810645,-0.038495306,
			-0.5374326,-0.34885958,0.17954509,0.14823297,0.18104918,-0.5009119,0.12111607,-0.74691504,-0.25428617,-0.27203146,0.43254492,-1.1290249,0.11234299,0.19667767,-0.034748383,0.11280784,-0.22703983,-0.39645833,-0.19259447,-0.0822401,
			-0.906617,-0.26778916,0.45108187,-0.024141999,-0.14634632,-0.5559657,0.6717356,-1.8048451,0.08493825,-0.31529245,0.38205358,-0.8075775,0.21835913,-0.81946826,-0.484081,0.43215603,-0.21667564,-0.3889418,-0.43467015,-0.09690967,
			-0.8833389,-0.29564273,0.46495968,-0.07658734,-0.42521587,-0.44338104,1.0148201,-2.4262555,0.1357267,-0.20950894,0.06268802,-0.40962073,0.32763273,-2.0986464,-0.40289286,0.2022379,-0.106249236,-0.20680106,-0.3269268,-0.16536982,
			0.35439384,-0.3868731,-0.3742699,-2.0834002,-0.15541767,-0.6846901,-0.012927153,0.12058444,-0.42648113,0.93446016,-0.24469732,-0.037548423,0.13317245,-2.2227378,-0.4745996,-0.85729325,-0.20139128,0.6242165,-0.09647223,-0.117421485,
			0.4990939,-0.05952343,-0.4120978,-1.9015583,0.15494926,-0.77483255,-0.16842392,0.3104012,-0.50273687,0.79591584,-0.118673675,-0.095534265,-0.49938154,-0.76505846,-0.56075644,-0.9207888,-0.25441834,0.2818327,0.23459716,-0.22589718,
			0.26190025,-0.2895563,-0.36922053,-1.3164414,0.6721697,-0.8497511,-0.26540342,0.056934435,-0.86150837,0.39918116,0.2407796,-0.56288016,-0.6754247,0.14638814,-0.5300425,-0.5468549,-0.19423081,-0.062181592,0.34638867,-0.12924819,
			-0.10205165,-0.4025325,-0.077068314,-0.4188907,0.9991884,-0.5881362,-0.24733505,-0.3559847,-0.87918246,-0.12066428,0.4172869,-1.017212,-0.9427226,0.32322285,-0.1642608,-0.1759774,-0.07940493,-0.17447431,0.41732335,-0.07818979,
			-0.50949997,-0.3236989,0.40420234,0.026204675,0.6383168,-0.70434445,-0.0790941,-1.6568471,-0.6138706,-0.36518157,0.42475057,-0.8195038,-0.69060963,0.1819634,-0.5112633,0.11262365,-0.16962147,-0.23806341,0.28685045,-0.13430177,
			-0.88389885,-0.08847831,0.7946826,0.21675542,0.10525173,-0.6260885,0.23513378,-2.2337646,-0.20150019,-0.3728651,0.27473897,-0.53245336,-0.47768566,-0.7593357,-0.5230021,0.39350733,-0.22367054,-0.1957444,0.033316765,-0.20610487,
			-0.98007077,-0.39068902,0.93568534,0.21986702,-0.27264133,-0.5640673,0.59826535,-2.2850966,-0.13367702,-0.3188628,-0.0073213293,-0.31422108,0.02229153,-2.1073449,-0.49111468,0.25881818,-0.11696297,-0.03508766,-0.041031945,-0.16756606,
			0.15712075,-0.21194394,-0.24793029,-1.2084817,-0.01940652,-0.34721807,-0.15118694,0.40185216,-0.47065106,0.88855207,-0.22033542,-0.21681589,-0.9416342,-1.3616639,-0.5503414,-0.52460295,-0.14839806,0.18743779,-0.22684965,-0.021812152,
			0.41742906,0.08801234,-0.3872384,-1.6337005,0.47491142,-0.7539837,-0.38801473,0.3913319,-0.48229444,0.8625279,0.04456253,-0.22210371,-1.5741563,-0.24961302,-0.73040706,-0.70955235,-0.2461099,0.016914172,-0.641351,-0.07725707,
			0.20122124,-0.105419636,-0.3791488,-1.7883126,1.0294288,-0.667937,-0.31622505,0.05482535,-0.55432373,0.36238563,0.2624851,-0.57276595,-1.7773085,0.2889573,-0.64327145,-0.36352867,-0.17553294,-0.21710594,-0.4032744,0.037779886,
			-0.074433066,-0.09211067,0.019451058,-0.50662893,0.88586086,-0.23186821,-0.2548587,-0.5175114,-0.6122249,-0.022717662,0.011764424,-0.7263697,-1.9565778,0.199221,-0.28497168,-0.12392165,-0.093231976,-0.19597436,0.014681788,-0.1136527,
			-0.38937694,-0.10788171,0.4110617,0.12146855,1.0553759,-0.5157212,-0.2731654,-2.0591621,-0.5727289,-0.41778558,-0.31414554,-0.62090695,-1.815468,0.27635613,-0.5829532,0.06204457,0.0006358865,-0.31963834,0.23571798,-0.08766147,
			-0.69046295,0.043773632,0.8966605,0.31802934,0.4394735,-0.5839185,-0.060859673,-1.941112,-0.30955845,-0.3963898,-0.5185894,-0.4420535,-1.5976118,-0.16979451,-0.62899476,0.26335305,-0.06657682,-0.39818794,0.11779322,-0.14976434,
			-0.61712426,-0.15194762,0.9049124,0.35089442,-0.04434896,-0.31190348,0.1424742,-1.0352594,-0.28192285,-0.24326807,-0.3498784,-0.404007,-0.9698474,-1.3353332,-0.52273184,0.111557126,0.0010703189,-0.16773026,-0.10974165,-0.21184202;
