			0.09759381,-1.4728932,-1.0575272,-0.04684588,-0.9096853,-0.030450607,-0.67271334,-0.8797127,-0.119121194,0.03800028,-0.1529569,0.88667953,-0.1811691,-0.15345377,-0.7638367,0.19307081,-0.26164293,-0.5782427,-0.31157395,-0.025373152,
			-0.14494768,-0.24046236,-1.9601359,-0.113086954,-1.8968468,0.1761683,-0.6190685,-1.48571,-0.080835186,0.12628527,-0.42560837,0.9820118,-0.30892625,-0.25498927,-0.87027544,0.0931981,0.39420974,-0.5910381,-0.3996149,0.26067615,
			-0.3827061,0.27889946,-2.1801484,-0.14261319,-2.0213618,0.41025338,-0.4888219,-1.4941612,-0.16690433,0.13295233,-0.3021125,0.540915,-0.32299718,-0.20015423,-0.45731202,-0.42100108,0.94598866,-0.3860673,-0.545775,0.06683414,
			-0.29408893,0.1405889,-1.7980949,-0.1842477,-0.48869702,0.021370878,-0.025278304,-2.1703615,-0.19611016,0.08639785,-0.2221064,0.024964212,-0.042920522,-0.11348745,-0.094619565,-0.73350936,0.7308147,-0.008049783,-0.77916735,-0.09854338,
			-0.40055615,0.2304915,-2.1800487,-0.2558531,0.11101157,-0.8972926,0.14049806,-1.456551,-0.087618835,0.22600885,-0.19624631,-0.22969028,0.37590194,-0.14508602,0.06226837,-1.0243237,0.8091171,-0.50777924,-0.5692963,-0.46624818,
			-0.31114212,-0.31878507,-2.0072665,-0.2825529,0.53803325,-1.0302709,-0.10291892,-1.5010321,-0.31261507,0.22043304,-0.059835564,-0.30241668,0.9037656,-0.0808258,0.28816986,-0.8978072,0.4281776,-0.72143096,-0.22565633,-0.95043975,
			-0.21799602,-1.6196394,-1.0233048,-0.19519883,0.522417,-0.72031236,-0.3257989,-1.0402582,-0.11132973,0.03691566,-0.005227983,-0.26951596,1.0004023,0.03927592,0.05314968,-0.5776574,-0.15846588,-0.5797888,-0.21011843,-0.739876,
			0.5319159,-1.870438,-0.5109527,-0.25231054,-1.8054264,0.036551345,-0.41210908,-0.24749163,0.2421092,0.3912335,0.0280983,0.727723,-0.29707003,-0.38109946,-1.3062036,0.20288426,-0.43286112,-0.61708874,-0.35522896,-0.0038448768,
			0.09464913,-0.7411237,-1.0768964,-0.25049192,-2.1127858,-0.0077449842,0.08166605,-0.396926,0.29293457,0.36783975,-0.19042778,0.7771276,-0.41205016,-0.40849406,-1.1314766,0.16281326,-0.001506119,-0.5534409,-0.56863755,0.30673754,
			-0.35192668,0.118377365,-1.3909123,-0.28603378,-1.6124632,0.29619053,0.258631,-0.42509553,0.22216763,0.38842312,-0.16746321,0.48352847,-0.37268853,-0.4277751,-0.639733,-0.3714495,0.52612907,-0.4749419,-0.755272,0.06408126,
			-0.66969925,0.26119977,-1.6234056,-0.21912293,-0.46998724,0.32648876,0.2196758,-0.5126284,0.111987054,0.37847376,-0.071856335,0.17414524,-0.13085528,-0.2696702,-0.22035085,-0.9192322,0.7499402,-0.060954396,-0.88032037,-0.25929362,
			-0.5539647,0.063034445,-1.4032114,-0.37564412,0.06303914,0.073730715,0.064223245,-0.5168354,-0.023297936,0.45585588,0.09168585,-0.1472559,0.3511084,-0.26521578,0.111989394,-1.4227525,0.5408479,-0.57528454,-0.46126103,-0.6778652,
			-0.5202555,-0.86937934,-1.1718621,-0.3669437,0.40199998,-0.26303938,-0.3220133,-0.5264272,0.018036049,0.40184617,0.30518475,-0.24810259,0.8103256,-0.259663,0.39117983,-1.2875546,0.13262433,-0.6225582,-0.063607655,-1.2014155,
			-0.31187737,-2.204616,-0.48559374,-0.5154339,0.4355092,-1.0215312,-0.52427775,-0.14863218,0.09343993,0.4088777,0.64536375,-0.21582389,0.9927031,-0.19029585,0.09155252,-1.0867333,-0.33166587,-0.56309444,-0.08347445,-1.2913455,
			0.6956581,-2.0960894,-0.20491342,-0.17491327,-1.3825493,-0.47900942,-0.3302017,0.23881556,0.4890242,0.11796329,-0.09720108,0.18724054,-0.23090094,-0.3124182,-1.3857332,0.26195696,-0.40676668,-0.53885096,-0.6315762,-0.009074273,
			0.44063213,-0.8299379,-0.34377575,-0.2541963,-1.7791067,-0.4917087,0.24286963,0.1391306,0.5831248,0.23116602,-0.35410607,0.245677,-0.33252174,-0.4080956,-1.2373974,0.2654486,-0.1601561,-0.56307214,-0.86456645,0.3924329,
			-0.13310301,0.12474876,-0.42682734,-0.21387659,-0.8492819,-0.16123168,0.29983804,0.25945148,0.31910306,0.1659868,-0.33966058,0.2070749,-0.31209978,-0.41176766,-0.67710096,-0.038212266,0.12671514,-0.17063487,-0.95039093,0.094033055,
			-0.5365752,0.21190669,-0.6406086,-0.1812119,-0.08700964,0.15610063,0.039509743,0.3593555,-0.010765865,0.086819224,-0.10940322,0.06698778,-0.15320526,-0.1914461,-0.153309,-0.5165507,0.2120777,0.30703792,-0.6612138,-0.15961103,
			-0.65722895,0.08250195,-0.510544,-0.3558889,0.14993349,0.25579548,-0.31636283,0.19428284,-0.11940881,0.14937374,0.2847056,-0.052164882,0.14928061,-0.28394982,0.13142966,-1.1442676,0.10141525,-0.19693416,-0.16605031,-0.65708846,
			-0.47440678,-1.0124496,-0.43051267,-0.36772704,-0.031135447,-0.03164188,-0.710544,0.12344114,-0.20237276,0.20966685,0.70137894,-0.2514223,0.48702443,-0.19990799,0.4874122,-1.5315318,-0.12354081,-0.6032324,0.19739492,-1.239773,
			-0.39500746,-2.1444542,-0.17128767,-0.37707978,0.08682161,-0.76948225,-0.7198342,0.10006258,-0.022964066,0.22637936,0.93553287,-0.09526488,0.52567166,-0.09180633,0.06185832,-1.1982164,-0.5252154,-0.5724438,0.17373861,-1.3388723,
			0.41258457,-2.112368,0.06960293,-0.32780373,-0.7768778,-0.8101957,-0.10347459,0.017133439,0.55991167,0.04001866,-0.11102533,-0.055281006,-0.12064486,-0.02312672,-0.81706834,-0.063927054,-0.37532267,0.027550962,-0.7464629,0.04047301,
			0.55112255,-0.98390645,0.03333198,-0.256397,-0.8614187,-1.1131088,0.2554718,0.17707211,0.6053118,-0.045310818,-0.37546283,-0.2152472,-0.22137097,-0.14448209,-1.1654961,0.1819187,-0.19959585,-0.16517296,-1.015496,0.40995875,
			0.23240757,0.12773651,0.018618198,-0.10853755,-0.287104,-0.62305874,0.123160556,0.33726537,0.20892395,-0.11842483,-0.5061885,-0.22542551,-0.13426048,-0.16484317,-0.68870646,0.12527214,-0.23302309,0.18719923,-0.68423784,0.16047026,
			-0.1563492,0.10152535,-0.2164869,-0.10083673,-0.0044668866,-0.20645255,-0.27244747,0.46297544,-0.19477624,-0.31456095,-0.1618652,-0.098452605,-0.10703044,-0.09913036,-0.06098403,-0.17510708,-0.20591323,0.7467666,-0.29929432,-0.037401136,
			-0.40018225,0.08219025,-0.023245893,-0.18379378,-0.18216538,0.14579545,-0.6551582,0.3485777,-0.38178426,-0.1441514,0.32289335,-0.05309313,-0.06305487,-0.089625895,0.18407685,-0.59104717,-0.29695278,0.2296691,0.12307909,-0.6686218,
			-0.36989832,-1.0005383,-0.043280892,-0.17689696,-0.58984834,0.15698124,-1.0504375,0.2198242,-0.33629927,-0.12562291,0.791339,-0.17937113,0.11557566,-0.15019087,0.48830152,-1.1113734,-0.266398,-0.22116324,0.33430764,-1.1952862,
			-0.14692228,-2.1018505,0.05547343,-0.08413539,-0.517983,-0.07173271,-0.7598182,-0.025445212,-0.119398855,0.012339352,0.6739259,-0.18469305,0.18881403,-0.19774212,0.062240403,-0.80085033,-0.3346159,-0.11710537,0.003517362,-0.9298694,
			0.42637166,-2.1357331,0.2813936,-0.41770166,-0.054764263,-1.2501904,-0.019995328,-0.25904003,0.77986455,-0.06983237,-0.11723375,-0.31426653,-0.09062716,0.25415578,-1.1430763,-0.66559947,-0.36241028,-0.41483828,-0.68102854,0.13337502,
			0.4631048,-1.0167731,0.2806435,-0.36050618,-0.13321298,-1.4643071,0.21731424,-0.20303501,0.4699405,-0.4584208,-0.3462564,-0.3969385,-0.23431523,0.3461499,-1.1853948,-0.09152681,-0.2140774,-0.5890969,-0.6073533,0.49713546,
			0.34709322,0.112427846,0.25337204,-0.12359986,0.11013522,-1.2933851,-0.08279678,-0.09027772,-0.1445083,-0.5835447,-0.4929728,-0.38782835,-0.24753949,0.25388625,-0.6931287,0.16349916,-0.20400168,-0.13931985,-0.2780868,0.17332308,
			0.009573028,0.34988016,0.1933259,0.060450453,0.054000158,-0.6680205,-0.7143824,-0.014253382,-0.4243403,-0.77563405,-0.36660495,-0.17424399,-0.04772088,0.018994069,-0.18023954,0.14564653,-0.38841105,0.395493,0.027919943,-0.14172034,
			-0.09308383,0.18351434,0.27448305,0.21745862,-0.64287335,-0.1155456,-1.1061466,-0.024335954,-0.5834212,-0.5724182,0.02548861,-0.26021633,-0.112586215,-0.066120185,0.1712388,-0.20496263,-0.3118822,-0.13682003,0.30781135,-0.6411287,
			-0.23066865,-0.8905715,0.2642249,0.35806757,-1.3440332,0.20745747,-0.9178698,-0.08778562,-0.41613218,-0.5356304,0.60849786,-0.17234612,-0.1197754,-0.27620164,0.53230727,-0.51945746,-0.324901,-0.6306221,0.32164574,-1.275103,
			-0.028832525,-2.095501,0.28964862,0.27122703,-1.496285,0.235941,-0.5207238,0.02873743,-0.2210086,-0.35092893,0.91706514,-0.13785061,-0.12468543,-0.33900824,0.17719796,-0.47086567,-0.33960348,-0.5863243,-0.24225388,-1.4569315,
			0.21310706,-2.3288035,0.35609472,-0.5098062,0.36030096,-0.87339514,0.023521887,-0.5286877,0.5134667,-0.58499897,0.02046795,-0.25992358,-0.115263,0.8577878,-1.1185794,-0.953085,-0.4649658,-0.6223104,-0.2812537,0.16623776,
			0.2939033,-0.98841125,0.33008736,-0.38368863,0.32522374,-1.3662679,0.07861382,-1.1155097,0.0097847255,-0.86739933,-0.2272233,-0.4617226,-0.21838519,0.8937782,-1.0562084,-0.43498227,-0.04298043,-0.6502055,-0.25867245,0.502148,
			0.25022128,0.118753165,0.42949462,-0.100904435,0.2007878,-1.5943321,-0.4261999,-1.7932405,-0.3898684,-1.1335951,-0.36153817,-0.3985853,-0.15674978,0.56164306,-0.6798452,-0.12574778,-0.1958605,-0.44546956,0.04171701,0.22878075,
			0.17769961,0.41602066,0.4266357,0.19053805,-0.2329774,-1.0041802,-0.9030265,-2.878006,-0.6245207,-1.0991229,-0.43985808,-0.23504099,-0.033790663,0.23132041,-0.25726345,0.19167593,-0.34221634,0.2096512,0.2182802,-0.19096604,
			-0.018973388,0.20339711,0.46632484,0.5203838,-1.2978444,-0.50080746,-0.9514255,-1.8998051,-0.44509795,-1.0948944,-0.17768298,-0.28734532,-0.13645227,-0.09798616,0.16541122,0.18720774,-0.2705162,-0.42125195,0.26305073,-0.60717493,
			-0.05590647,-0.80297565,0.38150972,0.79094607,-1.8741398,0.033604186,-0.58090407,-1.1270636,-0.38323566,-0.92446524,0.18009943,-0.23301989,-0.20868692,-0.29617012,0.4885147,-0.05657765,-0.15172337,-0.62896883,0.0837122,-1.2090037,
			0.072653234,-1.8893338,0.45871276,0.80488616,-1.8262331,0.12607561,-0.24198811,-0.5171019,-0.24361664,-0.6421506,0.6747594,-0.1665995,-0.15832743,-0.3725914,0.20365433,-0.016936801,-0.55454165,-0.755226,-0.49153414,-1.5004255,
			0.06480801,-1.651191,-0.22141194,-0.3427422,0.4165969,-0.8170582,-0.03752461,-1.029683,-0.057151698,-0.56959647,-0.17558935,-0.18477435,0.00901107,0.93558484,-0.6734787,-0.57884204,-0.24123402,-0.69074255,-0.29373407,0.12045188,
			0.23262034,-0.43118957,-0.29459688,-0.28907016,0.60660064,-1.0150845,-0.06642907,-2.0562277,-0.31545708,-1.3500913,-0.38163054,-0.40634298,-0.14297627,0.97212595,-0.9150038,-0.8900873,0.12900928,-0.7475777,-0.095503174,0.43724513,
			0.14330651,0.33267698,-0.19007015,-0.10724479,0.27201772,-1.1737816,-0.460317,-4.092291,-0.55848765,-1.324622,-0.3915403,-0.39180273,-0.0064224857,0.59373426,-0.5307111,-0.74927026,-0.0008789807,-0.30223578,0.16395907,0.10904328,
			-0.018586848,0.21901806,-0.30471575,0.13638438,-0.23587982,-0.7850546,-0.7486917,-4.5687103,-0.42437503,-0.7169991,-0.31402442,-0.21489204,-0.14895147,0.21761891,-0.111618884,-0.046330314,-0.026100261,0.09193506,-0.07067476,-0.07364588,
			-0.020847961,0.37005296,-0.09138924,0.62130105,-1.6345876,-0.5329251,-0.7267002,-4.5006223,-0.53368115,-1.0794833,-0.37490922,-0.13801965,-0.14572807,-0.06275961,0.06406995,0.3178442,0.030537307,-0.22764978,-0.26853254,-0.383848,
			-0.2772437,-0.23131403,-0.19411437,0.9391864,-1.8741559,-0.09142313,-0.43472844,-2.4683971,-0.30925745,-1.2952788,-0.101004325,-0.11157807,-0.14255364,-0.29141143,0.40528,0.20124677,0.019391675,-0.6337791,-0.41025698,-0.8885831,
			-0.12936656,-1.4349738,-0.18184581,0.8145979,-0.8894488,0.03364058,-0.3723694,-1.104145,-0.23571752,-0.7007242,0.12576842,-0.0031287284,-0.15846494,-0.31271031,0.13914298,0.04935502,-0.22190289,-0.6451563,-0.48041025,-0.88253814;
