			-1.2548119,0.43245673,-0.8740439,-0.25279966,-0.6308891,-1.8057158,0.2197539,-0.23033504,-0.13929178,-0.54256684,-0.6512836,-0.15694752,-0.1389033,0.103988476,-0.048999663,-0.09260146,0.9950767,0.032991096,-1.1451385,-0.17303313,
			-1.766517,0.40314743,-1.9886125,-0.5031582,-0.49650535,-0.40197936,0.27470037,-0.35352466,-0.2186768,-0.6722647,-0.7746167,0.04010395,0.4127405,0.32856143,-0.11042145,-0.4288251,1.0481358,-0.18143012,-1.4684441,0.05705411,
			-1.8246932,0.13467357,-1.8172739,-0.4775467,-0.25176996,0.2616538,0.32947838,-0.34740984,-0.13776986,-0.43745765,-0.44147485,-0.16478173,0.98098475,0.037394088,-0.47978532,-0.36693862,0.49369007,-0.37199432,-1.9998828,0.21348052,
			-2.4678783,-0.5965161,-1.171846,-0.6485395,0.030117467,0.15930662,0.35319394,-0.0656982,-0.14577873,-0.014236362,-0.114524804,-0.25614232,0.83963925,-0.10244923,-0.5235462,-0.2883777,-0.045586564,-0.21251723,-0.52390754,0.029944295,
			-1.7327238,-1.9329412,-1.7639465,-0.6449393,0.117592484,0.29052144,0.4596689,0.3972676,-0.10051807,-0.49992695,0.094841674,-0.25581893,0.8764729,-0.43450972,-0.41419476,-0.33971164,-0.3419698,-0.29699495,0.27128518,-0.3905215,
			-1.5251045,-2.2137823,-2.078004,-0.23062031,-0.124996126,-0.32093734,0.34224164,0.89214116,-0.16637623,-0.70541286,0.3802356,-0.015431165,0.3886284,-0.9140205,-0.19044776,-0.19434747,-0.39951593,-0.39037678,0.6426644,-0.42588905,
			-1.135009,-1.5173681,-0.91437197,-0.17135045,-0.2998051,-1.6835037,0.10927688,0.9090532,-0.057811536,-0.52030843,0.13528407,-0.1932261,-0.16830298,-0.7005362,-0.18802713,-0.00083762023,-0.2823973,-0.10978511,0.57088625,-0.41189098,
			-0.104900986,0.45499408,-0.7189608,-0.37142918,-0.46889642,-2.5462255,0.34363008,-0.3341122,-0.19415542,-0.54807985,-1.1569842,-0.45348272,-0.3869625,0.17774023,0.044994306,0.07839967,0.9994122,0.59041846,-1.7994031,-0.2785378,
			-0.5157343,0.38102755,-1.2244158,-0.660037,0.198116,-1.0207075,0.40444323,-0.40438908,-0.29024485,-0.5673467,-0.98245955,-0.1953532,0.07136151,0.39683378,-0.06774947,-0.22566187,0.87334293,0.26634666,-1.6567487,-0.19654164,
			-0.5340438,0.13857737,-1.4038044,-0.8579759,0.3563244,0.114499174,0.47261176,-0.38752764,-0.25402778,-0.4506381,-0.6385109,-0.42347455,0.6067543,0.05236515,-0.4952782,-0.29246005,0.45916817,-0.047508225,-1.2603949,0.08459367,
			-0.58174753,-0.4053372,-1.4885149,-0.95609033,0.28300408,0.33171147,0.5037268,-0.12726428,-0.15861432,-0.01859858,-0.18841663,-0.51967925,0.85579574,-0.2463126,-0.83216906,-0.22078177,-0.073572814,-0.20771813,-0.37824413,0.22605485,
			-0.48450252,-1.2248333,-1.4607753,-0.5221364,0.045030512,0.14392643,0.5537092,0.4041949,-0.21134064,-0.5112607,0.14593332,-0.41239655,0.5504867,-0.66536605,-0.94078165,-0.11352208,-0.39274317,-0.2159462,0.17437595,0.24066879,
			-0.3986434,-1.9984415,-1.3085606,-0.012457136,-0.2484956,-0.96045613,0.4476639,0.80204576,-0.29497916,-0.55261177,0.4868153,-0.16599546,0.022197952,-1.1101801,-0.6419153,0.15870461,-0.46927407,-0.1324616,0.37343693,0.112795696,
			-0.05136848,-2.5284147,-0.59977037,-0.027081462,-0.37308604,-2.5081937,0.39722082,0.95178664,-0.22109719,-0.4929318,0.22320688,-0.45572314,-0.3750325,-1.1889997,-0.4253118,0.59004754,-0.33389133,0.050102852,0.42309535,-0.40027702,
			0.21693024,0.14332643,-0.29619017,-0.33536452,-0.3284269,-2.4569645,0.13676973,-0.19930343,-0.20273717,-0.48357916,-1.2372295,-0.3373136,-0.42570835,0.08932529,0.20055105,-0.15156356,0.48817968,1.0511396,-1.9196194,-0.64621377,
			0.16906829,0.06047803,-0.45631358,-0.9315823,0.38332504,-1.0812827,0.14137892,-0.35230657,-0.21655996,-0.47417808,-1.0737451,-0.38596216,-0.14464895,0.42190573,0.14134237,-0.36277175,0.47017673,0.7666029,-1.4021913,-0.63491815,
			0.25007546,0.19510573,-0.5291947,-0.9766769,0.35615832,0.12928438,0.12190454,-0.28637582,-0.20805112,-0.08525933,-0.6533518,-0.39036694,0.1976664,0.0596565,-0.20816001,-0.4556327,0.1571527,0.23804751,-0.6440465,-0.29174247,
			0.2712043,-0.011155766,-0.7435163,-0.798194,-0.0053902324,0.264888,0.10992493,-0.14046909,-0.06838249,0.40961638,-0.12147886,-0.51104504,0.29875782,-0.16435117,-0.6225934,-0.19469911,-0.11594672,-0.23146392,0.03607301,0.033835646,
			0.22028944,-0.555533,-0.5524292,-0.18285422,-0.33558893,0.1150833,0.1930809,0.20792939,-0.23720972,-0.08159153,0.13548961,-0.33159435,0.09777864,-0.6373199,-1.0376728,0.16919434,-0.3023708,-0.3650426,0.15997536,0.2514383,
			0.15416048,-1.2970257,-0.477393,0.24676766,-0.66544324,-1.1049069,0.24564202,0.49985477,-0.22980572,-0.5226703,0.5176502,-0.28887036,-0.22642393,-1.1197215,-1.1031572,0.67210597,-0.3465808,-0.34485313,-0.05543589,0.2607695,
			0.0990726,-2.4562283,-0.25152543,0.19554758,-0.64687806,-2.5281563,0.2528398,0.46674827,-0.13176353,-0.4880187,0.18262747,-0.34579095,-0.4720185,-1.0720556,-0.5665503,1.0536175,-0.20701486,-0.1923454,0.07327709,-0.2378593,
			0.015616874,-0.64080256,0.04340318,-0.65397155,0.024049481,-2.3780394,-0.004884237,-0.1469549,0.019401716,0.04630737,-0.7195298,-0.35105205,-0.31850398,0.19409302,0.035632554,-0.11620641,0.1094347,0.8307645,-0.8053881,-0.8748575,
			0.26530978,-0.5305827,-0.06427298,-1.0191706,0.36817244,-1.1227273,-0.20348427,-0.21857159,-0.009370895,-0.10733582,-1.0200261,-0.33628333,-0.24460907,0.46165782,0.26226407,-0.3820666,0.07805837,0.9089339,-0.6711734,-1.0582746,
			0.42005464,0.000670623,-0.12098176,-0.83908004,0.060084037,0.12886335,-0.23595378,-0.12544705,-0.033665083,0.2886343,-0.6610123,-0.22265254,-0.23113433,0.112267375,0.013706035,-0.488044,-0.042052194,0.32244408,-0.09981423,-0.7237717,
			0.38050017,0.08218983,-0.2874489,-0.38254392,-0.3483205,0.0927945,-0.31570503,-0.099663675,-0.09357339,0.8158673,0.017741583,-0.15524818,-0.16437803,-0.0055336347,-0.29614362,-0.15092184,-0.12832057,-0.15657541,0.05676507,-0.30063587,
			0.3610368,0.060267475,-0.09782531,0.10866927,-0.76996756,0.05414302,-0.18377791,-0.03171451,-0.09233883,0.32912335,0.14043055,-0.2121041,-0.27349266,-0.6648767,-0.7458665,0.34640485,-0.12777911,-0.4747138,-0.10823912,0.04902421,
			0.19765899,-0.44022956,-0.062344022,0.4187968,-0.9702408,-1.1859291,-0.11388415,0.07936492,-0.19854662,-0.16030218,0.49822757,-0.2063084,-0.2796496,-0.9904927,-1.0879375,0.8852406,-0.17190333,-0.40411645,-0.6751794,0.24769706,
			-0.024641793,-0.5766647,0.046257403,0.1455545,-0.6024903,-2.4965546,0.040877298,0.12342318,-0.20274931,-0.07637724,0.19380413,-0.19463758,-0.2880965,-0.7166652,-0.6933921,0.7626004,-0.14303298,-0.096519865,-0.80489343,0.022221925,
			0.042644653,-2.3660614,0.30334485,-0.7771342,0.12364881,-2.6045067,-0.2836737,-0.104286574,0.48524857,-0.37854928,-1.1833681,-0.3852097,-0.38175607,0.2232057,-0.10548499,-0.20884165,-0.1366342,1.0905974,0.051884234,-0.62971026,
			0.0393058,-1.3756936,0.2572061,-0.7646344,0.1860717,-1.0729163,-0.61600006,-0.22895986,0.49523777,-0.5206196,-1.1427164,-0.22412492,-0.23080118,0.52425116,0.25009242,-0.38260454,-0.18080725,0.69512856,-0.024841463,-1.0404041,
			0.10418561,-0.6958827,0.21728735,-0.36734095,-0.21027698,0.20049886,-0.61579555,-0.26126966,0.25429875,-0.0701073,-0.66422933,0.15821818,-0.29442012,0.12591678,0.28570187,-0.42890602,-0.14962739,0.10917484,0.16881183,-1.0480202,
			0.13289244,-0.041280746,0.14117658,0.02264275,-0.81311184,0.33463353,-0.80099344,-0.057703637,-0.08448119,0.4249952,-0.14321285,0.3477543,-0.48330423,-0.14214332,0.057429116,-0.2542146,-0.06864527,-0.25880918,0.051269833,-0.65495485,
			0.04328988,0.22376579,0.2595829,0.40530425,-0.99540806,0.15987757,-0.58182406,-0.14730093,-0.20284674,-0.10589476,0.094150536,0.28295904,-0.3453598,-0.6867528,-0.26795956,0.25263372,-0.16802384,-0.42163122,-0.6626967,-0.17861961,
			-0.09447075,0.11576574,0.2856158,0.4060512,-0.772509,-1.0313402,-0.5383437,-0.17381419,-0.27117604,-0.5466929,0.47724822,0.05598276,-0.2224682,-1.129425,-0.53983283,0.77842706,-0.10110888,-0.39700025,-1.4793378,0.1644442,
			0.029024968,0.18580379,0.31500596,-0.21967174,-0.27516836,-2.41514,-0.31473437,-0.1994637,-0.15282239,-0.51418966,0.19100109,-0.19275013,-0.24401145,-1.3152063,-0.5835252,1.0837382,-0.013189912,-0.20932558,-2.0663056,0.18300472,
			-0.33676854,-2.333139,0.45690766,-0.56015664,-0.07579997,-2.6018434,-0.6712905,-0.12206839,0.98031604,-0.565969,-1.1921065,-0.26963747,-0.42723474,0.25873414,-0.31890047,-0.054252766,-0.20078681,0.6458577,0.44582838,-0.58195233,
			-0.9829393,-1.9342809,0.45679402,-0.39557597,-0.056973774,-0.9587081,-1.043446,-0.21528128,0.8583954,-0.57464796,-1.0673031,0.018153138,-0.08639895,0.5205417,0.05903101,-0.2512406,-0.30067858,0.2625095,0.42951822,-0.7856058,
			-1.0949875,-1.3625511,0.50456685,0.012129238,-0.55837005,0.19412097,-1.1558628,-0.12925002,0.4365763,-0.5542211,-0.7079998,0.5889446,-0.30359957,0.18853284,0.23272485,-0.34656176,-0.22785343,-0.10314489,0.17851284,-1.0227492,
			-1.4446363,-0.43072173,0.50247693,0.29067743,-0.9631165,0.32696843,-0.9773758,-0.10057598,-0.08958341,-0.091296956,-0.23446134,0.9015852,-0.38701355,-0.15868405,0.2569886,-0.22451496,-0.042794365,-0.24550796,-0.40141386,-0.896791,
			-1.1795201,0.11720836,0.5178367,0.3424176,-0.79053843,0.15328328,-1.0973947,-0.24910085,-0.3379988,-0.5561202,0.07238652,0.6954171,-0.3400431,-0.71003485,0.12777357,0.14699805,-0.05790415,-0.20635526,-1.359719,-0.42649516,
			-0.92587936,0.22957917,0.44813693,0.1387476,-0.38866234,-0.8181106,-1.0719492,-0.35259652,-0.33460885,-0.5373859,0.41290462,0.32810226,-0.1332336,-1.1612288,-0.022662709,0.53137594,0.01097659,-0.27666473,-1.9105153,0.088894285,
			-0.37651297,0.34654266,0.44829655,-0.5482192,-0.1782629,-1.9828036,-0.9031346,-0.29214963,-0.18441266,-0.58457065,0.21727109,0.055143964,-0.48933473,-1.4453052,-0.07277157,0.8133248,0.16678347,-0.09610095,-2.1402926,0.1382201,
			-1.2991611,-1.6459811,-0.03771644,-0.36731145,-0.14579229,-1.6683798,-0.6145612,-0.019735055,0.86768436,-0.5812034,-0.74331206,-0.1120667,-0.23945335,0.1762185,-0.15679945,-0.2082292,-0.12372865,0.10978807,0.55909264,-0.46674794,
			-2.177518,-2.1909184,0.032425933,-0.20363414,-0.22039728,-0.280461,-1.3687733,-0.09312864,0.9107103,-0.7575676,-0.89417595,0.35441244,0.06732892,0.4458692,-0.38031733,-0.48977157,-0.27899992,-0.004339976,0.658322,-0.4978738,
			-2.6458902,-2.014127,0.10231788,0.106083915,-0.561698,0.3258915,-1.0880188,-0.01522483,0.39734632,-0.5816935,-0.47940126,0.87071383,-0.0878773,0.15922421,-0.28727332,-0.42315906,-0.22412588,-0.25448918,0.24864572,-0.6788934,
			-3.102432,-0.6084343,-0.069603786,0.054107625,-0.69824857,0.18919289,-0.52615994,-0.17709754,-0.045491956,-0.1835275,-0.14127132,0.7510063,-0.08057906,-0.06401113,0.08360118,-0.16696368,-0.107476994,-0.17247964,-0.4657078,-0.60438657,
			-2.6687443,0.121170215,0.057264317,-0.26365548,-0.55509853,0.3079358,-1.0678138,-0.25401556,-0.3595371,-0.5813712,0.057387676,0.96970105,-0.087730505,-0.50089556,0.23117235,-0.008625889,0.07686277,-0.31270987,-1.8619776,-0.4117833,
			-1.7433312,0.1949624,-0.05378218,-0.5369786,-0.25173214,-0.22803499,-1.5686824,-0.33540627,-0.29877558,-0.67679876,0.3307256,0.5330589,0.036721967,-1.0625455,0.19868253,0.28490627,0.20306882,-0.56248045,-1.8628441,0.0796614,
			-1.1488483,0.3277125,-0.025705958,-0.26828736,-0.1508806,-1.3809602,-0.8105696,-0.30537885,-0.21248752,-0.5494288,0.113300055,0.14880325,-0.1926783,-0.960512,-0.009279032,0.35821444,0.2873639,-0.26905066,-1.3233931,0.051818002;
