			-1.0795766,-0.73173803,0.9224379,-0.7530952,-0.6496523,0.019376323,0.0763445,-1.4742289,-0.9782608,-0.18939754,-0.27345008,-0.10521319,-0.037977714,0.23443927,0.10313517,-0.56919235,-0.19901787,0.16997951,0.34878466,-0.19257408,
			-2.4682338,-1.1317695,0.95204306,-0.52406037,-0.64763993,0.2937054,-0.14498772,-0.27237502,-1.1250274,-0.5034641,-0.41970578,-0.19934367,0.17208616,0.08506024,0.41754758,-0.6841343,-0.0205504,0.12511559,0.6861445,0.37241212,
			-2.3801594,-1.5369055,0.4304198,-0.09955006,-0.3589271,0.36828974,-0.3203583,0.16689956,-0.8730134,-0.4561329,-0.4808193,-0.06949706,0.021402173,-0.29614562,0.25918487,-0.42956236,-0.17737496,0.3717545,0.84292555,0.9576605,
			-1.7986974,-2.1578584,-0.12481006,-0.10612732,-0.12074769,-0.089597054,-0.19664288,0.16684157,0.065334775,-0.21819009,-0.2593083,-0.106792435,-0.047604907,-0.42804512,-0.060956407,0.015196733,-0.24209316,0.4357092,0.6333147,0.82308984,
			-2.540569,-1.0810897,-0.44132096,-0.804045,0.0077228183,-0.9435282,-0.1508821,0.5509004,0.41933596,-0.019892152,-0.44799414,-0.16606215,-0.49350756,-0.82104236,-0.17972264,-0.4398257,-0.18337032,0.3678765,0.41393033,0.8935658,
			-2.309425,-0.16344738,-0.48730013,-3.6331599,0.24124365,-1.2266741,-0.27947244,0.24172138,0.22070016,0.24043624,-0.7671598,-0.38077563,-1.1891798,-0.63067335,-0.50519884,-0.4917443,0.16571122,0.00038266575,-0.119850524,0.5830935,
			-1.2219794,0.013540016,-0.423463,-4.210889,0.046507847,-1.0425105,0.04059052,-0.8897706,0.02753735,0.29619107,-0.34608832,-0.23015277,-0.91895586,-0.24170783,-0.4998051,-0.2995386,-0.082215555,-0.14784119,-0.22032002,0.07336005,
			-0.8392358,0.17236517,0.94393915,-0.7764983,-0.91361785,-0.085000545,0.55892056,-2.343026,-1.0138094,-0.0740399,-0.3952208,-0.1913195,-0.27802914,0.34057814,0.47075862,-0.54427326,-0.43831384,0.10798891,0.6973771,-0.48226684,
			-1.3471372,-0.267688,0.8357544,-0.6161578,-0.66771096,-0.01782787,0.16880766,-0.8787482,-0.45944372,-0.32119447,-0.40803072,-0.31600577,0.17029803,0.18527246,0.56249934,-0.5411425,-0.18706396,0.19371124,1.0795119,-0.07376658,
			-1.5632005,-0.49383017,0.458892,-0.049238615,-0.48876888,0.18895328,-0.1748493,0.01919448,-0.044153057,-0.36828214,-0.46629903,-0.17293712,0.0798458,-0.30225292,0.2966177,-0.44951466,-0.40875393,0.46324036,1.3097306,0.55617964,
			-1.7647818,-0.5375946,-0.11378412,-0.01299799,-0.14498988,0.16945912,-0.25359976,0.2475101,0.24109791,-0.21195926,-0.34262007,-0.039119937,-0.18370438,-0.73421866,0.013633225,-0.00746002,-0.5291202,0.5758477,0.8170956,0.8637675,
			-1.6376915,-0.10487745,-0.39577493,-0.8439855,0.10267259,-0.03510503,-0.17250079,0.35379675,0.18635759,0.119442105,-0.58380985,-0.21739757,-0.66265184,-1.1927614,-0.2598025,-0.43960652,-0.385789,0.50004846,0.30850443,0.66159266,
			-1.3465217,0.43593436,-0.4937883,-3.5394182,0.37777564,-0.43883985,-0.1562528,-0.30080104,-0.08221213,0.46648124,-0.728187,-0.40024802,-1.4881909,-0.8868488,-0.50819767,-0.33671853,-0.07491159,0.23771769,-0.25824544,0.29348868,
			-0.6952923,0.8638126,-0.39765093,-4.998759,0.13079314,-1.0996046,0.15149425,-1.3610901,-0.07559963,0.74538374,-0.7815173,-0.38309947,-1.7676009,-0.6140954,-0.5611836,-0.19927108,-0.31230325,0.06516444,-0.30164897,-0.10444115,
			-0.25846618,0.027556768,0.43211,-0.39260727,-0.8790873,-0.5158355,0.9753342,-2.4066737,-0.75477976,-0.21493168,-0.44702652,-0.056497626,-0.27991992,0.39326918,0.4908886,-0.48168877,-0.35477024,-0.07229256,0.65061545,-0.52634597,
			-0.500136,0.196933,0.4777239,-0.54348963,-0.7794179,-0.5158636,0.6332848,-1.0204931,0.009619261,-0.41301844,-0.3267266,-0.23170884,0.20791876,0.30788082,0.6058089,-0.47831008,-0.32579026,-0.19150242,1.4394015,-0.33028242,
			-0.51588005,0.108230345,0.2065337,0.28422657,-0.54864967,-0.19445287,0.09744645,-0.0009964051,0.22050288,-0.44279376,-0.3095481,-0.21944623,0.17414457,-0.060260322,0.19572352,-0.07737209,-0.32274193,0.062081974,1.1985232,0.07400807,
			-0.62891096,0.20818059,-0.1288213,0.34728727,-0.11557849,0.064638145,-0.26430762,0.20398156,0.11700903,-0.1950668,-0.22357844,-0.003958973,-0.047805578,-0.50571984,-0.061565638,0.3867778,-0.50967133,0.16224797,0.5236468,0.3036233,
			-0.5211917,0.30042496,-0.27060637,-0.07589888,0.1411172,0.22085725,-0.40499935,0.21201617,-0.20612119,0.24766627,-0.40296292,-0.07127567,-0.64547175,-1.0406371,-0.28212374,-0.1199076,-0.40275952,0.16713108,-0.034185883,0.2079045,
			-0.45086858,0.4773056,-0.29483992,-1.407781,0.51315135,0.025306271,-0.37978703,-0.70693564,-0.59263086,0.7445249,-0.52724797,-0.22808929,-1.5934498,-1.2019027,-0.48715287,-0.45021752,-0.20661871,0.11679484,-0.3462728,0.012577632,
			-0.125074,0.41842043,-0.16155438,-1.6945395,0.16111924,-0.83310866,-0.1979135,-2.0687497,-0.47166276,1.0141293,-0.43921435,-0.23197508,-1.6126245,-0.7388151,-0.4927919,-0.42464665,-0.16977443,0.0780942,-0.391288,-0.24966362,
			0.0817855,-0.09840332,-0.0063908966,-0.5655791,-0.53180325,-0.8290345,0.80343175,-2.225547,-0.015827656,-0.11604336,-0.13630153,-0.18295816,-0.11725133,0.044496745,0.264466,0.039041586,-0.21290809,-0.21221212,0.7075462,-0.34958598,
			-0.07839699,0.15283619,0.008179968,-0.51573664,-0.7074017,-1.0376166,0.8567294,-1.1940122,0.32571566,-0.39158943,-0.05496479,-0.1641986,0.27360678,0.27873388,0.46440342,-0.11835422,-0.23757792,-0.506179,1.1047741,-0.34780258,
			-0.1299928,0.4135295,-0.08437968,0.25911736,-0.6398709,-0.63421607,0.2737932,0.040020294,0.15495902,-0.44231617,-0.04974245,-0.10515571,0.24254079,0.11493565,0.025864938,0.25233984,-0.17905037,-0.35942784,0.72411394,-0.28187084,
			-0.18133964,0.3284715,-0.12704131,0.38654545,-0.09766231,-0.22392337,-0.1634554,0.12611055,-0.22134516,-0.1553634,-0.04198962,-0.08993804,0.08944,-0.1846936,-0.23630528,0.8468325,-0.15792988,-0.22636878,0.22048554,-0.18388812,
			-0.07737366,0.35394162,-0.1274959,0.26324323,0.18387403,0.1676066,-0.45011452,0.08239606,-0.7256948,0.30171296,-0.15001687,-0.023080494,-0.78980976,-0.60204774,-0.3985663,0.307738,-0.29076228,-0.18054959,-0.16104361,-0.23820174,
			-0.04471321,0.09864077,-0.18834852,-0.25394565,0.57735026,0.29549924,-0.41824996,-1.070476,-1.0763516,0.841103,-0.3033604,0.04769015,-1.5761122,-0.92885655,-0.3532878,-0.16339082,-0.31566298,-0.15008911,-0.2522791,-0.20350663,
			0.09979774,-0.12759252,-0.18768722,-0.49522048,0.21764559,-0.0737684,-0.10766688,-2.1873407,-0.72130734,0.74405855,-0.24406378,0.014413112,-1.074157,-0.52058256,-0.26817563,-0.067127585,-0.2699359,0.0181158,0.053823743,-0.20054759,
			0.1885604,0.13606301,-0.20083652,-1.5979725,-0.90246654,-1.2744914,1.059844,-2.352052,0.43298075,-0.24355915,0.2649076,-0.12478432,-0.3400372,-0.54071903,0.14630154,-0.35000938,-0.13655238,-0.45994923,0.6155629,-0.32325172,
			0.21149847,6.0625785e-05,-0.24342148,-1.5278214,-0.95807475,-1.3659388,0.73897433,-1.0006351,0.33819166,-0.36129358,0.32582533,-0.28648534,0.2861214,0.07278599,0.20697407,-0.4868986,0.04834191,-0.6918298,0.61982447,-0.22838816,
			0.23836431,-0.108344086,-0.1411899,-0.023734115,-0.63975227,-1.0786221,0.20263606,0.086414866,-0.002194269,-0.41110817,0.191902,-0.25391394,0.2382258,0.23647675,-0.14084838,-0.1211772,0.3045727,-0.53749686,0.20710061,-0.39019433,
			0.20432538,0.09166514,-0.050764307,0.37329584,-0.14081962,-0.49472386,-0.23522606,0.26181665,-0.56069845,-0.24460226,-0.010105173,-0.13940594,-0.054086793,0.08782106,-0.273683,0.4118567,0.36824182,-1.0520431,-0.14110787,-0.4618746,
			0.32153058,-0.17920296,-0.251758,0.3972655,0.17268503,-0.0111500835,-0.43968943,0.051218703,-1.2254457,0.13972695,-0.20595029,0.1821387,-0.80101305,-0.16042534,-0.31579894,-0.10047275,0.13294615,-0.6390023,-0.23163499,-0.33182782,
			0.31444487,-0.24766544,-0.1884193,-0.069576696,0.5578124,0.3463557,-0.40904117,-1.0786564,-1.420291,0.63507855,-0.33771446,0.45308176,-1.5947418,-0.4349111,-0.45533195,-0.5556836,-0.20600101,-0.50253,0.040665545,-0.29133272,
			0.31732574,-0.15598324,-0.06957625,-0.10110959,0.23905069,0.3304569,-0.24467736,-2.4705205,-0.8843123,0.9491214,-0.27368125,0.5044879,-1.5902067,-0.36504528,-0.5593774,-0.5098393,-0.40654567,-0.13996565,0.7472948,-0.35632664,
			0.11082548,-0.10792024,-0.3158587,-3.7324834,-0.9629156,-1.04655,0.69810367,-1.9580264,0.26860854,0.068439424,0.7009773,-0.3248355,-0.5837479,-0.677415,-0.09408711,-0.42539763,0.090841115,-0.5462645,0.25559112,-0.44680122,
			0.1792437,-0.76737946,-0.37800473,-3.127742,-0.9286146,-1.1710148,0.44371355,-0.6627951,0.16229172,-0.20327501,0.66430366,-0.39249113,0.12488429,-0.24247803,-0.077016674,-0.43644702,0.34390143,-0.588738,0.16240965,-0.15481608,
			0.45723554,-1.3287708,-0.23544937,-0.8188423,-0.67139286,-1.2408795,0.118211314,0.2506949,-0.33287746,-0.19376494,0.36344633,-0.39062008,0.1845663,0.027260903,-0.30691376,-0.516711,0.7019232,-0.96958965,-0.16322999,-0.30158567,
			0.57986563,-1.9732676,-0.04912308,0.008140618,-0.2325499,-0.75452155,-0.17950667,0.3140478,-0.80461526,-0.22971033,0.0146038905,-0.16648364,-0.13481216,0.24315235,-0.33202744,-0.06867705,0.93892395,-1.0307176,-0.25285375,-0.38179988,
			0.56996703,-1.5770955,-0.12955739,0.05923394,0.112793006,-0.26619104,-0.31121448,0.11104192,-1.3903883,-0.10483283,-0.1639619,0.3944668,-0.7145109,0.25063142,-0.5314946,-0.54207885,0.5645064,-1.1147287,0.07346125,-0.30917957,
			0.47660846,-1.1953735,-0.20043354,-0.41675603,0.4490807,0.17589864,-0.27174243,-0.79949725,-1.2732916,0.17423894,-0.27401158,0.8033817,-1.3876936,0.09648957,-0.6300624,-0.57648784,-0.0075352876,-0.7234739,0.47267476,-0.16883253,
			0.45076072,-0.39503428,-0.10674867,-0.60839325,0.26805475,0.2657327,-0.08735689,-2.2896132,-0.8831525,0.537065,-0.26150438,0.9071769,-1.7529252,0.05811493,-0.650957,-0.57946455,-0.3562021,-0.5276431,0.8771217,-0.44299603,
			-0.4147773,-0.8138463,-0.2902076,-3.8138518,-0.62401843,-0.7133856,0.37230864,-1.221279,0.15489586,-0.13725612,0.5271654,-0.21223499,-0.19643119,-0.39522433,-0.21944001,-0.43252948,0.18640406,-0.3283168,-0.010902468,-0.21689068,
			-0.6095948,-1.4657506,-0.3757031,-3.496801,-0.70375013,-0.9338379,0.26161078,-0.12261135,0.03796626,-0.39704624,0.81822556,-0.32239065,0.064575545,-0.7785219,-0.2681252,-0.61819565,0.55646217,-0.79675204,-0.06780006,0.090476245,
			-0.25970986,-2.730507,-0.24166071,-1.0114818,-0.43228912,-1.0316554,0.01628739,0.4397087,-0.3641621,-0.18495591,0.42630583,-0.38868752,0.07326764,-0.6514518,-0.38533187,-0.5413999,0.9298738,-0.9998328,-0.29788056,-0.052809577,
			-0.28078368,-3.1893039,-0.16781196,-0.18633524,-0.14298889,-0.47992665,-0.11305062,0.24778348,-0.57687104,-0.22251096,-0.15588312,-0.08521556,-0.089900084,-0.011584861,-0.14053756,-0.15407403,0.76779854,-0.8858916,-0.005342624,-0.04506767,
			-0.11943933,-2.9501886,-0.026377875,-0.13640408,0.0019436277,-0.20052056,-0.38827634,0.32442948,-1.089805,-0.25610217,-0.2390989,0.3719275,-0.4852147,0.37313893,-0.3820267,-0.5456817,0.8851852,-1.1094996,0.7683909,-0.051850304,
			-0.22530267,-2.1173425,-0.09008683,-0.53451955,0.30308828,0.18092512,-0.44226775,-0.11517826,-1.0023855,-0.1304847,-0.27948016,0.90316993,-0.94739085,0.30436054,-0.6501359,-0.68421805,0.29256243,-1.1495143,0.894973,0.029370677,
			-0.11343962,-1.2225983,0.00672439,-0.57425034,0.09749029,0.15435281,-0.18967347,-1.3680267,-0.66713333,0.011779929,-0.3043321,0.8682658,-0.9228885,0.14085026,-0.65525234,-0.5668463,-0.11001711,-0.434217,0.60332376,-0.22519526;
