			-0.018540012,0.030114422,-0.0020006932,-0.017792078,0.032931507,0.03471266,-0.013559213,0.031002639,-0.23128216,-2.2490516,0.5991722,0.44812518,0.68774045,1.4211802,0.5117462,-0.8054585,-19.65846,
			0.064195976,-0.29960963,-0.13010803,-1.57507,0.07871229,-0.77200055,-1.4380281,-0.42455897,0.16233452,-2.4315045,-0.6437381,0.91947067,-9.078511,0.7789933,-0.43197575,2.1246493,-2.0718148,
			-0.047027,-0.051186137,-0.059248537,-0.046896856,-0.05109703,0.117740825,-0.071373686,0.07453218,-2.1170523,2.3499615,3.534245,6.373473,-0.23348649,-2.5857942,1.6723802,-0.33898696,-7.964443,
			-0.038132872,0.009646152,-0.021846501,-0.005698081,0.008726492,-0.1466241,-0.031042846,0.020712107,0.8312624,-0.6228588,-0.48820326,-8.836514,-0.34683323,2.6767476,1.8728546,0.1832476,-8.08721,
			-0.09605395,0.025236567,0.055567794,0.0003547996,0.06362298,0.21388687,-0.033334948,0.043505352,-0.08426489,16.29286,1.3296218,-5.6160765,-0.22834055,2.2137365,-4.9552274,0.21137987,6.3675504,
			0.0076208576,-0.023192255,0.0031950313,-0.25357,0.01592659,0.23092946,-0.2120229,-0.050017763,-0.33252513,22.275095,-0.43309173,2.8043668,2.2415187,-5.987887,-0.4439328,0.6819101,0.37174594,
			-0.08108047,-0.004668438,-0.07752809,-0.23136573,0.014567804,-0.6046118,-0.2537808,0.037988223,-0.5016481,18.54339,2.3925474,1.9022036,-3.3981397,-2.4071524,-0.46189678,3.2429972,4.794105,
			-0.009031256,0.027536148,-0.15809508,-0.07678087,-0.119687304,-0.7532702,-0.40427887,0.05939585,-0.13072036,-18.454103,1.1042435,5.097657,-3.9417427,3.306156,2.6464272,-1.7955519,4.022362,
			-0.04611515,-0.10890487,-0.014468444,-0.050592344,-0.054741032,-0.005601792,-0.01601528,-0.0060917824,-5.2663426,-8.3250265,3.7546158,2.9015706,0.63401186,-1.1873444,1.6633242,0.3655297,-0.6011025,
			-0.01935147,0.02326889,-0.116166875,-0.1993051,0.0010508728,0.03408608,-0.13004293,0.032237057,0.32213265,-10.966336,0.9304526,9.086519,1.2133504,-0.101497926,-6.3900576,-1.0807195,0.18229099,
			8.249555e-05,0.023656402,-0.047575876,-0.14768389,0.013045388,0.1271608,-0.10297854,0.02508942,-0.3932668,7.3986263,0.059924595,-11.230202,1.5205578,0.679741,0.16218796,0.16946337,0.61636454,
			-0.16278812,-0.21885617,-0.05468328,-0.18599993,-0.039675876,-0.049258508,-0.24739762,0.07314506,2.7151906,20.710388,-1.0335841,-3.118658,-1.5802735,-0.68820447,-0.018795023,3.084438,-1.9918118,
			0.24755959,-0.21555842,1.7010431,2.5352402,0.71270883,-0.050048485,3.0472653,-0.9498194,0.39861795,-30.514977,2.567375,1.9103923,-3.011183,0.85705304,3.061391,-1.7832894,10.620676,
			0.12798662,0.08310962,-0.18427542,-1.0072135,0.007641224,2.043875,-0.47722432,0.11862865,0.67100793,24.840399,0.36147836,0.91232675,-6.311067,1.15396,0.0074251746,1.4874235,-3.9978502,
			-0.056096047,0.025763806,0.010577153,-0.30910078,0.10266589,0.12324123,-0.22322921,0.109162144,-6.8151526,13.035885,-0.24559374,1.2112355,1.453577,1.1139065,-0.021447247,0.6598581,4.09632,
			-0.016829422,0.0022195578,0.00057811046,-0.052683532,-0.009112104,0.027271856,-0.020601822,-0.021066904,0.52168065,1.3608371,0.1097252,-1.0123099,0.69700974,-0.60075855,0.8589965,0.71459264,-17.879698,
			-0.018112227,-0.022796273,-0.010430849,-0.07899741,0.022715406,-0.14995329,-0.08597847,0.018145693,-0.019871702,37.108047,-0.12377116,-0.33759758,-0.1744312,-0.03772688,0.32018498,-1.2388886,1.4629197,
			-0.23201667,0.18036632,0.16853026,-0.1419558,0.11789777,0.50863683,-0.07386956,0.25318453,0.14491054,4.8943915,0.6514523,1.0251911,-10.008594,0.87717044,1.1175052,-0.7046251,0.80883753,
			-0.0282895,-0.0023476568,-0.020456262,-0.07816265,0.016512329,-0.03442808,-0.06548447,0.025690598,0.074865,-32.256687,0.1356105,0.04438926,0.1942602,-0.04805137,-0.048233688,0.69072485,-0.184796,
			0.012014085,0.008630005,-0.064528145,-0.285396,0.028756266,0.20958889,-0.18702011,0.03536634,-0.0030858996,26.870956,-0.054350935,-0.02636,2.6287289,0.056921665,0.21345922,-5.5172815,1.9894087,
			-0.17585918,0.025003735,-0.04969771,-0.06131252,0.08443056,0.058419254,-0.054747585,0.121476255,0.34494585,14.648457,-1.3409413,8.42773,0.104378104,-3.88003,0.28173175,-0.41955763,6.3879924,
			-0.1521062,0.014912373,-0.032823958,-0.11647697,-0.026102344,0.19346875,-0.07098178,0.1167758,0.25030676,-15.04866,-6.851016,-0.7710639,1.1352783,2.324538,1.3455874,0.46218866,3.070488;
