			-0.41006052,3.2088192,-0.36203584,-0.25924084,0.6964866,0.6285465,0.55854946,-3.906885,-0.08446196,-0.5281308,0.22558668,-1.4827142,-2.812531,-2.7431545,-0.2343066,-0.46474278,1.0274199,7.254437,1.6376064,0.04945078,1.152878,-0.24458978,
			0.74114174,1.6869125,2.1074114,0.23227936,-1.0328971,-0.61366916,0.06794225,1.5465326,-0.8020024,0.71283674,-4.183412,-1.7433167,-2.706576,2.6544235,1.699393,0.65670717,0.40564987,0.30905148,-4.471882,-1.549481,0.11366377,-2.1385627,
			-5.9443417,1.2749026,-2.4014401,0.7487178,-0.58792704,-0.5604309,-0.45312956,0.04636796,0.5765263,-1.3875378,0.37001786,-0.4044109,-1.1887007,3.223024,-1.8555748,-2.856994,-4.4281244,-0.20542528,2.5475228,-2.3879762,1.5060587,-0.6823359,
			0.36903194,1.5671352,0.8688486,0.29010224,0.81031823,-0.26500237,-1.0643942,-0.27549806,-1.943307,-0.7843376,0.9805738,-1.5317496,-1.4601487,2.6831791,-2.2860665,0.84696496,4.2632155,-0.08644612,-6.59526,0.49733165,-0.23084407,-6.5661507,
			-1.9250847,1.4619694,1.4965829,0.6624038,-0.34972158,-0.12315896,2.3732738,1.5900013,-0.10232454,-3.7202175,-0.9401613,-2.5637355,-2.013007,1.7427536,1.3688623,-2.275374,-7.1479197,-0.25764686,-0.18168773,-1.1531405,0.9604462,-2.81674,
			-2.2301702,-1.4526486,-0.53054756,1.5599297,0.4120314,-1.6560191,1.331926,1.2256652,-0.90243024,-1.3987362,-0.7517237,-3.0072973,-2.3576777,2.0555675,-0.02173344,-0.5760154,-1.6354556,-0.61619246,-0.4858162,0.987205,2.997955,-1.4551948,
			-3.5110075,1.6060283,-1.371015,0.3305498,2.9287872,-0.39064544,-0.911138,-5.6700053,-8.631165,1.8477057,-1.1738876,-0.35169268,-2.4203968,2.0770962,-0.3252731,-2.1253147,-0.22809917,0.65311176,-0.20595594,-2.1808624,-2.0414445,-1.4133863,
			-1.6132472,1.5780444,-0.21391727,-1.9203613,-0.64482087,-0.064330444,-7.1288652,0.47731933,1.5828571,-1.1707584,-0.6955259,-5.290792,-1.2541045,0.33065256,-0.45882443,-0.7492549,-0.8615495,0.08668574,8.278812,-1.763041,0.42839748,0.07836478,
			-1.1600242,0.96491927,-0.24200453,-0.31611213,-0.8223163,-2.577921,-0.15646039,3.739898,-0.3699557,-1.3411641,-2.145337,-0.6198424,-2.2285662,2.0399284,-1.1080519,-1.1996007,0.36117226,3.629817,1.8166611,0.9900245,-0.9862606,-0.9331662,
			-1.9834951,1.5536804,-1.3500315,-0.9021759,0.9230354,-0.16421637,1.2944695,1.6352304,-1.341162,-0.57262766,-1.0231959,0.13465899,-1.8182385,2.3958473,-1.3121078,-0.48118457,-1.6593184,0.6274084,-1.8303711,-3.1188717,0.657017,0.40332058,
			-5.6625857,1.706496,-2.2309482,-5.249145,0.22135673,1.5955343,0.99279,-1.1887965,-4.803409,0.35199508,-3.2225583,-4.7060432,0.021589536,2.1398463,0.7437427,-5.1861672,3.4008744,-0.28450206,-8.027562,-0.49444166,1.6333823,-0.063673325,
			2.6108048,1.2950739,-1.3118265,-1.5934601,0.25509444,-4.101726,-6.0890827,2.4712894,1.6378137,0.7995208,-2.0478208,-0.51828134,-2.23089,0.6871603,-0.12604018,-0.31475106,-3.1325765,-0.13761581,3.518357,0.89297915,0.13349007,0.9638501,
			-0.55085886,1.1407026,-0.43621653,2.9977767,-0.28742477,-0.18668905,-0.102159455,1.4866928,-0.2626275,0.034679838,-0.3031972,-0.8767441,-2.3260713,2.0439334,-0.761778,-4.9460044,0.11307575,-0.26747388,1.7939858,0.7812632,-12.370212,-1.7037563,
			0.17370401,0.35281017,1.3339529,-4.3776245,-13.336781,2.02331,0.29794154,0.77328104,-1.5984591,-1.938037,-2.3264542,-0.32976514,-1.8788851,1.7830269,-3.2314055,-0.71141565,0.1370863,0.7547572,1.1287247,1.3355069,0.41429397,0.2425625,
			-0.13718179,0.8324238,5.292348,-1.5873495,-0.9737897,0.76236826,0.72128725,-2.2986352,-3.1242266,-0.54823446,-2.4133556,-3.2543926,-2.141959,2.1122105,0.48512632,0.6007246,-1.8860711,0.22756094,1.4662342,-1.5729306,-2.182811,-4.155232,
			-0.1317164,3.6050763,-0.68675214,1.0635376,-0.43089786,-0.22279543,1.1168681,-0.48067763,0.287034,-1.8122741,1.2440158,-1.1200358,-0.9755484,3.171994,-0.7370061,0.67011327,-1.4423198,0.26256454,-6.046198,-4.722348,0.4595223,0.04416364,
			1.5982087,0.90050143,0.88629603,-2.1450698,-3.2393582,-1.7198226,0.10404052,2.165606,-0.99937165,-1.096643,-2.729192,-0.032591343,-1.8447894,2.7100835,-1.5178207,-1.4131968,0.3506407,-0.7056994,2.368842,0.8627155,-0.18947898,0.74777293,
			-1.9825237,0.91029435,-0.1417601,0.92539746,-0.051341016,0.40657318,2.9260113,0.17858055,-0.19874623,-1.6423014,0.9331721,-1.3117306,-1.162311,2.849523,-1.2070354,-0.18763234,1.7291259,-0.017733598,-3.1798205,-1.2272186,0.85326904,-1.6640022,
			-1.3216784,1.7988821,-2.6809566,-2.827641,0.37795246,-2.5212407,0.15326598,2.999613,-1.0441381,1.4195049,-2.355559,-1.1220237,-2.6332555,2.473701,0.041046597,-0.29504126,1.2746884,-0.26230672,-4.6698203,-0.47016165,-2.3313673,0.42769855,
			-0.63087255,1.3189877,3.125844,4.5127964,-1.861004,-1.9163098,-1.204519,-2.2251153,-1.6249757,-4.82663,0.11804408,-4.616037,-1.5449618,2.3860025,1.5788007,-1.4051449,1.6216475,-0.22890224,-6.158026,0.7217079,0.16984697,-1.6236937;
