			-0.29178163,0.27446875,-0.9369761,-3.601441,1.1705223,-2.2482233,-6.117128,-0.07323862,-4.194807,-4.3838,-2.541383,0.42153135,-1.0791229,-3.1387265,-0.4444792,-0.48740423,-5.3440566,-3.1662023,-2.482622,0.7714246,
			-1.1928562,0.8987136,-1.3429617,-2.7416086,1.9122554,0.98546124,-3.4969053,2.3033092,-0.8090906,-6.6208057,-4.5767894,1.3722022,-0.01453866,-2.7866933,-0.85759985,-1.4777728,-2.454748,-7.065672,-4.671163,-0.011682846,
			-0.58682454,-0.537993,-1.0084499,-2.5805204,1.353451,-0.22311544,-1.623622,4.0192246,0.7203525,-3.7518299,-5.178432,1.4459585,0.061128195,-2.2219915,0.20146184,-3.9216383,-0.32333726,-5.9883533,-2.795821,-1.3056664,
			0.43698636,-2.0834668,-0.026521394,-2.8709111,-0.057805732,-1.3345693,0.0139106475,3.3154397,0.7183145,-1.9747871,-4.3393316,1.0126663,0.13233913,-0.24016964,-0.5826322,-4.204757,0.016591586,-6.9041266,-0.32673514,-2.6256683,
			-0.97485304,-3.4189637,0.9607808,-2.459606,-1.8938397,-0.19833054,0.1980651,3.5201545,0.6975737,-0.37658107,-1.828706,1.8632869,-1.456817,0.07940468,-3.3099997,-2.9030411,0.18640906,-8.591885,-0.12400528,-4.917177,
			-1.6673392,-5.5063066,0.32283276,-0.8533449,-3.9637613,-0.060026832,-0.47886264,2.5617273,-2.8042562,0.61841744,0.056160033,1.3469948,-1.9968033,1.1196185,-5.2754207,0.6504828,0.55465174,-14.399461,0.29620624,-4.9167995,
			-0.93031,-5.561493,0.01769835,-4.102528,-3.6483748,-3.2062106,0.39548498,0.33404675,-5.9620934,0.3207951,0.70170635,-0.01649966,-3.3973792,0.9129184,-6.0707736,1.4530735,-0.79008263,-6.3341208,-0.6826949,-4.5312366,
			-0.78427124,-0.08422461,1.666161,-2.622931,1.2252957,-2.779567,-4.490242,-1.7618978,-5.3068066,-7.4423776,-3.135463,-2.5365813,-0.595,-2.8972797,-0.66683245,1.0248076,-9.929392,-0.4304272,-1.4304582,1.2380836,
			-0.7809982,0.61156523,1.0722839,-3.9654849,1.7442466,0.3826116,-2.0509248,-0.40102762,-1.9944512,-6.5157948,-4.57018,-0.040461037,0.95864636,-2.5626938,-0.9173609,-0.19733596,-4.0476837,-1.7287233,-3.6163762,0.6170319,
			-0.9893829,0.52036136,1.2008331,-3.1060107,1.7784433,0.0714338,-0.58717686,1.6393825,0.6709095,-2.5216842,-5.05974,0.2086082,0.44168386,-2.4586368,-0.21463665,-1.6750702,-0.901667,-2.533403,-2.895851,-1.4283806,
			0.2480565,-1.7926621,1.0980165,-3.5512042,1.3134472,-2.027899,0.47078833,2.0606878,0.834806,-0.3390342,-4.6780424,0.91958886,0.052248698,-0.41172016,0.41431698,-3.0054069,0.020561107,-3.5823977,-0.5376554,-3.3866773,
			-1.4110675,-3.7745168,1.100746,-2.8163116,0.31382692,-0.48211402,-0.16395657,1.5113584,0.3545706,0.7409287,-1.4298259,0.1974845,-1.6739849,0.5100879,-0.7820258,-0.61959493,0.5391269,-4.8421474,0.224386,-5.224088,
			-0.92478836,-5.341854,0.94111866,-3.6483092,-1.2221448,0.16682844,-0.65969956,0.49782947,-4.758349,1.045791,0.60896385,-0.61751914,-3.0992851,1.5014974,-2.7271488,0.4772732,0.16401774,-4.234282,0.26149917,-4.9606156,
			-0.8350436,-6.977436,1.4575597,-2.8729184,-3.230602,-3.0267534,0.52271795,-0.0055689514,-8.666404,0.76502013,0.66639733,-3.5488796,-4.933309,1.6390285,-5.728746,1.04378,-1.48248,-1.2648517,-0.93490344,-3.1279275,
			-0.2620227,-1.6409439,1.3427404,-1.1998987,0.19118044,-3.77428,-2.9776325,-3.1421418,-7.5515556,-2.281721,-3.432168,-1.3881031,-0.02498258,-1.6706287,-2.496313,1.6555986,-11.458256,0.29525265,-2.5745666,1.4605957,
			-0.8713848,-0.21688986,1.0784986,-2.0263991,0.43254036,1.092685,-0.49841845,-1.5393785,-2.7789488,-1.9996219,-5.058875,-0.89739424,1.0643115,-2.4351468,-3.18472,1.1490288,-4.715953,0.42075747,-4.3077955,1.2913431,
			-0.50653064,0.8606688,0.7408842,-2.181197,0.72568214,-0.025589973,0.51643944,-0.5190624,0.59301984,0.0036755488,-5.1760035,0.24219355,0.7139405,-1.9519695,-1.5740575,0.15576696,-1.5579003,0.4614122,-2.0683424,-0.31899476,
			0.7807103,0.11700766,0.20560163,-2.6343212,1.0444859,-1.8196688,0.17900716,-0.35642484,0.74727756,0.8304565,-2.7465909,0.35361546,-0.087920025,-0.63591266,-0.3397151,-0.011161993,0.1563008,-0.069528535,0.36881337,-2.6868913,
			-0.6271146,-1.8285363,-0.08717965,-2.3094113,0.77861154,-0.23502178,-0.47345495,-0.27544102,0.4721703,0.9087488,-0.11432813,-0.33262238,-2.367705,0.35655096,0.2518786,0.1897295,0.3364993,0.056363735,0.57774925,-5.260763,
			-0.9713718,-2.2662804,-0.107237294,-2.681538,0.44422194,0.4233541,-0.9061085,-0.5262255,-5.874115,1.1259958,1.1263078,-2.040321,-4.213488,1.8852397,-0.9488197,-0.0709636,-0.7611592,-0.25956634,-0.45182177,-5.402532,
			-0.79451865,-4.1603003,0.60284173,-1.4352041,-0.85489947,-2.6762602,0.1624691,-1.4805659,-12.214231,0.7913803,1.2838867,-2.013571,-6.366913,2.154684,-2.7896495,0.40034825,-4.0571613,-0.0822185,-3.3481724,-4.6321983,
			1.0747387,-5.305183,0.12175821,0.43747777,-0.7427041,-2.5380309,0.4727245,-1.9480183,-5.5675926,-0.24693634,-3.4413354,-1.4030304,0.36429393,-1.3863995,-3.3354697,1.1847792,-8.563685,0.15291154,-3.9660976,0.07652152,
			0.33619958,-1.9526336,0.64616644,-0.19068636,-1.5689563,1.3853652,1.1220777,-1.5742582,-3.2426965,0.20992218,-4.50668,-0.7493145,1.0167279,-2.0096867,-5.151996,1.1757685,-5.1322365,0.50083196,-3.2908697,1.1996164,
			0.49272326,0.36558703,-0.006156743,-0.6006951,-0.52466273,0.28000376,0.74079484,-0.8816834,0.6646685,0.7047108,-2.7993226,-0.87856096,0.6055697,-1.7909453,-3.5694978,0.75927836,-1.828651,0.7673078,-0.3366061,0.44977024,
			1.8749205,0.7520841,-0.8879412,-0.9460418,0.124316975,-1.954062,-0.20653087,-1.0500561,0.6866985,0.5811846,-0.81503713,-0.41349694,-0.3621426,-0.723313,-1.6534351,0.53235614,0.039105188,0.7160913,0.82086724,-1.1110674,
			0.503119,0.02616603,-1.3315147,-0.6444013,0.43174717,-0.04152369,-1.1281255,-0.5258624,0.5190951,0.6047939,0.790456,-1.6786665,-2.2024136,0.2609808,0.10838973,0.5766469,0.047814082,0.75922024,-0.16237101,-3.427607,
			0.32325467,-0.5840737,-1.8394963,-0.7179162,0.5279137,0.5256185,-1.6182157,-1.0968684,-6.6067214,0.17961627,1.1024041,-1.6974036,-3.955109,1.5913959,0.45209783,0.5283298,-1.0877157,0.65160733,-3.0688322,-5.6714225,
			0.76355326,-2.5803976,-1.383676,-0.07092955,0.10590912,-2.1654015,-1.4762985,-1.1052862,-10.378798,-0.28399092,-0.103339836,-2.4143765,-5.079208,1.719625,-0.3577923,0.7425416,-3.759644,0.45569783,-3.6170402,-4.4542427,
			-0.51583636,-6.84957,0.33070317,0.8908848,-2.7196517,-2.5550697,2.8932207,-2.5470617,-7.59998,0.2937682,-1.9841082,-2.149698,-0.33663094,-2.9382753,-5.657889,1.0518682,-5.397731,0.16568348,-3.3791912,-1.4154861,
			-1.1187176,-3.7939937,-0.24425958,1.1487515,-2.6731386,1.1508368,2.0163648,-1.4192786,-3.529957,1.2036921,-2.1199996,-0.8768172,1.054612,-2.1046371,-6.047287,-0.023008721,-4.14529,0.2499555,-0.9188285,0.07388761,
			-0.49506268,-0.5702461,-0.75417477,0.7316586,-2.7813008,-0.105124354,0.56150925,-0.8423536,0.55536264,0.9299354,-0.5625385,-0.19332477,0.554621,-1.5957386,-5.586016,-0.325846,-1.4726142,0.76565534,0.83464164,1.0741805,
			1.128595,0.60603696,-2.0786533,0.58316445,-1.5204833,-1.4036852,-1.055395,-1.8750181,0.83739984,0.01649969,0.77460724,-0.21217056,-0.17850336,-0.45840153,-2.9230022,-0.19959036,0.11259485,0.830336,0.93136024,0.44389677,
			-0.627068,0.86123496,-3.3770998,0.5171253,-0.525355,-0.2947989,-2.132486,-1.1612011,0.531809,-0.83631736,1.2193305,-0.56567967,-1.9054325,0.23168862,-0.7479695,0.42249122,0.43979827,0.83083695,-0.96569663,-1.2475127,
			-1.091602,0.68113035,-3.4176965,0.46058834,-0.33461425,0.27187327,-2.648929,-0.82959384,-4.73912,-1.4808303,0.34865338,-1.6722815,-3.6976197,1.4668032,0.5683035,0.4282034,-0.61904687,0.814198,-4.8644047,-2.9599073,
			-0.43746796,-0.6556052,-2.2572358,0.5348876,-0.30519858,-3.745778,-2.6987505,-1.3198359,-11.0606575,-1.6395242,-2.1441777,-2.686206,-6.7851105,1.383661,1.3090525,1.2853101,-5.013046,0.47372448,-3.559748,-2.7536142,
			-1.1676902,-5.9486704,-0.16306908,1.4040958,-3.2685473,-1.6727284,3.2481198,-2.1625028,-7.53491,0.7093526,-0.51385254,-2.4584181,-0.8864491,-1.8224145,-6.020835,-0.83496016,-4.2027926,-0.32842496,-1.2310631,-3.7616172,
			-1.1007792,-4.374827,-1.3588051,1.9133426,-3.79435,0.6704208,2.177933,-0.61087596,-3.9085255,1.2437377,-0.21020436,-0.10717462,0.9737142,-1.6436831,-6.5943756,-2.2135646,-2.8910685,-0.9148229,0.57499486,-1.7313732,
			-1.0072018,-1.0600586,-1.2754472,1.7122974,-3.924227,-0.08932525,0.4850304,-0.54441524,0.51974714,-0.22497343,0.85673237,-0.79095966,0.5661112,-1.6492468,-5.5678926,-4.29869,-1.1662636,-0.49138734,1.4124137,0.08758765,
			0.75826824,-0.25024885,-2.5845256,1.5488561,-2.8126383,-1.0498977,-1.7465641,-1.2738965,0.81714004,-2.7374537,1.1281204,0.21168387,-0.22607592,-0.23337159,-4.080774,-3.7399287,0.1532778,-0.14842638,0.79583424,0.91138667,
			-1.045346,0.851742,-3.4284837,1.6927016,-2.308576,-0.57400876,-3.057131,-0.6260867,0.18711998,-4.271025,0.34628338,-0.5346593,-1.7839406,0.4860565,-1.7299377,-1.3901368,0.67434585,-0.5611118,-1.2065074,0.4788871,
			-1.1746306,1.1942295,-3.7309413,1.6512502,-1.3577819,-0.32464924,-3.4117713,-0.629884,-3.9721391,-6.687993,-1.3735324,-0.22009414,-3.774341,1.067986,-0.15314655,0.8203515,0.017174272,-0.7478771,-3.9463263,-1.5099084,
			-0.89121574,0.65196186,-1.2622188,1.2525831,-1.4576288,-3.515688,-4.359537,-1.5067686,-6.9735646,-7.0875344,-3.4019933,-3.0385056,-5.717141,0.5641513,0.9496826,1.3671135,-2.9912522,-0.34024227,-4.7222066,-1.7561625,
			-1.0125717,-5.255328,-1.3776405,0.74167,-3.2149384,-1.845681,2.64963,-1.8939981,-5.18556,0.5528392,0.009744874,0.09504802,-0.9172525,-1.8876836,-6.6821027,-1.8186089,-2.797598,-3.3918552,-0.24621989,-4.136963,
			-1.4536257,-2.704415,-1.8213236,1.7648469,-4.5862393,0.8181033,1.9274919,0.3435519,-2.9012318,0.11895394,0.5243072,0.8384651,0.9013266,-1.2360606,-8.839191,-3.5801384,-1.5265496,-7.8122444,1.4251826,-3.3730571,
			-0.28656802,-0.23327373,-1.046783,1.5938654,-4.775611,-0.12834217,-0.046450127,-0.5247809,0.6580202,-2.0892315,1.1427597,0.93612397,0.4260001,-1.2728226,-6.0897117,-7.5038266,-0.94351727,-7.881097,1.424,-2.3232255,
			0.9417593,-1.2139117,-1.9854376,1.3090432,-1.5469253,-1.3145971,-1.494732,-0.76095575,0.5829076,-3.4679995,-0.30623403,0.6509469,0.10364334,0.15499052,-3.505334,-7.2273927,0.016919931,-3.8699868,0.37661368,-0.1304999,
			-0.3977246,0.298012,-3.3502574,1.9513856,-1.3480015,-1.5389528,-3.4031103,-0.6119381,0.28452262,-5.1434917,-1.6241844,1.3421347,-1.1827487,0.60775644,-2.0495377,-3.9091134,0.3772929,-7.0957303,-1.9928336,0.5637926,
			-1.5445112,1.0357147,-4.6378818,1.9682336,-1.6713759,-0.9083913,-4.407014,0.1997154,-2.3902218,-6.4077597,-3.1946194,1.3286289,-2.6544454,0.691489,-0.61477983,0.48518854,0.24433094,-8.709627,-4.837272,-0.53733885,
			-0.74393886,0.9051771,-3.0676432,0.6618675,-1.446459,-3.452983,-5.3200593,-1.0060431,-5.2873287,-4.383004,-4.2582135,0.17148574,-3.8791962,-0.09824875,-0.09902737,0.9324896,-1.1720462,-4.293177,-4.344808,-1.0895149;
