			0.18592665,0.050830428,-0.07249886,-1.3900944,-0.09517275,-1.2067714,-0.041380093,-1.2074065,-0.21971251,1.4717226,-2.3181894,12.742357,-5.650911,-0.72402555,2.2396522,0.50516766,0.4883387,
			0.011564296,-0.17227088,-0.089461245,-0.018869784,-0.18268275,-0.024106452,-0.13614005,0.021639362,-4.0467587,0.92082196,5.512034,3.7360861,-1.4804018,-1.843318,3.2546897,0.7412996,-4.1770954,
			-0.023148403,-0.025984135,-0.007886471,-0.094046056,-0.014957507,-0.0920587,-0.018787524,-0.06380629,0.0067236363,-1.1492474,5.297972,6.291734,0.24512258,-1.8072655,-8.181622,0.87033266,0.55664945,
			-0.018292358,0.11812777,0.045060694,-0.023584215,0.110466406,-0.022290373,0.05085117,0.09577849,-7.401771,1.9288156,0.40374503,10.205372,-0.48223287,0.34418356,-0.309653,1.1273568,0.9453637,
			-0.08280922,0.001615276,0.0152885495,0.3612019,-0.01223628,0.36635253,-0.039709795,-0.030220661,0.3376579,2.460987,-0.88638985,-12.556729,1.6802588,-0.4065778,4.9270782,-3.8856428,1.3698409,
			0.087589934,-0.005312434,0.1639616,-2.319361,-0.03249902,-1.8625461,0.21311969,0.5041432,1.7129346,1.4301392,1.8259013,-7.018865,-8.249495,0.91340077,0.09149195,2.9989061,0.05028558,
			-0.007805846,0.044238273,-0.0054400857,-0.013594543,0.04344955,-0.026042566,0.0034787273,0.056838293,0.7831042,-1.0102187,0.6049978,-4.0577426,-6.3893456,-0.92615473,0.78808707,10.064391,0.56165165,
			0.38962415,-0.06041372,-0.19101377,-0.12828687,-0.10123548,-0.3430635,-0.010100985,-1.3386487,0.39008644,-7.2059703,0.97480446,2.715451,7.1148195,-0.41244268,-1.5539044,-4.225459,-0.14789557,
			0.029971376,0.0420257,0.14692311,-0.3089768,-0.018250154,-0.20681356,0.092947535,0.28800982,-0.88749397,8.7072735,0.5589752,5.329142,-2.6722014,-0.6955477,-1.4336157,-5.6326437,1.6459283,
			0.4344911,-0.008109049,0.28117427,-0.43860483,-0.2753243,-0.19538686,0.117628396,-2.3857803,-1.6307418,3.393296,-1.574922,-5.191776,3.2637253,-3.0218544,-3.0789607,5.100597,-2.6188996,
			-0.07595638,0.0733855,0.05592813,-0.12796502,0.030248312,-0.046295974,0.101941064,0.4828705,3.1289303,-0.9003223,-0.6063719,-7.1378713,-0.710313,3.513034,1.5872725,2.2249405,-7.2828145,
			0.042466577,0.026658842,-0.0050635026,-0.07368206,0.05672694,-0.09246797,-0.014746637,0.02214862,0.35287756,-0.26626524,0.4255901,-17.071306,2.485126,0.8842477,0.18347394,-0.26702666,0.21915227,
			-0.011521581,0.04926913,0.16581285,-0.4244204,0.08572035,-0.28085864,0.071047634,0.17844859,0.20917179,-10.628515,-0.45712662,-2.78607,2.9284592,0.6355726,1.505978,4.5470867,-0.11762299,
			0.064773135,-0.00443957,0.01392203,-0.1288666,-0.017077211,-0.17413831,0.018477343,-0.7522372,0.8561385,0.23793936,-1.078034,-13.243783,-1.2786676,5.043036,1.0078355,0.71318907,-1.5667467,
			0.003578102,0.013232527,0.10507761,0.041155607,-0.0072310427,0.07849785,0.15361288,0.19226287,2.7654412,0.29077938,-6.36898,1.1038983,-1.1087587,4.1121054,-3.7507453,1.574811,1.9405968,
			-0.011862012,-0.0294934,0.0005047042,0.027457178,-0.015901526,0.020991739,0.04155749,-0.008065123,-3.7757976,4.505695,-4.1789675,4.320564,5.261183,0.09928104,-2.663603,-0.017096298,-4.4451075,
			-0.044350207,0.008583239,0.040410772,-0.28378448,0.051025067,-0.26798335,0.0010709286,-0.115332425,-0.12790841,2.73325,0.17404442,-8.266786,-9.037417,2.3934662,-1.742313,-2.0138538,0.8475543,
			-0.036304332,-0.014353035,0.2065588,0.11317298,-0.046694778,0.07489355,0.19774641,0.24012165,0.5780645,-5.5280466,0.95562774,1.0698215,-2.4838433,-0.81521326,-1.6364292,9.949426,-0.75342685,
			-0.09394325,-0.2543682,0.32862857,-3.69032,-0.09003432,-3.0182939,0.3688485,1.0447061,-1.2049898,4.410139,-4.9554477,2.101372,-5.273918,3.2446556,0.14111765,1.1204422,-1.413618,
			-0.0032531454,-0.0442053,0.02484002,-0.010396348,0.03285,-0.106091484,0.027648902,-0.029922035,0.31104502,-0.29197502,0.39166707,12.736849,1.6598153,-6.4316616,0.26083532,-0.78230983,0.82591254,
			0.17910543,0.088280946,0.44837034,-0.3023877,0.14300436,-0.17107412,0.4236584,-0.03974955,0.2609954,1.0253787,-0.5092375,4.782326,-9.82227,-1.272609,1.1201237,0.53968513,-0.71475804,
			-0.027906729,0.18769878,0.36285824,-0.5294318,0.14257495,-0.33168724,0.13647453,0.106186986,0.8109921,-2.8219426,2.031701,12.730496,-2.7702966,-0.673152,2.2511537,-2.8046265,1.4583559;
