			-2.8291495,-5.6439276,-1.1947722,-1.02618,-1.7960911,3.649638,-0.42441034,-0.8368099,-1.677833,-0.553075,0.75576276,0.33122233,0.8195472,-0.61363536,0.2733862,-1.3140335,-0.47396702,-1.4334866,-1.43912,-16.87378,0.28857118,-1.6361146,
			-0.0917092,0.033933245,-0.55096596,0.057799246,-0.25903755,1.3420215,-0.61862636,-1.1497607,1.1395394,-0.7796658,-2.0511262,-1.1626798,0.07174651,1.9058952,-1.0078789,2.4090197,-0.036838952,0.6471882,-0.6282867,-1.1863978,-2.1145978,0.16007799,
			2.2428272,1.9508157,-1.51261,-1.3935105,-3.177151,1.1166413,-1.4357405,-1.0177181,1.0036637,-0.67628574,1.6444912,-1.3796405,-0.35386905,-2.3676984,-7.105437,2.2445734,0.11853684,-0.2163164,-1.5551001,0.1557422,-1.4548529,-2.9448621,
			1.6214192,1.1743013,-1.839613,-0.2560339,0.2327526,1.180648,-2.3094625,-1.8466079,0.7297012,-1.2698613,1.0748074,0.34491622,-1.6346111,1.997642,-5.6937637,1.302053,-0.46615687,-0.98843896,-0.77669734,-0.18577355,0.49830186,-1.4008778,
			3.5084186,-3.6762254,-8.065053,-2.4082077,-0.4080026,0.8559107,-0.11717805,-1.833784,-0.70463365,-1.1039681,-1.0365233,-0.22432704,0.21353018,-0.69850326,0.2663475,0.56022847,-0.4836237,-0.30661467,-0.7107624,-0.20657277,-1.0541713,-2.2557251,
			1.5343072,0.12630324,-0.5810063,-0.8805792,-0.72698766,0.26816243,-0.50677186,0.032303967,1.1163478,-1.7438018,-1.2634236,-3.5372994,-0.0408122,-2.4405527,-0.92859685,-6.1717486,0.22411901,0.865154,-0.1801726,0.43048576,-0.26022482,0.2436924,
			0.4300359,0.4830837,-1.4541208,-1.0776098,-1.6144713,2.5486443,-1.0108258,-3.0840683,-2.7654088,-0.4746788,-2.6248133,0.8160194,0.5856438,0.16724898,-1.5303699,-1.7665696,-0.0018165172,1.5479187,-1.4661403,0.6336919,-1.0775256,-0.4402499,
			0.64950037,0.8297736,-0.7958053,1.824469,-1.6401207,1.9264187,0.45919448,-1.280358,-3.2725291,-0.53695476,-1.3460798,-0.63572925,0.40104324,0.39282078,-4.2929773,2.4908693,-0.0987993,-1.9040482,-1.1293474,-1.6438259,2.2011793,-0.8735522,
			2.9990745,0.031175487,-0.95349395,-0.9207198,-1.7205019,1.123503,-0.6747111,-0.30541936,1.130022,-2.672467,-0.09457616,-1.3917133,0.025704509,0.16849469,-0.5969023,-3.3767736,0.25740972,0.39561814,-2.0167217,-2.6237757,0.27723148,2.6853197,
			0.61540544,2.1252778,-1.8915098,-0.26758236,-1.2536385,1.2222949,0.38957745,-0.79840255,0.5247517,-0.8607996,-0.56311435,-0.97821164,-0.5847843,0.26285318,-1.4812517,2.167432,0.8114404,-0.23124401,-0.9905807,-0.70628065,1.3837917,1.2136947,
			-0.15636809,-0.47253734,-1.3207313,-3.4819877,-0.07716959,2.302889,-1.795898,-2.5022488,2.4874218,0.119625546,-1.5738018,0.33055466,-0.11303001,-0.4968293,-0.8489981,-0.043402474,-4.7369113,-1.1520895,-1.1010838,0.5501283,-0.6365213,-1.0748475,
			0.57426786,-4.307995,1.8686057,-1.2531286,-2.4788554,2.2028742,-2.9222643,-1.4423846,0.5184173,-0.34528926,-1.392106,-0.091703184,-0.84426796,-0.109269544,1.0388538,3.413953,-0.16029106,-0.002295933,-1.2864581,-1.3425376,1.4230672,-4.959633,
			1.1575273,0.060242563,-0.53514105,-1.0101459,-0.33509815,2.2058964,1.2955623,-2.9751105,1.5111872,-0.21354888,-0.16995047,0.25673226,-1.9093872,0.07259094,-0.8697223,-3.8038878,-0.015540096,-1.4806176,-1.2693521,0.26330784,-0.24697646,-1.2554328,
			0.8346176,-1.986675,-0.44013873,-1.4385762,-1.8312926,1.0696176,1.9877687,-0.89600134,0.9722627,-1.0607768,-1.1678545,-1.3370975,-1.9445393,-0.380954,0.92029566,1.4485005,0.9291835,-1.9633614,-0.67701834,-0.5086162,0.9544762,-0.38874787,
			2.6370928,1.2208093,-1.0364219,-0.36402103,-2.1967661,3.5171819,-1.6145258,-0.38836703,-1.0812497,-1.2975813,-1.0154755,-1.304122,1.8637266,-0.084848695,0.32379282,-1.6037627,0.5970853,-1.5358298,-3.3817205,-0.6824745,1.105167,-2.2187335,
			1.3434954,0.10740171,-0.45814717,-0.45205504,-1.2640154,1.9290172,3.0232193,-1.0696752,-1.2560768,0.12355952,-0.42054278,0.02335043,-1.9746625,0.29531723,-0.68021625,-0.53663164,0.13618553,-1.8076216,-1.0545604,-0.02491394,1.158968,-0.89686084,
			0.49473,-2.19051,-0.16198589,-2.590602,-1.2616059,1.5481366,1.1816149,-0.98862183,-3.6943944,-0.45883706,-0.12636104,-0.6994935,0.34778976,1.2045457,0.8464913,1.4751714,0.1856528,-1.3597662,-0.86622214,0.14065918,1.0390506,-0.48097315,
			1.0575246,-0.23417875,-1.4262922,-1.2909005,-0.8889527,2.3047733,-0.66611946,-0.29191753,0.15410076,-0.22326902,-1.1181155,0.86880994,-0.4973577,0.021540344,-1.6278338,1.0116777,0.33237603,-0.6081951,-2.0295553,0.38086638,0.67383784,-1.0696999,
			-1.381032,-0.32073462,-0.9685657,-0.96707326,-1.0529803,2.8752546,-1.3411808,-0.53811246,0.056145154,-2.276415,-2.628213,-0.20020442,0.2617675,2.867221,-1.9729856,-2.7606869,-1.7365714,0.51321286,-1.104289,-3.4646597,0.09635772,-2.7442129,
			0.36777198,0.19505216,-0.16377507,-0.30800354,-1.07734,2.588417,-6.6100283,0.029048063,0.35108817,-0.64318746,0.650933,-0.662746,-2.460575,-0.539264,0.28425688,-0.3104256,-0.031514116,-11.131396,-1.2061683,-0.24273562,0.96679604,-0.5554509;
