			-1.3014746,0.029216284,0.2248684,0.50337756,-0.20465454,-3.6797764,-0.12565683,1.8548716,-4.0356946,-0.482317,2.7881584,-2.495933,-2.2437596,-6.684232,0.57634175,-0.5877378,-6.182096,0.1648141,-0.73744684,-0.31397715,
			-1.5478384,0.2644356,0.31675276,0.3150434,-0.9020734,-1.0879819,-0.45694014,2.144697,-1.1638306,-0.40546805,2.103459,-1.8370132,-4.2386055,-7.142146,0.52339435,-2.0816617,-3.0924563,0.9562454,0.70442176,-0.2790153,
			-1.8123739,0.39070848,0.14563495,-0.8679044,-1.4775022,-0.83699757,0.08437795,0.96338975,0.09993363,0.4450428,-0.007885537,-1.558121,-5.8497424,-4.8003597,1.4274087,-3.1866822,-0.7893535,0.3225239,0.52341473,-0.6354422,
			-1.9284157,-0.1672374,-0.43785608,-0.91103643,-0.69098455,-0.42940107,0.41697982,-0.7288682,0.63347924,-0.40322617,-0.84183633,-0.8835738,-8.443902,-1.2586488,1.5262642,-1.5872936,0.059708755,-0.83839417,-0.3645506,-1.0157716,
			-1.7263408,-1.1643997,-0.9623983,-2.5838327,0.8382459,0.49030682,-0.3017527,-1.8676748,0.64411986,-0.9564612,1.1191771,0.39409798,-5.6760955,-0.5000153,1.2837819,-2.9469626,0.6588534,0.39464203,-0.86826664,-0.82092756,
			-2.8254082,-1.2890933,-0.83025366,-3.5037913,2.2982476,0.7846117,-0.91871274,-2.3761692,-0.27928543,-5.0932536,2.59979,1.7523189,-3.6140864,0.019868435,-0.11767795,-1.8026993,0.35839972,1.1218938,-0.48594078,-0.015451005,
			-3.0282595,-2.1323862,-1.8222373,-2.7589824,2.8408356,-1.0097657,-0.4172624,-3.068404,-2.8741653,-7.431859,1.0434147,1.9639922,-2.584398,0.3884929,-0.06532483,-0.12899561,-1.0695187,0.4930843,-2.0943766,-0.2898288,
			-1.2430283,0.036765892,-0.08227797,0.4283142,-0.053632557,-5.3766723,1.109544,1.4082114,-6.694812,-0.058089748,2.2794936,-1.4309571,-0.28480864,-6.841484,-0.12085572,0.1054784,-4.7342815,0.3778492,-0.5623137,-0.5711727,
			-1.2160252,0.7658971,0.017721666,0.36596042,-1.2134985,-2.27473,0.7611637,1.4505357,-2.4531133,0.05634085,3.1134264,-1.3005693,-2.0364938,-3.934176,-0.48724607,-0.21835081,-1.1967609,0.6952168,0.63163555,-0.37729537,
			-1.3405625,0.65553594,-0.06812199,-0.73818505,-1.2228206,-1.0633231,0.96488583,0.9506221,0.03549827,0.33029777,2.1339705,-1.2137915,-2.8952193,-3.1770992,0.23057123,-0.63401544,0.15462445,0.6988615,0.29405522,-0.647968,
			-1.7224025,-0.3199556,-0.13991338,-1.5740958,-0.54823637,-0.51192594,1.3378547,0.10410434,0.607155,0.11398126,2.3225107,-0.24367465,-3.6136122,-0.95804584,0.9930773,-0.86761093,0.7044757,0.23616503,-0.7398299,-0.59342504,
			-2.3135374,-1.2744508,-0.5030904,-2.4126658,0.8345734,0.47446874,1.0506042,-0.85568076,0.5913682,-0.6466592,1.885545,0.43254042,-2.7205427,-0.16551234,0.00047484212,-0.58953744,0.624959,0.7080038,-1.1964552,-0.712965,
			-3.6592977,-2.0494146,-0.683741,-2.3511677,1.9131376,0.79668885,0.8974539,-0.6047479,-1.0199742,-4.339599,1.5791322,1.3654405,-1.6251625,0.519149,-1.1275549,-0.2791695,-0.2228418,0.6511499,-1.9639335,-0.4881615,
			-3.3259764,-2.7831216,-1.3530736,-2.5002887,2.3339493,-0.98818624,1.113658,-1.4322815,-5.343431,-7.9594574,0.19492199,1.5544546,-0.40999705,0.30660272,-0.9249372,0.64050245,-0.86170626,0.16195823,-3.791329,-0.8571267,
			-0.9985851,-0.023150016,-0.77313066,0.47835752,-0.20558582,-5.711916,0.94381475,0.41057026,-7.06299,0.06989638,2.1080632,-1.6822573,0.32315162,-4.726781,-1.0479957,0.33551258,-1.8593944,-0.36377367,0.11143004,-0.32491392,
			-0.7893894,0.6369762,-0.80066186,0.58435786,-0.98533595,-3.0264058,0.44773155,0.63906986,-2.6917667,0.007024078,2.4045208,-1.3459519,-0.39145908,-3.1390924,-1.1846031,0.59929246,-0.14583667,0.18808296,1.019798,-0.5746786,
			-1.0190381,0.5930037,-0.6925242,-0.16713999,-0.93454254,-1.5094103,0.32587048,0.51624566,-0.014341014,0.32570162,2.3744555,-1.1159936,-0.65189284,-1.3205284,-0.12831105,0.5932141,0.5558568,0.45190766,0.37980738,-0.5734148,
			-1.8544633,-0.28324795,-0.23072112,-1.2319763,-0.41357297,-0.53188074,0.6955366,0.17961785,0.58466876,0.27546775,1.8278667,-0.42681822,-0.9246339,-0.12104713,0.6303545,0.6539449,0.45602396,0.23439872,-0.6269389,-0.6168514,
			-3.1399164,-1.4487681,0.02699758,-2.6772087,0.43600008,0.5410872,0.8128622,-0.29767838,0.3769853,-0.026357982,1.3393172,0.21903062,-0.6202948,0.43952033,-0.17076023,0.54034674,-0.2845552,0.4848917,-1.2763473,-0.5521246,
			-4.740867,-3.2094336,0.1114636,-3.1928482,1.239117,0.84881914,0.9682451,-0.45802692,-2.05656,-1.4064578,0.5652223,0.73616487,-0.21470821,0.41617534,-1.4055928,0.7000524,-1.172845,0.14182715,-1.9427277,-0.8302077,
			-3.7435536,-2.674542,-0.7216832,-3.2458506,1.2020952,-0.46251637,1.1554164,-0.79251945,-8.425908,-3.6130466,-0.21043548,0.19056168,0.10803781,0.44667184,-0.8609604,0.8611307,-1.4149692,-0.4281985,-4.2062693,-0.59981984,
			-1.0827862,-0.2284007,-0.9581248,0.03049644,-0.27519244,-7.2193685,0.3125215,-0.9995524,-7.6770453,-1.1691005,1.0810623,-0.69760984,0.16561565,-1.2532595,-0.17582092,0.5802103,-0.85735863,-1.2074825,0.5102103,-0.42527375,
			-0.73868966,0.3303922,-1.5288788,0.71892565,-0.8173984,-3.3874052,-0.56656736,-0.46671084,-2.5950956,-0.5453124,1.9351305,-0.2636139,0.24167086,-1.1290318,-1.1904211,0.6123866,0.49437866,-0.8172129,1.1602355,-0.69891644,
			-1.1861142,0.47691596,-1.2830999,0.37810054,-0.7483239,-1.8764517,-0.66340053,-0.1812035,0.0072652088,0.04163569,1.4664707,-0.39908406,0.042144455,-0.12296283,-0.12808013,0.7275024,0.36459258,-0.49688336,0.58383554,-0.5729009,
			-2.4840708,-0.23716934,-0.38320982,-0.47829476,-0.25677213,-0.7484497,-0.48727953,0.24296694,0.5427909,0.25753492,1.1964617,0.13102624,-0.025015214,0.42473096,0.50917053,0.77444994,-0.37946975,-0.8513792,-0.6567604,-0.30061063,
			-3.8703237,-1.8090479,0.29628205,-1.7147572,0.19274427,0.49333382,-0.014274048,0.30922025,0.18645915,0.27386367,0.4861344,-0.15300797,0.2234559,0.3842227,-0.141544,0.7028938,-1.7012305,-0.63947016,-1.5357231,-0.6996126,
			-5.270738,-3.4658208,0.6959339,-2.6496127,0.29881245,0.79434025,0.45410022,0.5027109,-2.9287624,-0.089205004,0.07870157,0.014763451,0.31155968,-0.101361856,-1.3514501,0.5655106,-2.161243,-1.1112531,-2.6090372,-0.7050693,
			-4.1538067,-2.5533786,0.06670484,-2.0726295,-0.11315089,-0.36603448,0.94815475,-0.056295946,-9.7969055,-1.2766591,-0.30033013,-0.901771,0.28149816,-1.3501631,0.17183733,0.69514644,-1.8213933,-1.5222799,-4.666035,-0.25485265,
			-0.67214715,-0.36840045,-1.9706107,-0.053798463,-0.76956654,-5.621166,-0.19219291,-2.233265,-7.4709744,-4.360447,0.2515778,0.6344942,0.7046926,0.27383468,-0.7951914,0.61810386,0.11544107,-0.69246554,0.13629812,-0.9794849,
			-0.89095134,0.5545207,-2.0565069,0.62602586,-0.9832677,-2.746682,-1.4482077,-1.4393755,-1.952891,-2.6467025,0.48555312,0.6201949,0.65898985,0.018999271,-0.9970542,0.29859015,0.5455735,-0.24851084,0.9302951,-0.90965337,
			-1.5921502,0.69906175,-1.7311013,0.65862393,-0.9017273,-1.3048038,-1.8143318,-1.1237228,0.26611713,-0.820614,0.28523323,0.2823991,0.50821465,0.4797529,0.044014793,-0.0364401,0.1803345,0.01988212,0.28255928,-0.19579431,
			-2.5092056,0.011154676,-0.922179,0.4032529,-0.28382528,-0.34932396,-1.622434,-0.31989697,0.49565658,0.13979931,-0.15324835,-0.07851533,0.40271628,0.5253642,0.6400342,-0.1562558,-1.0934068,-0.23640558,-0.8401032,0.22363812,
			-3.6524723,-1.2699096,0.22287518,-0.31308746,-0.09482596,0.5510792,-1.2425373,0.23945707,0.26183903,0.4997877,-0.31257722,-0.6750944,0.5653375,-0.2266514,-0.2773793,0.047866665,-2.6150749,-0.28713787,-1.6137805,-0.18058224,
			-5.027708,-2.936946,1.2157025,-0.97409016,-0.46564013,0.5372695,-0.52445906,0.43519774,-2.2947106,0.4062434,-0.36177096,-0.7955433,0.7320608,-1.397318,-1.1530536,0.22583452,-2.8457954,-0.58441806,-2.7070858,-0.88492537,
			-3.9755597,-3.2824218,1.1901407,-0.9781761,-1.329996,-1.1503261,0.46553254,0.10843492,-8.351107,0.32318595,-0.81409824,-1.6378322,0.5672977,-2.717868,-0.14017956,0.56299496,-2.2941017,-0.64044005,-4.916757,-0.74169093,
			-1.453676,-0.5810797,-2.0668097,-0.21854976,-0.8236461,-3.9690607,-0.33222422,-2.7234044,-4.5919027,-8.586718,-0.45784366,2.1003988,0.47345448,0.1113512,-0.45778036,0.5139531,-0.025011618,0.03796263,-0.51471627,-0.89863044,
			-1.486852,0.71216494,-1.9614125,0.4991167,-0.8737725,-1.6166972,-2.7365963,-1.4151973,-1.0685025,-5.4703712,-0.14387926,1.5719979,0.3352437,0.35280505,-0.3357126,-0.94713753,0.44145483,0.3759167,0.47143346,-0.42547852,
			-1.9581896,0.80804133,-1.7829628,0.45890853,-0.8560316,-0.7780854,-2.5310495,-1.6115,0.45956334,-1.7766731,-0.4588355,0.70894253,0.099369,0.53633153,0.0047216336,-1.6159576,-0.23369798,0.22978519,0.16141339,0.6729092,
			-2.6408043,0.08646808,-1.2694021,0.6980397,-0.41554394,-0.13428481,-2.1808872,-0.28133312,0.5613591,-0.23400848,-0.7026016,-0.32620963,-0.09106726,0.0042255004,0.20698325,-2.3685708,-1.035285,-0.6232578,-1.005506,1.1546988,
			-3.598924,-0.9908733,0.2774884,0.6588863,-0.5064315,0.39317238,-2.2651708,0.15612458,0.41489878,0.2665896,-0.6665606,-1.1641735,0.15882339,-1.6653173,-0.5338856,-1.625026,-1.9306096,-0.047112145,-1.5229024,0.7319916,
			-4.9354916,-2.363062,1.4503556,0.39422822,-0.9330123,0.13720739,-1.9065328,0.5406112,-1.6860708,0.3573516,-0.64608866,-0.9554342,0.25444233,-4.001345,-0.6573855,-0.82526314,-1.7375724,0.42699587,-2.390588,-0.03360862,
			-4.0543747,-3.4083598,1.965057,0.004282985,-1.2819978,-2.3383954,-0.4595408,0.41564605,-4.511137,0.07259142,-1.0450004,-2.0326853,0.33124188,-6.121048,-0.44030833,0.35507026,-2.6881893,0.21830787,-4.5343757,-0.18889299,
			-2.2727392,-0.77023613,-1.7960323,-0.709143,-0.9655415,-1.9480323,-1.587851,-4.0956135,-2.3866825,-9.780213,-0.28183985,2.5429955,-1.0727242,0.031515434,0.75890523,-0.31672254,-0.14313763,0.4980659,-0.42370248,-0.563124,
			-1.9516981,0.4384822,-2.2349987,0.16866924,-0.7285293,0.34016505,-3.5197663,-2.8305345,0.21944186,-8.574438,0.8380725,1.964321,-1.0493522,0.37524202,0.15114288,-2.3371832,0.15773328,0.47843707,0.5471751,0.46271208,
			-2.1865597,0.7386653,-1.9690443,-0.7961951,-0.95206416,-0.37702042,-1.8943602,-2.4737744,0.39071238,-2.2603726,-0.33733383,0.34352568,-1.5767003,0.54002535,0.2821927,-3.5980537,-0.2719686,-0.06880121,0.13218395,2.1177828,
			-2.832772,0.042763323,-1.3127426,0.5844088,-0.6257306,-0.16934446,-1.3518642,-1.0513895,0.616891,-0.7409186,-0.56432134,-0.831687,-2.2365441,-0.81440187,0.38713863,-3.4933467,-1.7004328,-1.2960143,-0.8555266,1.9795331,
			-3.281536,-0.90256774,0.14089707,1.2431215,-0.57276154,0.40504968,-2.2923138,-0.17815007,0.5612626,-0.15206611,0.15079898,-1.576895,-1.7775613,-3.8668368,0.13003758,-3.3209968,-2.9544432,-0.027070483,-1.3589689,1.9152557,
			-4.231923,-1.8913324,1.8613985,1.3173362,-0.6775023,-0.13460104,-3.3647711,0.6433126,-0.73678565,-0.32228038,0.1009192,-2.1011798,-1.7102804,-5.702842,-0.11090485,-2.1761413,-2.9595444,0.9312847,-1.1729925,0.79020804,
			-3.9077115,-3.0946338,2.225614,0.9425803,-1.2533612,-2.2630749,-2.118767,0.3572238,-3.2869794,-0.30637327,-0.17586575,-2.9387517,-1.2679439,-6.112386,0.3734082,-0.3812274,-3.4607904,0.69012207,-2.3713868,0.08532827;
