			-0.09371817,0.18136111,-0.019074176,-0.04039412,-0.17090137,0.0057347817,-0.041804306,0.04996227,0.7246739,0.26735097,0.23856902,0.1060638,-24.035467,-0.13378811,0.47476363,-0.0021945375,0.11235882,
			0.009007855,0.14006925,0.007935462,0.03481381,-0.11531993,0.023747642,-0.00782437,-0.11705842,-0.27214995,0.2478052,0.2421179,-16.490007,5.7023044,2.3939438,-0.3105894,0.32452852,0.035069317,
			-0.6674164,-3.469996,-0.09861252,0.01866338,2.295045,-0.058322545,-0.5564184,1.547917,4.9071784,-5.661858,3.2486007,10.212195,1.0248536,-2.661484,1.5587666,-1.469477,1.4249783,
			0.071594626,0.12751728,0.08335271,-0.10820306,-0.033949252,0.027557783,0.052546587,-0.2532998,-2.224424,0.80630386,1.7919261,-3.829054,0.38719276,6.5901084,4.207038,-0.41497102,-7.4438477,
			0.10896892,0.3007219,0.1331606,-0.020567186,0.2933991,-0.07565864,0.011220771,-0.73069763,5.8566837,-8.554344,-0.5940324,-3.739884,0.45037863,0.57113695,-0.29502666,5.2741137,0.71410775,
			-0.013692849,-0.22827768,0.12972037,-0.04526862,0.6364118,0.081983075,-0.05085521,-1.0992861,7.5171623,1.1153603,-0.14007695,-4.139036,0.6488513,7.6528993,-6.5746818,-0.75916696,0.6523453,
			-0.050765127,0.3544521,-0.023194661,0.026868943,-0.55852044,0.04905773,-0.00071460736,0.061048627,0.28391632,-8.501691,-0.60104483,-0.7417252,16.156645,4.4160805,0.73566365,0.65719384,-0.50100327,
			-0.071485564,0.07852785,0.019948222,-0.009205541,-0.06941201,0.0373187,-0.066963255,-0.068803765,0.22703713,1.0354037,-0.42939597,4.069615,6.656067,-13.738582,0.28016368,0.63261503,-0.6821679,
			-0.057464577,0.092205755,0.055494837,-0.0021816047,-0.01966771,0.013316136,-0.08813798,-0.02530522,-1.0104,1.6073744,0.67997944,1.9885678,9.76924,2.6025507,-9.901692,-0.43865156,-0.028560981,
			0.0909306,0.09447203,0.076676585,0.01969484,0.31900102,0.07953797,-0.011286565,-0.543251,-3.9575357,6.834663,-0.12280125,-0.1388462,4.159362,-0.7024277,1.8204026,-7.1027846,1.2055519,
			0.011226755,0.18755843,-0.001449549,-0.1191249,-0.18356465,-0.16593613,0.07035577,0.09394873,3.684282,3.8566513,-0.16363491,-11.17158,-16.438707,-1.2505689,1.7463063,1.6154808,0.759352,
			0.08225403,0.022319322,0.08201283,-0.085555725,0.041663975,0.034120813,0.08110275,-0.054396246,2.819202,0.91969323,-3.3444262,8.4292555,-4.708712,0.14251466,-4.2140436,0.39181465,5.1673756,
			0.04108769,0.1250751,-0.023627073,0.008969067,-0.19237942,0.078836575,0.060049355,-0.03622897,1.4754525,-0.35006103,-6.2082376,-0.55774957,12.53729,5.6682496,3.0513353,1.084473,-0.74190193,
			0.047310058,0.007318241,0.08213801,-0.09404853,0.28954118,-0.0018943776,-0.0066659558,-0.4152487,-11.418585,-2.759175,2.5291133,5.422908,-0.22507554,-4.1261916,2.259549,1.9243269,-1.6104604,
			-0.072622545,0.15072231,-0.0048457426,0.00069194584,-0.1698845,-0.04147245,-0.04750548,-0.03983548,0.21991561,2.3414776,0.054705895,1.322298,16.72039,1.2205793,-0.30620188,-7.7731686,-0.26474714,
			-0.044682153,0.11993367,0.022136748,-0.05278418,-0.108465716,-0.057948932,-0.013285057,0.0017559936,-15.279347,0.86495167,0.027936075,2.739322,3.6839533,-0.067654595,-0.1288435,0.112313055,1.2684416,
			-0.04533864,1.0576135,0.004188329,-0.0031423352,-0.8178683,-0.16019271,-0.042028222,-0.5758088,-0.68244046,1.4298457,0.2844465,1.3927883,-23.625319,0.34639767,-0.1344676,0.9196079,0.37600207,
			0.09305659,-0.04252182,0.014510498,0.06534137,-0.027258933,0.072859816,0.076717734,-0.09924515,-0.16186257,-0.69359994,1.1786081,14.153373,-16.245354,0.13517275,-0.92168504,0.2979342,0.808001,
			0.059804987,0.0059202113,0.04063284,0.08388982,0.04620691,0.06218198,0.02146521,-0.3015635,-2.1074798,0.14204171,0.8900722,10.863533,-0.1584905,-11.516482,-1.012636,0.07264568,0.9316924,
			0.10563353,0.04304005,0.016603427,0.09987527,-0.14146015,0.1401752,0.058568038,0.0028176724,-1.8742783,-0.06455174,0.14999695,-12.5350485,-4.3922772,11.929164,0.36291885,0.118837185,0.3484372,
			-0.13865201,0.20581196,0.05775349,-0.018705033,-0.28040367,-0.02312793,-0.11928967,0.18343745,2.1687682,1.1713296,0.15207146,4.423584,8.04607,1.1974045,-0.9845789,0.82654136,-8.750443,
			0.09947106,0.35276994,-0.07599317,-0.027983345,-0.3503889,-0.13814741,0.12557338,0.17095089,1.9802853,-3.1658046,1.8799306,6.0602803,9.707759,-9.913172,-3.799985,-0.23144732,1.4756069;
