			2.0674832,-2.4263039,-2.7207165,-0.7709444,0.548746,-0.38975292,0.49477977,-2.1655157,-1.617592,0.8866802,-1.3452992,-0.6571159,-2.0328765,0.22898641,0.726647,-1.4230301,2.501538,4.714027,-1.959585,-0.96012914,-1.7822379,-0.23086159,
			-0.015625363,-1.2448783,-1.2589179,-0.06791266,0.5542568,-0.18128757,1.0800705,-0.5585629,-0.344289,0.2678741,-0.5090156,-0.74143255,-0.5352489,-0.5135407,0.485921,-0.32171148,0.92503804,4.8978744,-1.2383974,-0.25639886,-0.21794926,-0.80381626,
			1.1215287,0.031019527,-1.6686217,-1.2999526,1.5279402,-2.5005383,1.1535258,-2.3410401,-5.035117,0.30610353,-3.8084643,1.8692532,-1.0190747,2.0876677,-3.138422,-1.0066025,3.1122139,0.14105646,0.34987974,0.47148502,0.5355498,-3.7336879,
			0.28575146,-2.7743518,-0.21672268,-4.769026,-2.4629974,0.34334403,-1.4037901,0.83856124,1.0692438,1.6916724,-2.4413655,1.309863,-0.5800296,-2.4853923,-0.16494915,0.11593206,3.068179,-1.4535524,2.1340413,-0.72805864,-1.9258364,-0.77496505,
			-0.09506956,0.19056211,-0.473948,0.5105499,-0.9682406,-2.4457734,-1.8419496,-1.1564025,-1.5583508,1.9222963,-1.2792788,-7.97141,-0.21524106,-0.19331878,1.2902443,2.6334689,2.609918,-1.3093357,-2.2153397,0.76468366,-0.3161202,-4.3603873,
			0.44234636,0.11654226,-1.6783205,-0.56076163,0.92430943,1.4977176,1.1504084,-3.0906909,-1.643518,0.195535,-0.943593,-1.916025,-2.593976,0.3494088,0.52809775,-1.3482336,1.7276073,-1.4649358,-3.8557487,3.4293888,-0.5839524,-1.6111351,
			-0.50170964,1.1896019,-1.337173,-1.599502,2.4395816,-1.0570709,-2.7004354,0.11382424,-0.7983215,-3.9893634,-1.3052952,-1.5426735,-0.6609929,0.98069906,-3.0690663,-1.002948,2.6370554,0.7048,1.4945369,1.0199252,-0.94674474,-1.2112415,
			1.5210309,0.32577518,-0.33296865,-2.2776651,-1.8419719,-0.38677102,0.28622323,0.8708763,0.6565625,-1.5024256,-0.97970945,1.0181293,0.0850884,-0.18170173,-0.0016680812,-1.191789,1.7237968,-0.85691226,-1.2503109,-0.91943496,-0.581711,-0.75530833,
			0.88651925,-1.5030493,-1.8590686,4.644603,-0.3811683,1.0376116,-0.6701709,-1.8896958,1.3205239,-0.29637724,-7.143718,1.7144041,1.1577619,-3.0691009,0.12376386,-0.23614852,1.3248322,1.1868082,-1.4192293,-0.341823,0.56653816,0.056050356,
			1.007858,-1.9748666,-2.0166845,-3.6512341,0.27483976,1.8003051,-0.72451705,-1.1359441,2.3339229,-1.7082651,-0.8079807,0.3799428,1.03251,-2.2887735,-1.493154,-0.27920154,2.276932,2.5170517,0.08510776,-1.0945452,1.2307874,-2.0802462,
			1.5575413,1.8242174,-0.58527327,0.17966886,-1.3993886,-0.659857,-3.1623476,-0.0039650598,-2.1111424,-0.057077173,1.2632303,-0.057632893,-0.086890735,-1.680014,-1.58555,-1.1370637,2.9971783,0.4898491,0.69857246,0.35703045,-1.0988644,-1.2175442,
			0.5665809,-2.1370752,-1.5957173,-1.5193969,-0.54585457,-0.037151497,-0.45879993,1.0903926,0.09355228,-2.295945,-4.122788,-7.0993056,-1.7093686,3.0416846,-1.1079693,1.8352991,1.6867757,0.2882368,1.200434,0.39289308,0.31603807,0.060997885,
			0.113089435,0.7677225,-0.5002568,-2.4687681,3.309848,2.930862,0.6201051,-1.5734072,1.1432755,-2.978019,-0.1786788,-2.4878943,-0.9472582,-4.339193,-1.7515634,-3.0385563,1.7653215,-0.22021775,-1.970855,-0.86492,0.4098056,-1.5594639,
			10.237869,0.40776142,-5.72177,0.12914988,1.9107668,-0.07967237,-0.54802454,0.6624167,0.12097689,0.32702228,-3.1052353,-0.7964068,0.09811171,-0.9695402,0.36699057,-0.23990747,-1.2407937,1.5987687,2.1361313,2.3737118,-1.3504558,-0.7911636,
			-0.4016826,-2.6331728,-0.34450185,0.57940805,1.0641258,-1.5923772,-0.31692007,-0.13660741,-2.615475,-0.0009280816,-0.4076413,0.2801379,-0.5614038,-0.6528355,0.94997555,-2.258133,2.2138498,1.7248131,0.1494787,-3.7706866,1.5428168,-0.99258864,
			1.0132701,-0.97868705,-0.5904914,-0.8279274,-0.36890596,-0.029354049,-1.1438802,1.0964599,0.2891119,-2.320976,1.0148774,-0.43684468,-2.7324228,0.13794719,-3.7764904,0.16510113,3.1928136,0.57848495,0.9493681,0.3318797,-0.82717437,-0.91895354,
			0.5214201,0.3170388,-0.8502143,0.8130808,-3.3554842,0.57892376,-0.5817355,0.6818253,-0.60759723,1.5455726,-0.19575912,-1.9566505,-2.486018,-1.5825249,-0.27285337,-3.4619539,2.1125324,0.67499226,0.624846,-0.51886666,1.1912233,-0.42210934,
			0.37542439,0.71526116,-1.2632849,0.29916954,0.5164024,-1.9070561,0.27935222,-0.12478448,-2.158968,-0.41252398,-1.461369,-0.6037599,-0.5961851,-1.1369869,0.36525953,-2.3603365,1.4949706,0.85453355,3.2083561,-9.844742,-0.9974638,-2.3969438,
			1.2399887,-0.8249189,-2.1666846,1.009828,-1.0979254,-0.17665368,-1.5688224,-1.2878134,-0.11268244,-1.229218,-0.36554876,-2.5637038,0.22751278,0.69486874,-1.440791,0.8428092,2.0326824,2.318324,0.32675767,0.60348725,2.1694808,-1.7187444,
			0.05949417,0.67512476,-1.3555255,-1.066338,-1.462388,2.7269664,-2.8128545,-3.482675,-0.45303074,0.40549973,-0.3821438,-1.1543853,-4.2303996,-1.3672829,-0.019109681,-1.4147173,3.6153316,0.7535164,-1.9159713,-0.18253174,-1.0807227,-0.1359575;
