			-3.4739242,-4.6603866,0.76504415,-1.9516264,1.2857842,-0.59045684,-1.6757202,-0.35597554,-0.009859209,-10.875495,-2.5351927,0.7770543,-2.0532718,-2.6350477,-2.6193407,0.20274882,1.7666379,-1.8957384,0.075859405,-3.1665792,
			-0.9326652,-0.3111735,0.714648,-3.5243678,0.5290661,1.0122288,-0.939668,-1.0940193,0.8265336,-7.44429,-4.265127,1.7153795,-1.7678899,-2.7311523,-2.131442,-1.6122582,2.81989,-0.44993505,-0.35486946,-1.9437912,
			1.0062494,0.28641832,1.588697,-3.287813,-1.6072532,0.75414574,-0.9526965,-0.43044636,0.15710784,-5.3122582,-6.7074437,1.7751124,-0.346028,-1.4220244,-1.6428528,-2.1099334,2.3640127,-0.49036682,-0.55513114,-1.9147385,
			0.92501515,0.4291563,1.1681914,-2.6781752,-2.8387487,-0.2906358,-2.06966,0.727621,0.49858198,-1.6894772,-7.0253725,0.52999866,0.6321778,0.006005741,-0.27402112,-0.42660996,2.5464313,-0.40495896,-2.2151797,-2.26241,
			0.24106196,0.20170799,1.7213964,-0.9968674,-3.7761283,-0.93116015,-2.8576732,0.22437145,0.8632675,0.44225726,-6.1595783,-1.559409,0.8484542,-1.2068077,0.5832812,-1.8535404,4.0976787,0.8188548,-4.790396,-1.0744207,
			-2.0558312,-0.98376894,1.0517526,-0.55017084,-4.139544,-1.5589446,-1.9823958,1.0200887,1.349279,0.9968408,-1.6866405,-3.1512742,0.123248436,-3.1452892,1.5243002,-5.4096384,5.252734,1.0535579,-5.66957,1.2801343,
			-3.6913776,-6.4241753,0.94019455,0.24011992,-2.9367166,-3.8097246,-1.8823546,1.8920515,0.405748,0.67352307,0.4398292,-6.028377,0.2586563,-3.4557168,0.9267627,-3.9013538,3.4760873,-0.051105168,-5.0143414,-1.6265249,
			-5.4234686,-6.7400064,0.7209376,-2.813698,1.289474,-0.6439839,0.9534814,-0.22481449,-2.2314453,-7.8175817,-0.74071115,-0.82678825,-2.2949965,-3.2239327,-4.113799,1.0585271,0.57422423,-2.1159544,1.0923252,-3.445975,
			-2.402541,-1.0678393,0.08704815,-3.4768326,0.7319954,1.2297419,1.1332301,-0.6515453,-0.5943003,-4.5149264,-2.3420258,-0.036567178,-0.53992945,-2.5878575,-3.0220037,0.56153584,1.8685182,-1.2443622,0.8819853,-1.9243636,
			0.27631357,0.59481776,0.8330393,-3.482082,-0.9345687,0.61089677,1.2028145,-0.7703378,-0.93895066,-2.7333305,-3.4267936,0.43901685,0.78442025,-1.7834631,-1.6880506,-0.03784068,1.9632747,-1.269999,0.6249727,-1.2795722,
			0.75601983,0.6787055,0.91656995,-3.1043975,-2.8957086,-0.6502976,1.0559318,0.09086373,0.19823861,-0.26831546,-4.057829,0.82556623,1.1559559,-0.19408283,-0.38491586,-0.24228658,2.1716142,-0.80652887,-0.79069614,-1.8572322,
			0.13840695,-0.051598497,0.9008866,-1.1374717,-3.5518777,-1.8686935,1.0102262,-0.040036123,-0.11741984,0.9721373,-1.6953896,0.21836141,0.5307333,-1.922929,1.0286177,-1.1117891,3.1304445,0.48245606,-3.8681731,-1.3483434,
			-3.0855772,-1.8152142,0.07085594,-0.019637235,-3.099281,-3.077918,0.9596348,0.7182736,-0.06040361,1.1984371,0.2661111,-0.6304001,-0.5099555,-3.2320614,1.8172786,-2.3765674,3.8977597,1.0248704,-5.2259364,-0.76099175,
			-6.255533,-10.835364,0.46311784,0.011506151,-3.3069203,-4.7795897,0.30977198,1.8254887,-2.0998843,1.18217,1.1178063,-2.0001898,-0.2970845,-3.436499,2.1580129,-1.2831503,2.1572745,0.105746046,-7.5599885,-1.0135543,
			-6.3505692,-9.609527,0.13397881,-3.8575554,1.0322778,0.3003865,0.9084343,0.63204324,-1.7411219,-6.7664504,0.9667379,-2.490356,0.51750505,-1.9866673,-3.4294722,0.3933176,0.5835802,-2.1217058,0.78400135,-1.5972502,
			-2.7796762,-1.3336982,-0.41308472,-4.223349,0.77066,1.4194127,0.72057676,-0.34137484,-1.8079972,-3.855329,0.44887546,-1.9290471,0.90864307,-2.6831982,-3.5036404,0.75225675,1.2700512,-0.7288811,0.94608384,-0.7003186,
			0.34020934,0.6253677,-0.35976392,-3.8680778,-0.1471804,0.67551583,0.65151656,-0.5678368,-0.8037807,-0.86100703,0.07614837,-0.63481057,1.3307669,-1.398922,-1.99542,0.80168766,0.98717046,-0.98838454,1.076822,-0.9296484,
			0.6491667,0.7315816,0.06712622,-2.2550952,-1.8673807,-0.81961316,0.7302902,0.14649455,0.006635004,0.5570372,-0.050941255,0.1852427,0.48562306,-0.17391725,-0.28173345,0.6671841,1.2499813,-1.0416012,0.619793,-0.71618485,
			0.1890867,0.11360291,-0.27951074,-0.34514022,-3.5617328,-1.9426974,0.88428307,0.09650645,-0.03463182,0.94533783,0.54055315,0.74548715,-0.71169007,-1.7549167,0.7790325,0.28663746,2.1926472,0.54566157,-0.77083796,-0.7223179,
			-2.929518,-2.182066,-0.76444083,0.59223133,-3.9928782,-3.241222,0.7673951,0.34784877,-1.5562761,0.5749456,0.94030356,0.33190104,-1.7234993,-3.2465389,1.4621551,0.18316081,2.0142288,1.6369857,-2.8233588,-1.47157,
			-6.5433106,-10.52149,-0.49623427,0.6647905,-3.0591667,-4.550397,0.28638443,1.4059108,-2.735978,-0.087520055,0.6077016,-0.3569879,-0.95679766,-2.670343,1.9011372,0.76343185,0.97067493,0.7239788,-5.330479,-2.2198765,
			-6.4911804,-7.5208983,-0.71254313,-3.646425,0.5670104,0.17627728,-0.030891307,2.1489093,-2.615814,-3.3476233,1.1046977,-2.769386,1.179924,-0.7817698,-3.7113447,0.35772365,-0.58539355,-2.2142255,-1.1933452,-0.17374676,
			-3.822754,-1.1791304,-1.3048464,-4.0542917,0.7062193,1.3402233,-0.32545665,0.7624468,-2.2553167,-1.107705,1.1923859,-2.9455996,1.3899549,-1.316996,-3.6952605,0.33820474,0.042755347,-0.9528327,0.011383137,0.41545007,
			0.18971236,0.5859422,-0.97610265,-2.7027967,0.328385,0.71990985,-0.53771585,0.61883307,-1.4148095,0.5186379,0.9222577,-2.212533,0.60326463,-0.83860326,-2.1249747,0.7523072,0.03688879,-1.2387913,0.7144872,0.18498132,
			0.7219026,0.6113424,-0.7583762,-1.4214387,-0.4744024,-1.2907952,-0.48193848,1.2884685,-0.23101182,0.7640492,0.60651904,-0.5999604,-0.8996894,0.3641112,-0.2839324,0.66300476,0.07570845,-1.3066046,0.9593289,0.13896666,
			0.34998453,0.15219636,-0.80322593,0.29086554,-1.9164864,-2.0877461,-0.24272251,0.5443002,-1.4791188,0.39758173,0.9235011,0.37182242,-2.2533994,-1.104339,0.4290764,0.5701731,0.3026759,0.73584026,0.7635977,-0.626884,
			-3.3384979,-1.4156557,-1.4151396,0.8282636,-2.9387174,-3.357805,0.1425881,0.5513651,-2.0490537,-1.0105325,0.7611404,0.8762136,-3.20247,-1.938544,0.57340974,0.6670639,0.086739995,1.791575,-0.29492137,-1.9124663,
			-6.529736,-5.922857,-0.6818123,-0.385841,-2.065074,-6.045627,0.07582787,1.5999309,-1.7695414,-2.3840215,0.54767334,0.37414005,-2.4038315,-1.3095994,1.0438924,0.78150237,-0.5844713,0.5879127,-1.7899734,-2.183671,
			-6.5096016,-8.897133,-1.1505171,-2.4375293,-0.6038172,-0.13324918,-1.6347258,1.2909048,-3.4533052,-0.580929,1.1330802,-4.094271,2.011701,-2.07202,-3.8595383,0.48391065,-0.7820626,-1.5790095,-3.3365214,0.93015,
			-3.4249473,-1.1435784,-1.9564874,-2.1725626,0.28097537,1.1005892,-1.9383284,0.065705486,-1.5942503,0.49480563,0.73742527,-4.168069,1.2643125,-2.728956,-3.8285918,0.41492146,-0.64515406,-0.24333993,-1.9849148,1.4323314,
			0.08358767,0.7027713,-1.7286983,-0.7969715,0.8079089,0.5629573,-2.4264522,-0.19616874,0.062099844,0.8512977,0.887965,-2.996615,0.043200694,-1.4160066,-2.0604787,0.32825264,-0.7491015,-0.91590005,-0.91697806,0.88477707,
			0.77539814,0.665323,-1.0554639,0.24322273,0.5717804,-0.9824538,-2.213503,0.103254065,0.30171508,0.36931127,0.983297,-1.6885998,-1.994056,-0.044469062,-0.30940595,-0.2507166,-0.7348009,-1.0072081,0.16341624,0.5128001,
			0.3654787,0.2970938,-1.0491838,0.8343209,-0.5529904,-1.9781582,-1.6273695,-0.9894526,-0.17055935,-0.9871745,0.8520491,-0.15077177,-3.030602,-1.5626826,0.34753436,-0.116455935,-0.9418774,0.54985905,0.92213935,-0.5603608,
			-3.1048617,-1.8684374,-1.2306131,0.26755488,-1.4865844,-3.1061704,-1.0362854,-0.8574041,-1.7551415,-3.3537173,0.4241955,0.5997088,-2.8202326,-3.0146775,1.1229084,0.10924775,-1.1262649,1.6960262,0.8331963,-1.4288851,
			-6.763342,-9.952263,-1.0385327,-1.3848888,-1.2118737,-4.2152033,-0.65992975,-0.013028088,-2.8981621,-4.5485125,0.45364487,0.79951304,-3.5575747,-2.0063512,1.2534647,0.4384716,-1.2365128,1.2305995,0.50410914,-1.9805843,
			-5.950805,-7.7773185,-1.3224474,-0.9767552,-1.3064781,-0.8423902,-2.2778783,0.95082253,-2.0414257,0.8863875,-0.40455306,-4.828256,1.193286,-3.0407667,-3.4366179,0.80971074,-1.252369,-1.9943639,-5.8876605,1.4710064,
			-3.3815749,-0.5096246,-2.0212917,-0.2766889,-0.36990678,0.62367797,-3.5887747,-0.07967912,-0.020477625,0.9356897,-0.9813683,-3.2081592,0.70909554,-2.6872537,-3.0257313,-0.48506573,-0.9599431,-1.0488758,-4.3648434,2.0781567,
			0.31405845,0.6211747,-1.9246932,0.47385132,0.6346541,0.31356773,-3.310665,-0.5824002,0.08627153,0.7809453,-0.44166154,-2.9595332,-0.9147574,-1.7663217,-1.69613,-1.6665318,-1.0341103,-1.1567501,-3.8076193,1.6475556,
			0.95262945,0.48885852,-1.5500201,0.9299513,1.1314508,-0.8023726,-0.94868565,-0.3448198,0.7360893,-0.77069175,-0.076580316,-1.5619473,-2.476835,-0.1597494,-0.20729998,-3.9188883,-1.2116096,-0.8299727,-1.4625944,0.5848509,
			0.45839596,-0.09370579,-1.3682396,0.2389389,0.86286026,-1.8518445,-1.9119551,-1.3041734,0.6321152,-3.3677738,-0.3184623,-0.5598349,-2.2695856,-2.0213575,0.82731956,-2.8834229,-1.565908,0.5058975,-0.017170178,-0.2858834,
			-2.9161782,-1.4454641,-0.89886117,-1.1744765,-0.10196021,-2.5034742,-2.235024,-1.4738474,0.043771867,-4.005,-0.47476867,0.27080554,-2.3112547,-3.6297762,1.408104,-1.8217819,-1.6923363,1.0970427,0.9569736,-1.5544945,
			-6.882476,-7.304824,0.033446684,-3.368775,-0.43384084,-3.4246516,-1.4432563,-1.2087922,-2.585152,-3.6780894,-0.24107888,0.06828234,-2.6995468,-3.9467123,1.8240824,-0.33530936,-1.7798996,-0.19983228,1.0594001,-1.8705513,
			-2.9908433,-4.4222507,-2.2969668,0.17213733,-1.5310712,-0.74627876,-3.4562197,0.75676006,0.3997712,0.6960598,-3.069475,-6.7857337,0.97610253,-3.3026588,-3.0001838,0.53194696,-0.3999741,-1.3527688,-4.8419733,0.30198985,
			-1.6594782,-0.07309491,-1.8703701,0.41479477,-1.4231108,0.464436,-3.8283255,0.22933911,1.5907221,0.69891596,-3.5711274,-5.4569683,-0.096302405,-3.1675363,-1.6174039,-1.7510344,0.65850234,-0.033043213,-5.8821855,2.1121082,
			0.76069057,0.41362423,-1.6242138,0.984328,-1.0012753,0.33480683,-0.68248075,-0.15935738,1.6749924,-0.26054573,-2.1208267,-4.2248445,-0.97162867,-1.3974482,-1.1625146,-5.994411,0.22287339,-0.6671017,-4.3238792,1.6187167,
			1.2359347,0.14684375,-1.0303409,0.3807927,0.39080986,-0.54445016,-0.13333812,-0.056417536,1.0747738,-2.0266304,-2.0568235,-1.7710551,-1.7290146,-0.14767575,-0.019250846,-7.3540835,-0.7389819,-0.7021518,-1.9581647,-0.097725734,
			1.0931336,-0.3819809,-0.7310219,-1.0790712,1.031723,-0.882409,-0.007339569,-1.4425114,1.8255857,-5.2201953,-2.1878664,-0.1262422,-2.2358146,-1.4456571,0.68134034,-7.045462,-0.8616694,0.57507586,-1.0957091,-1.469098,
			-1.6171819,-1.2902774,-0.20157816,-2.9095538,0.55298895,-0.9404186,-2.7486174,-1.9965948,1.945176,-5.522789,-2.465115,0.47173646,-1.9916607,-3.5042474,1.4546912,-4.019899,-1.2167828,0.783179,-0.06718841,-2.7966664,
			-4.7775846,-4.917536,0.81581616,-2.7889252,-0.07454452,-1.6233189,-2.3239126,-1.2320491,0.5040395,-6.535909,-2.118114,-0.0074800923,-1.4078552,-4.4123135,1.6584626,-2.5452251,-1.3921052,-0.77818775,0.9805646,-3.1935096;
